-5.503796929640788482e-01 -2.201786954592985235e-01 -2.585087251384076690e-01 6.635511936117900744e-02 2.888408767246101183e-01 -3.196215753363393364e-01 7.468583771554941908e-01 -9.686720401501000208e-03 1.721475102178341710e-01 -2.452081859615347637e-01 -6.555107236825781225e-01 -1.216549201463436730e-01 5.880330776142985716e-01 2.811142780023704879e-01 -1.928073325762686974e-01 3.233544870306561125e-01 -5.285479336766655406e-02 3.156902928097152228e-01 1.884742103174386410e-02
2.346432820987492951e-01 6.734360709336634221e-02 1.530871112791453437e-01 1.298931813776519652e-02 -1.557527807320517044e-01 6.713535318041734257e-02 5.952787533909716100e-02 5.405980254876099206e-02 3.752471592294321368e-01 7.414106215390003918e-01 3.927591229756796642e-01 1.578037002323127436e-01 5.937806195750540417e-02 9.641597652727842971e-02 1.077498260757644849e-01 1.059707658635149763e-01 4.827396500650621980e-01 -3.449043017971824554e-01 2.394153968632677099e-01
4.817824686419518859e-02 1.182863511284069774e-01 2.409078742422193081e-02 7.629423595237264100e-02 2.397296634005430804e-01 9.881583643962335572e-02 3.956091302373089258e-01 7.347692907147215791e-02 2.288696287932893147e-01 2.188670479747891265e-02 -1.358462074554651067e-01 -4.300994040767305154e-02 2.389418146419280964e-01 1.825179700910935232e-01 -8.111909558143694937e-03 1.678125518564095586e-01 3.836495662258530837e-02 1.302861004987588278e-01 7.304403067500788715e-01
2.575774493624278794e-01 1.179721954979835730e-01 -1.682135588838302998e-01 -1.466287437103184210e-01 1.812108499261908326e-02 2.261930963552941376e-01 2.648433880576944177e-01 -1.432139435093023605e-01 2.076153222072984472e-01 -1.271564780439861653e-01 -2.828666645521099240e-02 -1.688547299945658553e-01 -2.670705134915722367e-01 -6.623989465431673329e-02 -1.728580229143622249e-01 2.155633353586838483e-02 -1.174126046191063810e-01 -5.710198681885148009e-02 4.565976946431077321e-01
-1.292764797402129982e-02 -5.669933792850059828e-02 -1.997424025930905900e-01 -4.706717678675198524e-01 -2.252329340596673779e-01 1.885198210911488148e-01 9.158966206948032651e-02 -4.955421682599548544e-02 3.052834806273417856e-01 -1.086496385480145155e-01 -1.468694221668692679e-01 1.148961473761729718e-01 9.741555104244993546e-03 3.478565988159713074e-01 1.085167862485785922e-01 -1.646392239559105741e-01 2.749673451455001416e-01 -3.913421122612594227e-01 1.071582526399124546e+00
-3.652303184403588726e-02 4.389761372920650967e-02 1.943811706026663672e-02 -1.906133719374537155e-02 1.525442771309878098e-01 -9.419687568900983465e-02 2.935366280937335426e-01 8.516184781871430007e-03 2.369428562499167334e-01 2.278735446498758588e-01 -2.616136616846802543e-01 -1.813481801335236898e-01 2.832428786626011163e-01 2.004664559767376508e-01 -5.137598321471994328e-02 3.845795474704664235e-02 7.905094208989144056e-02 -6.561877444779280755e-02 4.191456507395209807e-01
4.183571022186114985e-01 3.192579653056806799e-01 2.638188275536334504e-01 3.135082551395328432e-01 2.658938363756850887e-01 1.732269673129077370e-01 4.635534161295453565e-02 7.085464400910873595e-02 4.014385627546442070e-02 2.842109966217243322e-01 2.326238210011837837e-01 -2.007076940737533566e-01 -9.106949434414768341e-02 -2.054451731184087360e-01 -6.056392107932726671e-02 8.538663589665235198e-02 -1.306648028705902631e-01 1.504941292022725086e-01 3.195929525941674232e-01
-4.817868230093935722e-02 -6.639351356699890738e-02 -1.666876336351570675e-01 -1.563196113736229631e-01 -4.919261505476806712e-02 5.734621726099901895e-02 3.024684833911032156e-01 -2.497778900165050983e-02 2.649410898289405458e-01 -3.863397234898433702e-02 -9.238368637919056395e-03 2.279693369429481864e-01 3.743624131936527932e-02 2.460281458173591007e-01 6.648047853655558725e-02 1.648372272192467070e-01 2.003381754231623735e-01 2.788652542051537828e-02 -2.369388237124381569e-01
-1.814323317550975978e-01 -2.258809714503441923e-01 -2.420028637474399003e-01 -7.519579114611152360e-02 -2.147587290932880810e-01 -1.791575260425791738e-01 3.853204698847177978e-01 -1.644189092958071863e-01 3.056637205772402832e-01 3.339692682703250814e-01 6.150941964433274609e-03 1.930116512901212250e-02 7.351318156243255575e-02 -2.351387350961672146e-02 -2.274217715880469670e-01 2.125316329883822908e-01 2.540459661479289588e-01 -2.455681689425134318e-01 -2.463878446789384558e-01
-5.427475518116689490e-02 1.161416281121230298e-01 2.337018498545111456e-01 -3.048610762445276220e-02 2.196544764521818904e-01 -1.017267524963886699e-01 -1.701983157794266233e-01 1.169973780333551650e-01 -4.769165949663137921e-02 7.965644934305039782e-02 -4.340409024844785746e-01 -3.394699084416273882e-01 3.655802700976765185e-01 2.268187251162332163e-01 9.796322501485758838e-02 -2.953064793192731186e-01 -7.651244614886010265e-02 -1.352319960647445363e-01 1.012519917606590436e+00
-3.309578758233125417e-01 -1.407030582038832078e-01 3.419742189483592210e-01 3.212376307143365861e-01 8.028162505988093584e-03 -3.372096809036462806e-01 -3.799704071367725478e-01 2.658141016524044886e-01 -2.525255098513574659e-01 3.741662949131864258e-01 1.551166783366293711e-01 3.082191832960889388e-01 4.609382227764151629e-01 1.130601023732819704e-01 3.116354423890457803e-01 3.787766027401452684e-02 2.647533349152669802e-01 8.850167305620210145e-02 -7.293670659650387522e-01
3.388273076327927846e-01 2.442665199024739719e-01 1.776939168313232120e-01 1.127802219758234498e-01 1.370921198397730689e-01 1.862150214487204858e-01 2.302196123409644066e-02 4.729785818427471172e-02 1.082464362584465017e-01 2.049741802340738217e-01 1.548799656225801624e-01 -1.375418466467347445e-01 -6.467828674315796722e-02 -6.494371010192624694e-02 -4.846590834481315224e-03 -2.084706324688884692e-03 -1.675624259513719405e-02 -2.486410085824460742e-02 6.194203660340503736e-01
3.201356165658159059e-01 1.545307575381525966e-01 1.325472952313859198e-01 -1.240915643137074503e-01 -1.046000321840857838e-01 1.133800798616684535e-01 -9.904523766009851182e-02 -6.863444830082642001e-02 2.465110652220968424e-01 5.316087219304317379e-01 6.859775556243423444e-02 -3.210468378335564754e-01 -5.753833491165850911e-02 -5.158170144254342615e-02 -1.076277546737686303e-01 -2.161676195892681951e-01 1.473555582990505597e-01 -5.472122470421363349e-01 1.229579965774350248e+00
2.617200417331910778e-01 1.028533746105675106e-01 -2.773039491745173807e-02 -1.971897909050650821e-01 -1.283115183977187879e-01 4.244354932552248938e-01 1.704624601417488797e-02 1.349879848046231234e-01 2.319404094754244916e-01 -1.328540435046261237e-01 4.486115013383960570e-01 6.129036832108197830e-01 -1.958710034247519161e-01 3.075502334503322222e-01 3.910824653840803133e-01 1.165598294676154778e-01 3.503425227959747201e-01 6.738706860191126524e-02 9.413693392256676507e-02
2.279520132014991804e-02 -9.084670549723620342e-03 -1.218121723848339527e-01 3.264174254591732938e-01 1.920001676941578417e-01 -5.910111594064803436e-02 6.694374222761628745e-01 -5.354136223480882029e-02 2.375521285320432718e-01 1.581688011339318634e-01 1.187690842132634456e-01 1.292709634671640462e-02 2.832210677866194015e-02 -1.653814832169466786e-01 -2.611213513217415794e-01 5.332916357751527059e-01 -2.368797852527626535e-02 3.821990855105898421e-01 -8.130639528374618008e-01
3.199767543768187172e-01 2.453289433865686042e-01 -4.033287968490611303e-02 -1.507831659189276877e-02 2.094344476227849861e-01 2.971521622848495303e-01 2.498637726519053470e-01 -4.063622738985250837e-02 1.180096739317634258e-01 -2.276301241992135238e-01 -7.237280143573318614e-02 -2.275663874735505687e-01 -1.733813317715316438e-01 -5.467993148501241324e-02 -1.228036285142112133e-01 8.297373727414809191e-03 -2.341442935771748945e-01 1.184501614004933590e-01 8.198991850352695954e-01
1.392461525467287575e-01 2.692171906851873464e-01 1.707716943260249864e-01 4.712588304965073527e-02 3.684573660301360132e-01 3.890293682974002576e-01 2.116348793070850845e-02 3.104359380008102076e-01 -7.145773929274838732e-02 -5.838220559640284746e-01 -3.484399487995924749e-02 2.954882612515644102e-01 1.633190273047305796e-01 3.823032998571398444e-01 4.112766801107975434e-01 2.395536152591122223e-02 -7.648873193182194330e-02 4.855794636250245211e-01 8.810370791848706196e-01
-1.692087762075561996e-01 -1.257403159748224017e-02 3.153052001185550068e-01 3.523484873928771077e-01 1.415805703100418145e-01 -2.528729323658380768e-01 -3.857709889328020392e-02 2.155879882518586810e-01 -3.473678173573545996e-02 4.872238984843424436e-01 3.950876378561839208e-02 3.897731612317872213e-02 4.843930886957382720e-01 7.438566343730322605e-02 1.121994763759381619e-01 1.152449881197587511e-01 2.110748901769239627e-01 4.523201593299790851e-02 2.164649920569894880e-03
