3.552510482617877718e-01 5.214628805273123779e-01 8.701874539984927326e-02 -1.595502636408319685e-01 -2.514368453826815730e-01 1.194394887462921495e-01 -1.449281331767647389e-02 4.351753843039271596e-01 5.247328447257832984e-01 -5.625042412090587307e-01 4.256440094942482988e-01 -1.247058846261761833e-01 -3.676943200073456430e-01 3.462560895243533277e-01 8.377158285238556212e-01 -3.548937041137855686e-01 -2.997889063746217997e-01 3.350370387500693492e-01 -3.532595635199507367e+00
-9.896374149280960653e-02 -1.326472688114406884e+00 -1.027811443512269385e+00 -5.036101467206741678e-01 -8.494711745108183276e-01 -8.117239054907681162e-01 -7.819613466321493345e-01 -2.716334391154633376e-01 -3.220283206010768895e-01 -5.762381635481860220e-01 4.755677195662086909e-01 -8.868317479868614850e-01 -1.358890059208684109e+00 -5.975663254719106865e-01 -2.281980656623688597e-01 -7.010513279499417383e-01 -5.341892662228168165e-01 -4.588173347251112144e-01 7.220943534782082729e-01
9.111762054854708470e-01 -7.772067397054990279e-01 -2.557547052827423284e-02 -4.614577412468361395e-01 -6.179286294002749313e-01 -2.233321993546406037e-01 -3.701644419607702519e-01 1.149241383814179202e-01 -1.482643674374461984e-01 -3.404552143266377784e-01 6.464628436510115872e-01 -5.199103308432636572e-01 -1.318268577877834025e+00 -7.036752020928825624e-02 5.043600364527296431e-01 -3.445778182282616120e-01 4.892889119520323349e-01 2.250987402716464192e-01 -3.449731632270770731e+00
-4.378984048211050917e-01 -2.686542011913938266e-01 -5.754479613077042588e-01 -1.326823748691996763e-01 2.682734401498074184e-01 -5.479540859355898075e-01 -7.534672468602379158e-01 2.940449321132007077e-01 -7.650530734023721149e-03 -6.684714305608642215e-01 5.727121588274895064e-02 -5.360024624942141269e-01 -6.585422127939345449e-01 6.903923072585642640e-01 -3.612281177338987903e-01 -4.381019169212341802e-01 -3.115865081040485735e-02 -5.877649572755595520e-01 -3.439532261242049138e+00
-6.026034485715876521e-01 -1.168233683483583668e-01 -6.010342402499571079e-01 -1.670818381018714660e-01 -1.149834994831496982e+00 -4.608835337655227127e-01 3.723963417889085137e-01 -4.618321958241253244e-01 1.276596320188331246e-01 -6.586859836617536823e-01 2.949612732098648160e-01 -4.023106015771422961e-02 -2.114933911938066124e-01 -7.278564515156271675e-01 5.584658350461862986e-01 -2.958053888147701982e-01 -1.119851860526320131e+00 9.999266850946753049e-02 1.118261061874622042e+00
-5.193069298047972016e-01 5.704435362522370934e-01 -4.416650441332295451e-01 -3.652614906709404918e-01 1.133077454790039351e-01 -3.155261666086494610e-01 -4.372025275355876928e-01 2.162003462035285151e-01 4.362519165243098906e-01 -6.173130304094791576e-01 6.442943011802589881e-01 -3.069080996410178952e-01 -1.186214272417966675e-01 5.227164676402338284e-01 -7.660079711167222527e-02 -7.271584496596921188e-01 -5.750622430741311186e-01 1.559412163162645082e-01 -1.198594294132067306e+00
-6.233436675117573489e-02 3.486936710279930299e-03 -1.839286705366022512e-01 -4.190373303340098610e-01 -5.546791300430677918e-01 -1.416241508285443623e-02 8.780827703437453502e-02 -1.006243848637225491e-01 -1.982800908807953177e-01 1.011124812470396289e-01 7.272263422706636282e-01 -8.588423243714213284e-02 -3.201675022744994714e-01 -1.915646147222254958e-01 6.359294353825654944e-02 -3.779894102680216306e-01 -7.260411171941077990e-02 4.331302093007717846e-01 -4.427827406294018608e+00
-2.361417949183249598e-01 -3.167031001451162120e-02 -2.659089702868951965e-01 2.789085911253818550e-01 -6.760890346649691685e-01 -3.476984330917331500e-01 2.359050596666610877e-01 2.528086703716864170e-01 2.793164171500621684e-01 -1.151859713797366958e+00 -3.829091529100103197e-01 -7.192853168433972766e-02 -6.019618999332336795e-01 2.567964208069131726e-01 1.072391177818122099e+00 5.616606259204411783e-02 -5.129681594722795834e-01 -4.698654088895491410e-01 -3.927321511563121592e-01
2.475392162169197663e-01 -1.316937501717078268e-02 -3.783261708922243394e-03 -4.284184966276503165e-02 2.633717963587377531e-01 2.375556745106808809e-01 -2.507095684211790299e-01 4.899884690150034527e-02 8.917252952789701814e-02 3.765783321058831512e-01 1.301061524996825758e-02 -1.161242429774145685e-01 1.660625869433979274e-01 -2.432655955901740497e-01 -2.905882474275610083e-01 -1.129729502948227521e-01 -1.884069829325384360e-01 2.291296047412961015e-02 -7.598608263655438400e+00
1.304735129811622207e-01 -3.911607069394537617e-01 -5.256185506270716346e-01 1.925365903630452680e-01 -2.505617497160829155e-01 -2.096526307641139453e-01 -3.872448771661377576e-01 -8.046805855471016178e-02 6.088855493282842035e-01 -5.591002740893832312e-01 -4.816972678067354963e-01 -4.061477785256277784e-01 -1.239616399274206249e-01 -8.062080044942986357e-01 3.266910991730443969e-01 -2.025808471047263748e-01 -1.401946870124483935e+00 -5.149763183021890400e-01 -2.172797260769970151e+00
