6.333672633248920575e-03 8.994313645116092798e-03 1.639913127019118969e-03 3.451881527622431382e-03 2.666485689896330724e-03 8.339169294344804181e-03 7.358575776137292468e-03 7.512029015460422801e-03 1.986428395285714035e-03 7.291479173687897414e-04 8.212624492013568742e-03 2.796005139632119947e-03 -1.854961259561908231e-03 -1.147493392344195971e-02 3.577554574780561405e-03 8.740131181804689300e-03 4.653628753852108273e-03 5.517558504750163205e-03 2.963303658027726523e-04 6.381721125629843255e-03 9.558897158844115172e-03 1.235554982162849133e-03 4.518951739796090925e-03 8.734644083769199652e-04 2.441268082871611393e-03 8.905438381486455168e-03 6.522289242321555741e-03 5.708360988879897235e-03 3.400415485418016061e-03 7.955285280043168650e-03 4.931437050934205091e-03 7.577071060501165169e-03 5.816426440628502843e-03 8.037295209727202475e-03 1.055779673133764077e-04 -5.912694461081296864e-03 -1.595026737386639679e-02 -1.629493721281267612e-02 7.572210221641939402e-03 3.121387581750361545e-02 -6.447795631460655555e-03 -6.002949928241555280e-03 2.876983682010075816e-02 1.521103291015491084e-02 -3.993852027236668989e-02 -2.107274448330025834e-02 1.262173350622567769e-03 8.131122696438276148e-03 3.112753214061737134e-02 9.876576048369398522e-03 5.046301537944578204e-03 4.247739718227866446e-03 7.295544802725810463e-03 2.520471361884731205e-03 3.479143949453699335e-03 6.572937157247745257e-03 8.177807755041809068e-03 2.314701253084763821e-04 7.371052611165076346e-03 8.741782666621403936e-03 6.072725399197239672e-03 5.339681061434403339e-03 -1.775746155855638733e-02 -3.746286147769520986e-02 -6.544128728339310141e-02 5.626631136592464763e-03 4.284277229269888021e-02 6.863216898248530873e-02 4.473640846204370719e-02 6.274143734044364262e-02 2.334383292154944556e-01 1.264089768676627257e-01 1.215838502236644275e-01 2.137794895271010465e-01 2.102542203626026340e-01 1.922245922557694331e-01 1.333816184457302934e-01 4.132891440716149334e-02 1.093330908086996046e-02 1.508158686286157138e-02 6.566043964112098022e-03 -1.625230052589962844e-03 4.381670817990237880e-03 8.717513731954177475e-04 4.279100137922269183e-03 6.579491364698864669e-03 9.961072015772688346e-03 2.351509076326080763e-03 2.775082231674182338e-03 4.315379551405758990e-03 -6.542195937325709885e-03 -7.464196117678242350e-03 4.074105320378237569e-03 7.596799446079335882e-02 1.304955222456043173e-01 1.564057684877983023e-01 1.833637530546196603e-01 1.835222670677841839e-01 2.509419681180882766e-01 2.994214327659583952e-01 4.414796135766465013e-01 2.776608602146195537e-01 4.116080111861425417e-01 2.703341930309494101e-01 1.893076294994866238e-01 1.096250630700283946e-01 6.183007130555438768e-02 7.607404190053179693e-02 3.479159472605214843e-03 3.282285797838955729e-03 5.705560979292758576e-04 7.242568749470020342e-03 4.022590398655617565e-03 9.470294958381839795e-03 1.532978099293213700e-02 1.041490560250450496e-02 4.631418578149260057e-02 4.467297206354561151e-02 2.349789035362436634e-02 1.273533993345201953e-01 9.161455576292608372e-02 1.047613953324644936e-01 9.154296086955018841e-02 4.912847469873222322e-02 1.017867481417335795e-01 -7.445515827659483256e-03 8.976698254551275513e-02 4.964076861362984316e-02 9.743255179764281904e-02 9.825291177690391453e-02 1.284310757981415585e-01 1.165605835390840922e-01 1.740676029746864306e-01 4.105993537196690052e-02 1.378243360753153568e-01 1.531416304237565029e-01 1.282199880436523942e-01 3.575717041521942613e-02 -3.229862843825785082e-04 4.179718921318209893e-03 4.628485310378051276e-03 7.308125147030378709e-03 6.815396814935311548e-03 2.148028617739692822e-02 2.803524764380359996e-02 1.156659693550616957e-01 1.569561451413687414e-01 1.572282516329790159e-01 2.436344264813724292e-01 2.112146103404171082e-01 7.545200378032310140e-02 -2.988790608089515050e-02 -1.081378265962654461e-01 -6.588629905277616772e-02 -8.565163992615566768e-02 3.475680910671079954e-02 -3.233700732207937800e-02 -5.268700951391898368e-02 3.478465047690757622e-02 4.451014753328443735e-02 1.728989170110893994e-02 8.756736099295193976e-02 -7.146503177497182981e-03 2.000287727443447183e-01 3.544870240142873885e-01 1.254226678216447677e-01 2.262055676748307709e-02 8.587343956903893682e-03 7.429303737266981789e-04 3.583378059556874967e-03 7.977707949640229848e-03 7.625879043316216577e-02 1.022420548757811513e-02 1.213454612155564633e-01 1.168018628192900032e-01 1.520749548566620868e-01 2.036531848026600644e-01 2.116157837537505915e-01 7.589759357611781942e-02 -1.357188401163731718e-02 -3.839215270149448633e-02 -1.166600532670333812e-01 -1.342386811706303973e-01 -7.571803257191909997e-02 2.212853482812269720e-02 -7.349022935640789345e-02 -7.468076360835623762e-02 6.249503310927312545e-03 -5.178900385249061988e-02 9.282984704504132489e-02 1.884983582681481473e-01 3.296449166979841805e-01 5.718461742856867369e-01 2.431594038337351604e-01 5.175004906231691487e-02 -8.097631375896367084e-03 3.541049062989412837e-03 -1.824989820590313587e-04 1.891906465592464379e-02 8.434354608935719366e-02 3.893995932520542130e-02 1.053574408287565045e-01 9.700880137422614180e-02 1.060986868524470550e-01 -5.389954211222061295e-03 -6.352249422250690059e-03 6.288453118074084636e-02 -7.570405627415452421e-02 5.032329787111515518e-02 -8.852162448160856567e-02 -1.357669173697921006e-01 -9.843325113129450243e-02 -1.162688675039953712e-01 5.814085270029283048e-02 -3.946223001806341280e-02 4.485092738979446630e-02 7.394961186268322884e-02 4.092176850086207823e-02 -1.071269955989296724e-01 3.890787720760682800e-01 5.818332830637441555e-01 2.931698684017660650e-01 7.012862980293135817e-02 -7.943789771482306569e-03 8.626085465701111704e-03 1.048549677575886206e-02 5.850389226938866594e-02 1.475872451262494334e-01 9.350466734117277023e-02 1.240659897333622336e-01 1.265139738619603937e-01 6.107053953182930289e-02 3.352848011000582676e-03 5.763553712853546757e-02 5.037176189849154606e-03 4.046984134860016902e-02 -1.925792156076559444e-02 -8.627932573912627801e-02 -4.512718280064278997e-02 -5.678469595372785672e-02 -3.318467923566426753e-02 5.917585735543803849e-02 7.095851956423021578e-02 -4.201506240554838539e-02 8.373049476704158556e-02 8.800821890640897482e-02 4.863565621226999952e-02 3.285002885944385276e-01 5.477431043627246643e-01 2.876514100817148534e-01 7.207297215679646374e-02 1.324772956753820022e-02 4.713503526645067797e-03 1.017694494941654391e-02 9.184943992306109084e-02 2.332713113152737605e-01 1.657176445021427691e-01 1.194737793295569533e-01 5.884677454391652046e-02 3.633608034441880314e-03 4.131000580968841041e-02 -5.946054188360742898e-02 7.327043346661252232e-02 -4.549858899046189259e-02 8.880335662659499807e-02 6.094338655058238741e-02 8.391368220984406212e-02 1.548185347233815585e-03 3.701874836874178426e-03 7.288479052918311885e-02 8.668970390196381604e-02 1.117320082314225693e-01 -2.762488552775785311e-02 4.848400392277749105e-02 -8.752670314910677984e-03 2.036968493460427909e-01 2.889006306299934934e-01 1.300712045705113562e-01 5.290639020291286465e-02 2.123231193778426368e-02 8.790187804895988055e-03 1.547325388374054707e-02 1.062027968595237321e-01 2.872356624924812252e-01 1.923661869744557606e-01 -1.132536710703664282e-02 -1.721151369486789429e-01 7.343371251931900268e-02 -9.522922912191031375e-02 -4.092957161594838744e-02 -7.947177979512591584e-02 -9.600737908169812429e-02 -1.789994783314977425e-02 4.052825751292753881e-02 1.848390803021633666e-01 3.188843480102369066e-01 1.104057362815272086e-01 4.105561549726763348e-02 -3.370520371265432052e-02 4.303747299618201211e-02 3.415229975330715678e-02 -2.882566721206105895e-02 -1.029446993281292605e-01 8.816921149331458096e-02 2.962023731872966414e-01 1.159359653868542728e-01 6.983921823832350828e-02 1.244215659741957324e-02 9.538335605576143267e-03 3.352081017124006884e-02 1.318062730822643080e-01 2.608830866636933643e-01 1.823370168389516210e-01 -4.383822149387665845e-02 -6.465229083828417933e-02 6.463311223038957498e-02 -1.664408579754975137e-02 7.759426031123424494e-02 9.898658230839794958e-02 2.171593720426642088e-02 5.694552906895355981e-02 -4.701063246626304565e-02 8.583801703572165043e-02 1.935455191141259024e-01 1.878381117057237037e-01 1.146672308775916437e-02 -1.491524434748742710e-02 -3.887260732035840299e-02 4.021797224804091186e-02 6.377960269004599725e-02 1.370326637006517023e-01 1.752337662286121700e-01 3.011624448649464214e-01 1.179809902719524128e-01 2.847609865901935475e-02 -1.583147839300523638e-03 1.011424159164276554e-02 2.854376545840192972e-02 1.213937651862047468e-01 2.072743140895459968e-01 1.766755418156099877e-01 1.220984117391498702e-01 2.469424698810021301e-01 3.209914782249794207e-01 3.437382570273604943e-01 3.075704019188701954e-01 2.026878285654480361e-01 2.588395613512381455e-01 -9.367612912930775582e-02 -4.927572990112650403e-02 -5.186004709231700413e-03 7.574287452824918221e-02 1.120165080449647826e-01 6.187376931400277724e-02 -4.099815219559967833e-02 -1.081030852326357317e-01 -8.395915280850448081e-02 -1.809576644515321631e-01 9.570125284666632093e-02 2.125606609746426012e-01 6.390000632750147957e-02 1.036517269859443119e-02 3.553866421634221257e-02 -3.888530865481340092e-03 6.230033056554855689e-03 1.133198149943880073e-02 7.441561577745524347e-02 1.670682858650153479e-01 1.706510473170368414e-01 2.097798657573804182e-01 3.966200204853526645e-01 3.510774786481221099e-01 1.327700569589473079e-01 -1.003794752753263755e-02 7.063182226896660976e-02 -2.630462171266091881e-04 -2.197990337399754746e-01 -1.171428501786268006e-01 -4.620058189919722808e-02 2.238191896305272502e-02 1.104843009642441504e-01 5.202916637076600986e-02 -7.551075203847985862e-02 -2.791208732801060341e-02 -5.877354005363040479e-02 -8.083943373942442667e-02 2.257276152337610031e-01 2.799122508327912540e-01 9.584243650482843213e-02 2.813020672099960599e-03 3.017878496410435554e-02 1.322893040097421376e-02 -7.948581884254826669e-05 4.110429772982635011e-03 3.086535247868862561e-02 1.189676536998060530e-01 1.773381726462688324e-01 2.379074901267640429e-01 1.339764325935046407e-01 1.220481886001231975e-04 -3.433993586761529410e-02 -1.998808478050247139e-02 -5.906380776240637703e-02 -1.001763825687087411e-01 -1.346623025386111949e-01 -2.122816076614067737e-01 -5.908413021976188090e-02 -2.335732768411141551e-04 -1.699040387943106731e-02 1.220785765485971897e-01 1.281780756032985247e-01 1.866597335274537417e-01 1.304276785519787318e-01 1.936809197709286334e-01 2.820891486849625984e-01 3.404881686016982267e-01 1.881848876992192610e-01 7.904873049582161748e-02 9.327562161734996235e-03 5.927694585631963775e-03 5.596676437134969796e-03 -4.061239997942159806e-03 9.628643160884410926e-03 1.042297733227424417e-01 1.294371665245084846e-01 1.161437393014368713e-01 6.771502054083812505e-02 -2.922394147630565098e-02 -2.594542942863743012e-02 -8.188516391491078295e-02 -4.174904662714558345e-02 -4.115555526152219618e-02 -7.087957996844548858e-02 -1.296395257450764504e-01 -6.949777893100347881e-02 6.786434086473731864e-02 -5.831111539599723170e-02 1.831377937787970478e-01 1.320890252950409349e-01 1.468498697981660550e-01 1.999218224299386115e-01 4.254926479656830074e-02 1.803358521234655065e-01 1.808875846989370650e-01 1.755925514022242395e-01 9.117976750066474068e-02 -6.144808536520169305e-03 -1.309150745731145135e-02 7.996976633783479515e-04 2.818520405450487126e-03 8.889671060264628388e-03 9.636448516150256105e-02 4.495498972544467731e-02 5.849233954967992394e-02 -2.316571846333239509e-02 -3.087562744323301897e-02 3.169274940603789004e-02 4.320725533914688589e-03 -1.972206160706097000e-01 -1.644258757103151947e-01 -1.097187507784005561e-01 -3.712831057510116578e-02 5.619201025451157211e-02 8.102190603066232455e-02 7.014699885465736084e-02 1.223774916220987108e-01 -9.853883008903656371e-03 2.420657986842733936e-02 9.500099252862091725e-02 1.320026816207675313e-01 2.517266464877184612e-02 5.508967473922014163e-02 1.600772715973955707e-01 7.356453412184044138e-02 5.526534047480353984e-02 -1.434929241014948863e-02 6.857310243309587029e-03 6.229062184204402219e-03 1.787539669455272609e-02 6.603336421452149496e-02 -8.696527596953462780e-02 1.596671013940296341e-02 1.441783766997542862e-02 9.257683457407636651e-02 4.870320326498745606e-02 1.147140711239196115e-01 -3.907330040166345775e-02 -7.244367916524571682e-02 -1.763441133153064722e-01 1.025968715788748570e-01 5.603025359124668564e-02 1.192261893199114513e-02 5.525479034085453711e-02 1.126931304066711714e-01 -1.652539218135815752e-02 1.266415303601393372e-01 1.011721266431816063e-01 7.426044802353051755e-02 5.293192684942091969e-02 8.944020465438438927e-02 2.259319168967299507e-01 7.348703455270537421e-02 7.844469929932633423e-02 -2.881602167290798436e-03 8.009460850466669458e-04 8.296924070482759178e-03 7.396598616606220311e-02 1.373368621480007823e-01 6.241471933017903560e-03 -2.050250854359026917e-02 -7.017273790445802129e-02 -8.745032723279075326e-02 -8.422606375145305635e-02 -6.493694955995517326e-02 -2.140981609956096529e-02 -1.038490426414173107e-01 -3.243989483721298334e-02 1.060352117841445313e-01 1.718861754400905634e-02 -1.249779926591317591e-01 -1.675206997890501745e-02 -1.143575777106275726e-01 6.540510208190097874e-02 -1.411590805020108454e-02 -9.485092070803333164e-02 -2.091187669664250695e-02 -4.367164015297095303e-02 7.701757467550014724e-02 2.075563564382394699e-01 7.835365300093566354e-02 2.081113851258595965e-02 2.347104747984492083e-04 7.826275984475458344e-03 1.172981451287975069e-02 7.103487270160786793e-02 2.606908087266096574e-01 3.539936551382780183e-02 1.503176518133762241e-01 8.390811597454646276e-02 -6.168138002211016879e-02 -1.057626606905412853e-01 -1.856255974238106288e-01 -1.146451591362930428e-01 -1.501636858834755339e-01 -3.219230709066089186e-02 1.063969430892447027e-01 1.348578871644389443e-01 2.792636518935726411e-02 4.649692234535073021e-02 6.326278796073923905e-02 1.018467242671632078e-01 1.397118993062098635e-01 1.615187537851453872e-02 4.765807598851340421e-02 2.997621901811014025e-02 1.352907281553884788e-01 1.335933212228536116e-01 1.186235122249161972e-01 4.662868109695431779e-02 1.486249410088266894e-02 8.022413807661662316e-03 8.292781713346537159e-03 2.829058485774514978e-02 2.531349866511889424e-01 3.490805624945559488e-02 -2.848502255935921913e-03 -1.016584320014438970e-02 -1.952095288307863497e-01 -6.517943103246932879e-02 5.730707590439601540e-02 -6.249470431158658497e-04 -9.631894132530008368e-02 5.130439505404538192e-02 1.169550992414270657e-01 -1.939618011001198808e-02 4.705551351852482744e-02 1.064317166264125980e-01 1.479345366230565562e-01 -1.030708816506479240e-02 -9.385732513114368458e-02 8.547415417350516520e-02 -1.698660603726192403e-02 -5.307195495562528481e-02 2.742568918519874138e-02 1.097642135547079317e-01 5.875555319452737540e-02 1.530091885406513474e-02 1.063954660948509233e-02 8.997359596243254334e-03 4.079656929752904088e-03 8.900026882073803006e-03 1.558778755772745050e-01 1.142914514697615791e-01 3.872028933508293164e-02 2.902490621450303995e-02 2.320500538643782001e-02 -9.376840593151966607e-02 6.772971632366180279e-03 -4.784753754468659692e-02 -1.377144673619174961e-02 4.531092053805196862e-02 8.683628575833528263e-02 1.051360126639848264e-01 1.126776355648236999e-01 2.669762388565944874e-02 1.030094224992307295e-01 2.940020648411680385e-02 5.942530098722411530e-02 -1.872913921306728138e-02 -7.478752488548348620e-02 -3.636359937405134191e-02 2.625517991018985059e-02 1.198798609905121909e-01 1.695176354793392903e-02 -3.814116970265079616e-05 1.959294735660896229e-03 2.950576473999044335e-03 7.492365767947076552e-03 1.695190838966680047e-02 2.883562050563739931e-02 3.452500296581548916e-02 -1.084069493102162024e-01 -1.312210943276665397e-02 -1.524713910706339270e-01 9.030689877205443084e-02 -3.074166397512099677e-02 5.636288080529917172e-02 -1.308491552811069381e-01 -1.403753356031462729e-01 -2.379176209728242619e-02 -5.779035185673361526e-04 7.366084962014073610e-03 4.677463479902659732e-02 2.340344857686362662e-02 -1.397290001378094781e-01 -1.082580802084088384e-02 -1.219852963551407155e-02 -3.697182599185322438e-02 -1.252707884856098242e-01 1.855068410462306153e-02 -4.247171474503154756e-03 9.890652658471346670e-03 4.851110067507784576e-03 2.222577626985572721e-03 8.147512489236388364e-03 8.927139070577884417e-03 4.104867835928760781e-04 8.871504233202948814e-03 7.720304861797584739e-02 4.870507914829160651e-02 -1.607252370009940382e-02 1.222281745285528770e-01 -2.361716608713492187e-03 -2.620219339793053090e-02 5.983271395146493726e-03 -4.762835822843956846e-02 -1.570752826901906096e-01 -9.002113105889152089e-02 -1.514189306006004931e-01 -9.226343651586314809e-02 -8.033589828002543620e-02 -6.934288550815150692e-03 7.620503592187037947e-03 -1.188164383847662986e-01 3.865357009652643089e-02 -1.488552895040285706e-01 -1.678584439985545407e-01 -1.081600653135509071e-01 -7.688514571423828159e-02 -3.632019612007871684e-02 6.648699331518344996e-03 2.866482905937485677e-03 8.668844459529100738e-03 6.023503839437233630e-03 2.948885902013635165e-04 6.423251459703735455e-02 1.278613548389870569e-01 2.179212735174997639e-01 2.436684231868093131e-01 2.184857055364723410e-01 3.253475646726471798e-02 -6.450833628279187271e-02 7.411936277635658432e-02 9.629947030957444754e-02 1.145404121458197949e-01 8.564327775636575157e-02 6.299760548637986513e-02 5.456275372171010690e-02 4.507472617181906491e-03 4.721752045712827861e-02 -4.029581804545318696e-02 6.793426273994727926e-02 -1.048879219555536035e-02 -9.542217008296891012e-02 -1.541727144935486349e-01 -9.116302171267398613e-02 -1.145273770884081173e-02 1.205230632349212766e-02 6.135658171887847269e-03 1.877358462344819526e-03 7.940078958252307084e-03 1.893264923122139898e-03 2.362515588453602180e-03 2.798786605252839149e-02 8.642760842805502497e-02 1.619233744233842254e-01 2.590486147153182594e-01 4.113352812089498545e-01 4.503642631936959906e-01 5.402517784310679749e-01 4.165884464451127811e-01 4.216558639020743793e-01 3.554825978822074850e-01 3.202592380566852692e-01 2.493119445835917380e-01 4.137948375923956035e-01 1.939759855777742625e-01 1.891857524438750882e-01 2.378528798442300640e-01 1.938164571850560236e-01 -1.202737618689479759e-02 -2.568641390805022698e-02 -3.770029001684545300e-02 -4.069732286007916172e-02 -5.786239266527806648e-04 -4.335999063403836646e-04 1.296766907251850880e-03 3.627781752886515346e-03 4.141886197310627911e-03 9.588188533483291490e-03 2.365709707890652040e-03 7.026540145690582384e-03 2.840178837801324904e-03 2.875428531938344773e-02 3.765066024787816490e-02 1.312321263927651582e-01 1.504595171446024560e-01 1.308997675655555470e-01 1.523460686532597530e-01 1.459471174969432516e-01 1.034256697231023675e-01 2.245876551098082430e-01 1.117601893326397172e-01 1.658434275818768400e-01 1.306344977804173302e-01 9.550515615714320894e-02 2.593474336824314400e-02 -5.079173441899784147e-02 -4.425331289411347374e-02 3.231880235480674712e-02 3.723612101211509068e-02 4.597175637777602651e-03 8.310754065009119673e-03 9.718510176679516152e-03 6.355978908155144810e-03 4.093814934225201846e-03 9.372955534777838854e-03 9.591247956581503906e-03 6.015203690736705897e-03 6.645273927592901947e-03 4.565243662507928804e-03 1.958353437131581803e-02 1.233994218204765778e-02 1.133501368363781098e-02 3.870419030684057321e-02 6.230111654692133821e-02 7.725582869717828594e-02 3.323521790600099390e-02 3.834181424607670946e-02 9.384255461005978904e-02 7.286822176072797752e-02 6.764741602497571782e-02 8.042045802317486503e-02 6.853056951960592724e-02 4.904221996268483263e-02 1.460427388319143760e-02 -3.836422509505922184e-03 1.756464204005138419e-02 1.732823892213196382e-02 5.834847944061340164e-03 2.175693971007360700e-03 2.405970957261848245e-03 7.657218319676193860e-03 4.846651367765309956e-03 -3.593567139793754639e-01
8.600435895283619833e-03 7.600273701861675821e-03 3.020829661806532368e-03 4.372092570837832030e-03 2.071787081753788048e-03 4.594733073432705379e-03 7.497729389710420037e-03 6.592977952242748928e-03 4.179295509420703943e-03 2.569202779747279362e-03 2.509683642173289771e-03 4.295661934921129327e-03 -3.160843212568779405e-03 -6.230033040793668195e-03 7.044814826654895515e-03 5.721304609295987552e-04 9.591900022268015982e-03 7.665848087147243695e-04 7.659526742952013981e-03 4.931948521470477277e-03 4.081459153326221466e-03 7.994543213989520336e-03 1.711884791621416310e-03 1.545552469545330085e-03 3.766998486790042004e-03 2.768389122911520811e-03 1.164305024667742702e-03 8.497586769853879979e-03 8.043842966767448047e-03 9.243591381802669996e-03 8.053898711407967564e-03 6.704789392199508175e-03 1.516940876760778929e-04 1.952081569700650412e-03 6.317620980905832608e-03 1.117407278028779809e-02 1.006768401006890266e-02 8.047348710616106932e-03 2.841506372421059162e-02 2.380423009531823508e-02 2.328112547904602134e-02 1.565166504191372113e-02 2.161034338650922107e-02 1.803818884798653877e-02 -5.544456478918669169e-03 3.398983372595758019e-03 1.197374855267188329e-02 1.866738213029303650e-02 2.754722025604973423e-02 1.201977810450191586e-02 9.644283285353598412e-03 3.179619243017300576e-03 9.968741903909299554e-03 4.969976559450421834e-03 1.495389986567483703e-03 9.584467096182304469e-04 9.452942838386234337e-03 5.136902891578517226e-03 1.590753272418782120e-04 5.490024193519064087e-03 2.636884698590324840e-03 4.137726451518549536e-03 6.662477213296690189e-03 2.069725450260729085e-02 3.671710583942649781e-03 6.928022773844515203e-02 1.254189496500984491e-01 1.503742774036412044e-01 1.478478034790699780e-01 1.444734231408287550e-01 2.501564226117127809e-01 1.966040828669021745e-01 2.330311373917430262e-01 2.727039959816758286e-01 2.340478567576168012e-01 2.072268506852847358e-01 1.575820039506356518e-01 9.942313191592927479e-02 4.543781684037349888e-02 3.200885909665376200e-02 2.189169102439280853e-02 6.370538409714313934e-03 3.248153395163143678e-03 9.470943529614039152e-03 1.344876150956289193e-03 8.447227124285009228e-03 1.341607854891076852e-03 3.533904251508841136e-03 3.867673606657459802e-03 1.094795754183065795e-02 1.460233994891742271e-02 5.159449055591283639e-02 8.869273946537638287e-02 1.577792580956394186e-01 2.164066856970337238e-01 2.064774213025203642e-01 2.301250474493332920e-01 2.543410424167147910e-01 2.889052114268543248e-01 3.633802594715833112e-01 4.186537433426384403e-01 3.168579823083039204e-01 4.637981568997706638e-01 3.503020265972393577e-01 2.966655730240967959e-01 1.920524878935992441e-01 1.115722048216157697e-01 7.011285983392655241e-02 3.072602704665721579e-02 1.317000769291391989e-02 3.156118228638672956e-03 4.314774569440793517e-03 6.357573154620746805e-03 4.600073547659746208e-03 9.902904084879340235e-03 5.819338754408906293e-03 3.332964463591078091e-02 3.961145877351694711e-02 2.743122435716466995e-02 8.371750773512180721e-02 1.040216180141737973e-01 1.607199400761864516e-01 9.400845923138326232e-02 2.882973471729834494e-02 1.047056771848654949e-01 -4.528501540070947046e-03 6.954106223625121375e-02 4.619010655950791383e-02 3.315799877684537378e-02 5.638376603236533446e-02 9.699620961134386432e-02 6.872769553772421769e-02 1.322497316469184725e-01 -2.386025606047630782e-02 9.678764030974196242e-02 9.739332254224926377e-02 6.144151615831563995e-02 2.317855687989228697e-02 2.700332106148923151e-03 7.859582206161007042e-03 5.431201485682002512e-03 3.866577473979769877e-03 4.258186122009999935e-03 1.914730629734333334e-02 4.391774915599644391e-02 8.315566280505630459e-02 9.980679081946113029e-02 1.190426291650581170e-01 1.911638057671267710e-01 1.526626756676565388e-01 9.637473824950271162e-02 -2.266034045111147907e-02 -6.123072854058674713e-02 2.373980651316973806e-02 -2.012121677508205489e-02 9.641652319915916536e-02 6.910533597163572017e-02 5.325142814167359989e-02 7.350515565506553217e-02 6.509785267122129848e-02 3.788671835414945954e-02 5.742983860387359391e-02 -2.152260712873847043e-02 7.763889836686661827e-02 1.469761645845935327e-01 7.815195268552276031e-02 1.873372328619814925e-02 3.930274683975556842e-03 7.650118570124004452e-03 6.296727607241828228e-03 3.642260250004420840e-03 5.182196578435206702e-02 2.048767047068167715e-02 6.499414028732343473e-02 1.005448860503443814e-01 1.641618372519248747e-01 1.188274246414129376e-01 1.632541918934476421e-01 3.397985904030878523e-02 -2.431512252958329193e-02 -2.028085690701169480e-02 -1.219851617070315392e-01 -1.108721541464479377e-01 -7.605639790506395215e-02 -6.039621886466146373e-03 -7.541265394202539829e-02 -9.064674918495332911e-02 2.717777857857714332e-03 -5.569321061640336579e-02 3.945162459780983399e-02 1.347559355165168782e-01 2.028344894228210071e-01 2.761994856515601060e-01 1.245547797365887388e-01 2.082911149734447201e-02 -1.772739861746288432e-03 5.692493114271751642e-03 -7.728061256339561168e-03 1.356338487425714882e-02 5.454862939567553526e-02 5.017876294301483464e-02 5.557537114992363442e-02 1.070950013115724297e-01 4.996703031040863191e-02 -5.849006401896818252e-04 -3.368409395564622884e-03 4.241488977322829118e-02 -5.749338966269006146e-02 9.572618815604195044e-03 -8.623602586302941964e-02 -1.213112776541029753e-01 -7.099521248176472732e-02 -1.390275577984922961e-01 -1.706452508356106831e-02 -2.763721626780317464e-02 -1.191560422087180500e-02 2.351926818181319240e-02 4.614002943584397977e-03 -8.390430731787945628e-02 2.160210880731795458e-01 3.224448342496054609e-01 1.506820658318054895e-01 2.967475972971518952e-02 -9.205674522436875507e-03 1.284198523866835612e-03 1.366257196354225129e-02 3.714653607439591387e-02 1.007098870691206655e-01 9.256067125863516598e-02 8.403070111069342596e-02 6.758082869528600489e-02 3.707731752100675710e-02 -1.485493315021618570e-02 6.320707282939914962e-02 -3.890585274081241607e-02 4.878820749648851013e-02 -1.982146746312575536e-02 -5.420702011137736032e-02 -4.467023318268919380e-02 -8.221650439256196485e-02 -6.078109007239168582e-02 3.558349413302060865e-02 -1.237598084678936429e-02 -4.509808455951831024e-02 2.140175132210913461e-02 -1.249769555801191713e-03 3.363642634607728887e-02 1.754982216315669197e-01 2.757049929318002301e-01 1.390210127397387696e-01 3.159606465609337417e-02 1.205151471650112160e-02 3.233554300676663284e-03 2.920704950448037643e-03 3.740600439539644440e-02 1.369362567663611197e-01 1.225360606331809543e-01 9.539545831417839405e-02 2.264909391576580902e-02 1.664737393124162898e-02 1.663608781487143154e-02 -2.711252809617857237e-02 4.438702774497374492e-02 -2.406310673555851418e-02 6.302841769981856745e-02 5.908385643712604079e-02 5.898275576771065676e-02 -2.387512915287737583e-02 1.266976567584441292e-02 -7.581532901145944742e-04 8.702815600523414880e-03 7.228311631485904998e-02 -3.795940347484656752e-02 -1.846845156685016781e-02 -2.332622663484612210e-02 1.227220639370936867e-01 3.585016090591236493e-02 -3.361511876218024192e-02 2.307418823126488119e-02 1.115634737828298528e-02 1.373203435447277769e-03 1.202769753432586172e-02 5.915197808276926456e-02 1.762587975255279493e-01 1.294363708003807567e-01 -1.977001513866307077e-03 -5.980974917741051916e-02 3.937156084159272595e-02 -8.751609265541286653e-02 -3.709030176914546173e-02 -5.653816099272872958e-02 -8.802766523438096402e-02 -1.505786504410465236e-02 -4.356647404026411929e-02 7.884730425112419783e-02 1.964465975594845426e-01 4.525679610973158684e-03 1.992111591065677534e-02 -1.299094510049191020e-02 -1.053154612203523015e-02 1.762511513884711112e-02 -1.929274754735755409e-02 -9.911394637100678917e-02 2.777682106421877281e-02 1.397182657271705819e-01 -8.665389374204929968e-03 3.194532389079458162e-02 1.121917369618520913e-02 1.354313154761634498e-03 3.233858493733981349e-02 9.380706785733534947e-02 1.815893717359910453e-01 9.364023324835417383e-02 -4.406120376918173931e-02 -9.031774075790360845e-02 3.339947029611675666e-02 -1.075930932165477909e-02 3.366418083726316346e-02 4.307626402545704225e-02 -2.470341235643862612e-02 6.513230972170998279e-03 -3.754076684335914266e-02 3.521861334790688663e-02 7.390440143235185722e-02 9.774692450061880922e-02 -1.846734455406042613e-02 -2.994435510142077171e-03 -3.442931470042427666e-02 3.578638253928329016e-02 1.475500399766474513e-01 2.067026468032288899e-01 2.784919043027263008e-01 3.808999990738812791e-01 1.166480884454400430e-01 2.030871890069397417e-02 2.926263947847055312e-03 6.891832742635457983e-03 2.397035686840873897e-02 8.569579899696816438e-02 1.283206478359336655e-01 9.380379206231856393e-02 4.130429880506218676e-02 9.324933851978857435e-02 1.059447474644815701e-01 1.712642726508160351e-01 1.486121699878690805e-01 1.005902786152244738e-01 1.428544844955410287e-01 -6.973576960583345585e-02 -4.728879911357645321e-02 -2.413400095313075755e-02 2.556436247948054921e-02 4.935106443802676074e-02 2.443466178872195568e-02 -3.469056154519072760e-02 -3.519345235365806124e-02 -3.886554468379610494e-02 -5.491700914220310620e-02 1.752597161420644534e-01 3.582701569977898570e-01 2.452050617396037135e-01 7.890937959624491627e-02 2.819449971698053531e-02 -4.353117431451365184e-03 3.575044181088673774e-04 9.252358756816403407e-03 4.876811266621235152e-02 1.046082215639702745e-01 8.281436897589034007e-02 2.717267255476136373e-02 1.900989633528257783e-01 1.629029415630526278e-01 6.198348599992985902e-02 -2.430623005879621254e-02 2.878847064223589991e-02 -1.952608804615037913e-02 -1.521710037362281609e-01 -1.043461796586539654e-02 5.646131537612015757e-05 4.069702514800185855e-02 3.439559544896089033e-02 3.337883410952717511e-02 -4.213981695267746824e-02 1.203944005861025618e-03 -1.825748594443015599e-02 -4.648999774046665145e-02 2.407913396136703021e-01 4.220632746905511046e-01 2.091936101528476533e-01 7.158757478789296025e-02 3.140215840539796466e-02 6.256307253125320197e-03 7.384705331657476744e-03 8.981337018258846519e-03 2.864409159228703539e-02 7.313459028123442396e-02 9.609987430055819124e-02 1.086131282408347859e-01 8.569244322350616505e-02 4.522610579924658120e-02 2.426810268446331410e-04 -3.025971782206814641e-03 -4.597034059322784721e-02 -1.622339989249286379e-02 -1.766935963975304336e-01 -4.703953086716092941e-02 -3.069627744920656529e-02 -3.038971749429585090e-02 -2.040822982309107095e-02 6.291615524858724939e-02 9.033227895816460518e-02 1.395803104065456990e-01 7.614893453242985166e-02 1.184028809186579156e-01 2.129278610098211955e-01 3.130279454684100071e-01 2.131535832537352071e-01 1.013702966207735978e-01 3.324979080781703678e-02 7.644388680798219239e-03 8.057830706773674509e-03 -2.741008122168946907e-03 2.236637317392765802e-03 4.870945393362073605e-02 1.010244386353579271e-01 9.992718361806438021e-02 9.684251382590756962e-02 2.349392114971077250e-02 1.282976775262206423e-02 -5.333485185791534550e-02 -5.569715226301204247e-02 -4.284527704328407183e-02 -6.433376435169993468e-02 -8.771484510962461109e-03 1.225947167478162216e-05 3.803940476896544576e-02 5.008093901949896634e-05 1.180800629360208437e-01 5.715300297586767275e-02 6.034952381094706164e-02 1.158905116752867309e-01 8.004946849125962882e-02 6.959627059934563043e-02 1.534995807089279962e-01 2.182379238716984082e-01 1.498417167028382735e-01 2.912664373091684161e-02 -4.715447700033141044e-03 7.042081761677023376e-06 1.039644860335972110e-03 -7.205905737159149123e-03 2.118174841017344753e-02 4.930511721680493065e-02 6.213707807892080576e-02 8.903290164750350677e-02 3.797126242077736389e-03 -2.868845707172383878e-04 4.308415214962501433e-02 -1.390370079874974629e-01 -1.260982166522185699e-01 -7.431259555023247976e-02 1.073171021733173355e-03 9.592221740792472584e-02 5.611969852410707976e-02 6.967199805596298312e-02 3.346237509428578311e-02 -2.777168721372025306e-02 7.585453044542702673e-03 5.181787356357325097e-02 5.582943317660713639e-02 4.124281270929856802e-02 7.241274968022677616e-02 2.173515088157229602e-01 1.765318283921977205e-01 7.986143228977891917e-02 6.821179789660938332e-03 6.849684922990332582e-03 -1.375877633868134156e-03 9.646491810625483498e-03 1.073147800815415056e-03 -8.179398205086006735e-02 1.806804571511408473e-03 5.075194232067673644e-02 1.069172159188607613e-01 1.458553345130470802e-01 2.334672035488097319e-01 5.589991327995497139e-02 7.983499725420366289e-02 -7.607970660862514722e-02 1.064396611109876545e-01 1.282951092776080659e-01 5.024733735914317656e-02 1.805127175890375302e-02 2.988995315888105103e-02 -3.517635605249790770e-02 9.206703434007525166e-02 5.158812616052808192e-02 3.588139710741130618e-03 -8.926968111311958318e-03 1.048279845430262619e-01 2.860345829887293023e-01 1.700607835607595986e-01 7.433756260878464361e-02 5.113400240284476927e-03 7.554538135952950902e-04 5.551017363869879644e-04 4.586098695650376450e-02 6.438833065436244674e-02 2.472112381728850880e-02 1.861593513891437318e-02 -5.488176069742893570e-02 -6.167138140132689961e-02 -6.556569067947562446e-02 6.287223021177808235e-02 2.399505589253461968e-01 1.835284989531132949e-01 1.387177335896881414e-01 1.431045909268922611e-01 5.886764771483109226e-02 -6.852374901125041218e-02 8.921674635543603085e-03 -4.332214885637437202e-02 7.192460238828519981e-02 -7.475501432416817478e-03 -4.212354728231647999e-02 4.819771029977062103e-03 4.582384640655507574e-02 1.454417961916355528e-01 2.825812385756679146e-01 1.523432450766677160e-01 2.293853113680211289e-02 8.808308996877910885e-03 9.811731513674849803e-03 1.460342265291143977e-02 5.191674264545848710e-02 1.465693722763203866e-01 6.342503365699021789e-02 1.581425451403377369e-01 5.878271538853431510e-02 -2.232605814929502705e-02 -3.383922594017106655e-02 -7.258495516000032510e-02 -6.198610721287937941e-02 -3.637341152714247683e-02 1.720170114494165223e-02 1.216668721714887352e-01 1.359867204128459295e-01 4.945491877373789369e-02 7.653308731416387511e-02 8.736293243751418192e-02 9.502470880395447184e-02 1.577358356738546019e-01 3.218252342736453719e-02 6.648651918048521792e-02 8.931202168320670487e-02 1.623575520167031827e-01 2.404844708441526424e-01 1.517296829643309253e-01 3.843695901629189116e-02 9.218301579376359314e-03 7.690591299878025283e-03 8.642561791940268565e-03 3.006920843345043531e-02 1.697705042624798322e-01 9.606432452940194544e-02 9.687184193314468672e-02 2.859274850905791157e-02 -4.800665703117096283e-02 3.066113218523395731e-02 8.134017319180329719e-02 5.892692400625482857e-02 -1.655993715882842637e-02 9.290534397563394997e-02 1.260260822747273635e-01 7.903148220783094702e-02 8.572848003528840688e-02 1.124941728797108631e-01 1.025029132358349221e-01 4.998779412470642086e-02 -1.817888698795309304e-03 7.503586784966552459e-02 4.282063353935163658e-02 2.180642461069686594e-02 1.320199550901058061e-01 2.181955541783717756e-01 8.259686507329216942e-02 2.209345973440028643e-02 1.788935136156738189e-03 7.521071587594708834e-03 8.801950893735900616e-03 -4.955170998422502721e-03 1.308621483173615097e-01 1.131736372580891686e-01 8.667064039688210375e-02 3.482237928602843063e-02 4.093281277087933157e-02 -5.588799507590866411e-02 1.046575924143597347e-02 -1.433955167637501055e-02 3.709159184057896075e-02 5.426308142723099831e-02 7.873805923327328871e-02 8.241001967079424062e-02 1.160733865444711355e-01 5.361130213285457413e-02 9.897001835103867717e-02 3.862255536015293117e-02 3.754040781911936048e-02 4.359669941225212397e-03 -3.853549527095666977e-02 2.718726840873829376e-02 1.024798411271689302e-01 1.510525828964880135e-01 3.050785371936420506e-02 9.311276399306334800e-03 5.367712408788402612e-03 4.776213162750063933e-03 6.099403378170891073e-03 7.242602548438047474e-03 4.028918552671038183e-02 8.903936143987239982e-02 5.708480282325026356e-03 5.317865343449638266e-02 -5.767089083544107986e-02 9.960419165463703373e-02 -3.033777850228691966e-02 1.424471338211485104e-02 -9.487080558825512766e-02 -8.434123466552964632e-02 -2.440197995379483897e-02 -2.589555653632157842e-03 -6.164028072643778361e-03 3.443269775482964840e-02 3.366896566854961359e-02 -8.178449108706793702e-02 -2.302962711762064976e-02 2.543007859759393446e-02 -9.670975520215908602e-03 -4.709165663984155037e-02 1.944536197249912418e-02 2.288051935254188304e-02 1.640142116691085603e-02 -1.245241599990876656e-03 5.196537756801214783e-03 9.396945960319594976e-04 3.343277733539259250e-03 1.306062437654197279e-02 2.067524212291765168e-02 8.231327927878258344e-02 2.211835306303188559e-02 -9.135030009459242997e-03 8.186554842044967140e-02 -4.926895618012357148e-02 -1.131883860772907487e-02 -1.681256285688223148e-02 -4.882664544121260303e-02 -1.009808057145950982e-01 -4.850650140589121001e-02 -1.177003124211262047e-01 -2.436289119089659130e-02 -2.791444383215470684e-02 -3.627776748830116582e-02 3.184331186614937359e-02 -3.883455651732473785e-02 2.704059612560392317e-02 -7.437149637498828569e-02 -6.094752542245839011e-02 -3.592512416001173575e-02 -3.994403999160005270e-02 -1.802081037206372180e-02 -3.310395147497667556e-03 8.248035695440022325e-03 2.874952235217808835e-03 5.369330708898679624e-03 9.384607945074714339e-03 5.110486190918173133e-02 9.225915339619011890e-02 9.754223755691242281e-02 9.409836263588999827e-02 9.115978810311917147e-02 2.928340604809705899e-02 -7.317712215937273446e-02 5.962714436833468218e-02 8.207125804183242057e-02 7.381206656820803180e-02 5.875580045634341830e-02 6.276916516882452557e-02 1.786388886580042926e-02 4.480910063274339689e-02 4.223539461593262684e-02 2.826095672177341908e-02 6.952446002337278608e-02 -2.326187917789954152e-02 -9.475468386985759495e-02 -9.393016056540362535e-02 -4.508603165526700596e-02 7.549330950179271998e-03 2.216984214854501520e-02 1.010046330851361099e-02 4.714177613952131272e-03 2.619277247842137155e-03 7.368926435544113397e-03 8.950110223528965139e-03 2.285769193652062437e-02 6.269909472965318198e-02 5.442033418839582748e-02 1.274197846593136674e-01 2.130690935327181901e-01 2.290977349247722561e-01 2.686023510213232379e-01 1.650549900863990949e-01 1.612872278706259654e-01 1.300811348161707015e-01 1.122894170223166649e-01 7.340253759182516213e-02 1.783647453837415575e-01 3.226786378311616299e-02 4.752090108347253872e-02 5.353030984870955217e-02 3.375559732159072457e-02 -8.524895888895278606e-02 -4.525914968429609747e-02 -5.859259956228476257e-02 -2.707680149178380222e-02 7.102476890475551731e-03 3.026616835633767245e-03 4.881618481201971393e-03 6.897512089290012624e-03 3.904260197832505261e-03 8.798353268897551871e-03 3.876779763614414225e-03 9.166391299881485391e-03 -1.059088384509885086e-02 1.201158043096517240e-02 9.330653352118342680e-04 7.282889481297444290e-02 8.931509921271080232e-02 7.990565615801663302e-02 9.476794801796731282e-02 1.152618710428833376e-01 7.521650546574561169e-02 1.873474217530513020e-01 7.798784909354715411e-02 1.061792893955988137e-01 8.079133171660164703e-02 5.907158319997394408e-02 -1.299443861133787841e-02 -7.866563593308958935e-02 -4.765669015438923906e-02 5.609710211241797362e-02 3.563603080684538821e-02 7.666209337818237143e-03 1.164556878869810229e-03 1.933921020827281860e-03 7.587140481484745333e-03 4.622980507863385519e-04 2.324715155103277212e-03 8.694938221958914068e-03 3.592125679717786228e-03 7.506803356896480511e-03 6.587979415081192391e-03 2.041609834483551489e-02 1.853227803187517536e-02 1.796962834063516382e-02 4.126597605103662220e-02 5.335771607944148759e-02 6.832835764218475605e-02 2.571747425184233229e-02 2.846272818671165272e-02 5.876092247728707807e-02 3.732638232292182640e-02 5.697484499872481484e-02 4.725501224591985988e-02 4.129447208803276037e-02 2.546637414363856627e-02 -5.108699397804838949e-03 -1.060035659760756761e-02 9.172111842884229579e-03 1.795614503322695218e-02 1.882605121683066486e-03 2.231441245331335782e-03 1.978520119678557967e-03 9.152118473142073149e-03 4.336126479669215848e-03 -3.882673407151586153e-01
9.208455747155544838e-03 3.146514310508976599e-03 1.187649678850564994e-03 9.859903873567662375e-03 4.673781300174595366e-03 3.547185178844400669e-03 1.675342569422182820e-03 1.738002623017681492e-03 3.234921404351135885e-03 7.083778179832236552e-03 9.498481314832142586e-03 7.152190954585739557e-03 1.506278162327223322e-02 1.902210915282590356e-02 6.815770580161557325e-03 8.513192343019300836e-04 8.072023672738461511e-03 5.809385913341548469e-04 4.475808892325824732e-03 5.511137511459156431e-03 1.806289350096157778e-03 6.139286379052281625e-03 1.792451822768027780e-05 4.454781492839802494e-03 2.561300135143317405e-03 7.251113529956804138e-03 4.083840686542868602e-03 7.387537633365193201e-03 6.760708298059239438e-03 2.450173747226804671e-03 9.284781841358336063e-03 3.388796651902016219e-03 4.953892835435954461e-03 8.996885302635220308e-03 6.766951300916186282e-03 1.492873604164192056e-02 4.332635517630820804e-02 4.016802662721002948e-02 3.794841649982050313e-02 5.235646690345799326e-02 5.235517862823131641e-02 4.275839859069188037e-02 1.381303510086390705e-02 7.586554481231445012e-03 -1.350884770874169645e-02 2.795952968121204543e-02 3.858983310218351559e-02 2.473803128507911370e-02 1.576911390393308590e-02 1.575432911927929572e-02 3.099673014197173223e-03 6.599253304272804238e-03 9.537690311767009488e-03 7.151470154691291943e-03 8.332522865219169073e-03 4.032658415240924707e-03 4.083082346260294773e-03 6.746621936359648193e-03 2.334019174235320293e-03 4.954279756818918100e-03 4.501631398322502448e-03 3.938423315692950871e-03 2.719636826411495067e-02 5.824986259623930046e-02 1.154500283928433929e-01 1.222909392662502592e-01 2.326477874623939790e-01 2.211034766210592528e-01 2.653500937859232800e-01 2.733937817012440652e-01 2.612107153087510625e-01 2.791061939539706827e-01 3.160984112456482475e-01 2.872577286107599326e-01 3.038732065527968151e-01 2.478326602821973590e-01 1.781138126868805072e-01 1.376224115606975718e-01 7.424899230516240900e-02 4.015342975188921498e-02 4.615011884517313152e-03 2.672836685856723894e-03 4.961849773399929983e-03 6.890230691430458687e-03 9.637739735901262872e-04 8.629177907199159572e-03 4.016340896055984808e-03 1.799182887829528163e-02 8.355116222837723206e-03 9.669772099262518867e-04 2.727622747878425194e-02 7.994507651584548125e-02 1.754772619866518113e-01 1.752551972909005551e-01 1.914372958436883765e-01 1.816165907077643971e-01 2.170170465012091765e-01 1.747295974749657199e-01 3.044420626248307005e-01 3.332169632339797571e-01 3.524551385571549345e-01 3.565355031247294249e-01 4.889976760250693832e-01 4.869099088909640272e-01 3.531046428612165111e-01 2.575999574177623153e-01 1.700648319100263317e-01 9.195824680656304595e-02 7.000236746849911040e-02 1.042862107349528007e-02 4.426993897900629443e-03 9.485770185529483409e-03 3.236054942371062622e-03 3.987429553447164633e-03 -2.469776056936259009e-03 5.270417611395647982e-03 -5.094823314816410847e-04 3.067951763489337475e-03 -7.011306845669106058e-03 -3.335721559583493950e-02 3.314017117970052134e-02 7.246849954264181215e-02 1.230360326942439575e-02 -2.209981325008956304e-02 -3.367723222839143216e-02 -1.039989853922909380e-01 -3.318608996511267228e-02 -7.036046926380330746e-02 -8.832415538455769266e-02 -2.422482391492307777e-02 -1.102264890873614137e-02 4.378073807915542487e-02 5.520265008595409001e-02 -1.847807293432665240e-02 7.225090506380328625e-02 9.854942479563540136e-02 -1.459128147247574885e-02 -2.602262368180095764e-02 -2.208210589171775984e-03 8.152629777892154983e-03 2.065628684284892547e-05 5.121270042787840794e-03 6.936249577827823150e-03 1.103494101915798199e-02 7.807347761913220954e-04 -2.698909999376421232e-02 -4.067301679779597445e-02 2.034570553289325682e-03 8.608300549423811288e-02 1.000657756247334690e-01 4.353915272944460652e-02 -1.631731634158855027e-01 -7.495560661932158808e-02 -6.491788227493879015e-02 1.782537173210644449e-02 7.880223464852000037e-02 1.626162421442972905e-01 2.175442933452994276e-01 1.582347059574028547e-01 1.207173517511834077e-01 1.139268772665089913e-01 7.107207697947595659e-02 -2.630855844497451829e-02 1.077795830752240336e-01 -8.315198958651244532e-03 -8.647185180995387022e-03 9.299430809913249445e-05 1.465965934978977203e-02 2.246754814920552158e-03 3.720705981429731253e-03 -8.245513670404096274e-03 -1.878511900650367203e-02 -2.929191115949265206e-02 -3.194271822411850256e-03 5.971664578326102424e-02 1.689718118300646554e-01 4.794452161212720692e-02 6.630257274736278683e-02 -4.316211843545738475e-02 -7.648541919484812268e-02 -6.763936979587131804e-02 -2.479517762393715630e-01 -1.768135725898718758e-01 -1.676950865484159170e-01 -2.005648335647451652e-01 -1.725961795826596312e-01 -1.588020284087794665e-01 -1.142740681338776619e-02 -4.628089181615880482e-02 -6.366918431486528855e-04 1.776512973015727803e-01 2.884841867385440350e-01 1.021175131783314399e-01 9.838178595026782561e-03 1.557478866162881857e-02 1.560663955276385059e-02 6.501124951958254031e-03 -5.941403380151350985e-03 4.801102892549491039e-04 -5.236931193701698656e-02 -5.464304480879612728e-03 2.822055074708273298e-02 6.267537145187972170e-02 7.812919515740815446e-02 -2.576243259970504781e-02 -1.569522514264611035e-02 6.835823139674341090e-03 -4.798796630922849693e-02 -1.339663677944152032e-01 -1.070629334448872372e-01 -2.178289358558962718e-01 -1.810931834912947458e-01 -2.299040120859301151e-01 -7.660534203241767259e-02 -4.344712631804182462e-02 -1.012184644652681098e-01 -2.228130322997503784e-02 -7.092993237739604606e-02 -1.448028194526828662e-02 2.632810772468825999e-01 2.754369424094056384e-01 8.096683881753813372e-02 2.569793788380005453e-02 -2.009763337787653665e-03 4.561967062819236897e-03 3.991093269179644965e-03 -9.406867580825340261e-03 -4.762347420529550179e-02 2.824182214090252899e-02 -1.366330145668502409e-02 -4.261864498012438857e-02 3.931186682312073216e-02 -6.003956142778602012e-02 2.942380163209499730e-02 -3.772927363945850765e-02 6.953615616534353228e-02 -8.462198513081595208e-02 -8.990353925705146798e-02 -1.432584351242191800e-01 -1.485760857484720032e-01 -1.750055425638197548e-01 -1.156251719033643023e-02 -1.935030839938310931e-01 -9.010207951039299334e-02 -6.197619615442789831e-02 -8.237146067018843998e-02 -3.461307028691398141e-02 1.841239714200568200e-01 2.820704692021386850e-01 1.298375848442916980e-01 -3.328356173058682815e-04 -1.073699986969780563e-02 3.307726278925281291e-03 -3.586254401743509644e-03 -5.200752601463155822e-02 -1.047743621882334109e-01 -1.906120310236477863e-02 -4.017591453239748728e-03 -3.755977911092491656e-02 1.606426416908441485e-02 2.326708124171538231e-02 -1.446826487480906871e-02 -3.184569405544596110e-02 4.380318576080895025e-03 8.026104460226779480e-03 2.120306888568890269e-02 -9.999824197371216805e-02 -1.998635159124059757e-01 -3.297302787605314173e-02 -1.578591046345763915e-01 -7.050700614455714110e-02 -2.149432680314841346e-02 -1.398576663998914171e-01 -3.581751778630668653e-02 -1.122518672084874963e-01 9.028852081535133911e-02 6.776748268931050145e-02 1.337003635064560048e-01 1.211851826750020081e-02 5.769636238093773725e-03 2.752164725388167154e-03 6.741316063573617959e-04 -7.230003782579984273e-02 -1.024501740161738450e-01 -3.036236813059509446e-02 -3.181089588164579679e-02 -2.420520281374351559e-02 5.729826137425964028e-02 4.806908836874985470e-03 9.325338157816371806e-03 -3.244263276909801347e-02 1.396189578090264614e-03 4.264857155651292919e-02 -4.047506187352512691e-02 -9.990698847209480982e-02 1.391229196136396090e-02 -2.089994579186202628e-01 -1.159238641298183659e-01 -6.998104553016264162e-02 -1.569643558139140471e-01 -9.610258575079581866e-02 -1.661059584617088081e-01 -1.795349616969890982e-01 -1.167253913557658174e-01 -8.664485522152103047e-02 -2.685941438636849348e-03 -1.734838754216668985e-02 -8.817958823523742995e-03 1.770888542385588458e-03 -1.094518233010567318e-02 -7.000344052458504218e-02 -6.589021813592785271e-02 -6.029898927639414097e-02 3.472053220855275159e-03 -2.496235701854701908e-02 -1.845796491295789363e-02 2.127316950660535291e-03 8.006775889208012087e-02 6.513026020808607153e-02 -3.877828050844024654e-02 1.674795879755699990e-02 8.027040002344104988e-03 -8.566513322207416556e-03 -1.655178601533910943e-01 7.017531936120699650e-03 -6.812498477911484163e-02 -1.486596529113562160e-01 -6.941918829839018035e-02 -1.176783192114438936e-01 -1.532294570000675496e-02 -4.008922318556647213e-02 1.070782288609566507e-01 -1.630219425860238505e-02 -3.592274740808597960e-02 -4.225469096086755666e-02 -1.641838127404082357e-03 3.551479938230798681e-04 -1.142294930764680728e-02 -5.506178664824121216e-02 -6.566872822157050760e-02 -1.101417984444679754e-01 2.684296393160361810e-02 1.133423243358220450e-01 -1.795780771364232503e-02 1.180612751533447885e-01 5.335553744405112375e-02 1.260639922888873998e-01 2.036606374768216432e-01 1.142604643771536754e-01 1.478256646656921081e-01 -2.173711903074446519e-02 -1.263026513358924963e-01 -1.595487566709825888e-02 -3.029595174896049584e-02 -7.968707203493389027e-03 -4.926477481331451719e-02 -2.760865646943366780e-02 3.744571763429208229e-03 2.099850564319862556e-01 3.857963633595640762e-01 1.961865319545502140e-01 -3.396691022217298433e-02 -4.501797355292400105e-02 -4.046338092128570416e-03 5.757929145512876226e-03 1.423246858395462063e-02 -2.795407680304258513e-02 -2.092870494184957686e-02 -3.995326712248438439e-02 -3.171057640942658018e-02 1.354624603886687706e-01 1.083947069622574477e-01 7.991715541731397865e-02 6.187059342072602497e-02 8.933243462781882693e-02 8.848706805212307180e-02 -2.247145841613812714e-02 6.466809015707969399e-02 3.328426603116702714e-02 1.018010281006324486e-01 -4.814547542420006404e-02 -2.591708537263039472e-02 -1.593346478862899332e-02 2.333910813816932397e-02 -8.582428488680438061e-02 6.193947778212573370e-03 2.598022822091109463e-01 4.900709173537954322e-01 2.712467437723576347e-01 -2.814788241884814274e-02 -6.876903344240457849e-02 -2.543567571302345325e-03 9.574104863324035472e-03 5.560042486785336281e-04 -4.923901743676504551e-03 2.255265532031147310e-02 6.942979709321750459e-02 9.198132430777200552e-02 1.812200832601922329e-01 1.203659502644331553e-01 7.880221257206927732e-02 2.552696659130844134e-02 5.024065579067530513e-02 1.311227130370364036e-01 -9.595810407355609417e-02 5.913027751147429539e-02 -2.758780140038910242e-02 -5.515950853452384478e-02 -4.692928557200432005e-02 1.808966619937154088e-02 3.132496194770266994e-03 8.715040785684184665e-02 9.508823798239462999e-02 1.181190108811394635e-01 1.951500251468222258e-01 3.034917613967388905e-01 2.775231009150544437e-01 -1.410592539151870987e-02 -6.085953601336287905e-02 1.157031544706741506e-03 1.325353972491268809e-04 -5.045928135043611582e-03 3.179601100411342217e-03 1.700181847893775244e-02 7.490989030690699269e-02 3.301531689546002152e-02 1.020712413517700645e-01 6.971808002192032838e-02 7.937444630817459823e-02 6.190241130547184667e-02 -5.127820159347253048e-02 1.049488627042239990e-02 9.711968670765865064e-02 2.242335604156073508e-03 3.925825168407170301e-02 4.388958187167751879e-03 8.082894416225746767e-03 1.311641071503500192e-02 -1.802925967218604181e-02 -1.352630823808409683e-05 4.528786056172717789e-02 1.415040131563615189e-01 9.058746827333434559e-02 1.928654882127412429e-01 1.841887327213959646e-01 8.844151639293416564e-03 -8.087671296256392084e-02 5.551667104080452303e-03 1.105551217671259462e-03 -6.756498145009621169e-03 -2.216464600994810796e-02 -6.784994752106600358e-02 1.143995755620547550e-03 -3.119110955153869130e-02 1.126155637061399956e-01 2.560188898191894519e-02 -5.251745906052757151e-02 6.410713473692984665e-02 -4.984231910761571793e-02 -6.075846650738810778e-02 4.499910019490008239e-02 4.036629005752583738e-02 1.849163561927209265e-01 5.155219618508035534e-02 -3.495939806123447499e-03 -4.223434550186377923e-02 -7.555465801103204704e-02 6.760096201199562380e-03 1.036268313245818501e-01 -2.086848448886065646e-02 9.088874558697285222e-02 1.385035121524236523e-01 2.086358048516280539e-01 -9.916116591705818883e-03 -7.141193184224085833e-02 -6.502058725408189910e-03 2.981212137665691791e-03 -4.247843417650333867e-03 -1.562685323321760800e-02 -9.043782968386558652e-02 -7.080722330922351038e-02 -1.351947779095660218e-01 4.613683023492270996e-02 4.659552662200126122e-02 1.245211600640099142e-01 2.057159540932133601e-01 7.744238173533744829e-02 2.292081762384742261e-01 -1.730049643772004625e-02 3.904313161066970406e-02 1.075048880147619484e-01 -9.876583693860213620e-03 -1.392578556121168085e-02 -3.706275993471656871e-02 2.512822588217919137e-02 1.135093340960160180e-01 8.377080737909087249e-02 1.413011327693135602e-02 -3.201747597113670241e-02 7.975219484537225678e-02 9.963024539083280284e-02 5.357507519456587188e-03 -3.771326032807414963e-02 5.439946814263013110e-03 3.715783171564668568e-03 5.937396647611277922e-04 6.877446209429663448e-03 -8.523796343813323795e-02 4.091706074192902332e-02 -5.902098345383489757e-03 -6.153593680514998082e-02 -3.198057620179928923e-02 -9.076176100076871478e-02 1.113516854692263025e-01 2.419937670604695723e-01 1.094497744891978069e-01 1.583888605899501090e-01 3.519944932256878489e-02 4.759840638671648805e-02 1.060326032100254029e-02 6.843192615063921347e-02 -3.892140912130846037e-02 6.478164376357412046e-02 2.036657821621031070e-03 2.623983373001517044e-02 -1.357052348394558947e-02 1.626885131687194064e-01 1.187758199287867605e-01 8.596138797714457380e-02 -3.300411580472818046e-02 -3.174387845563075849e-02 -7.708054522911944421e-03 8.897822641792382803e-03 1.975979444287314073e-03 5.498668633685415731e-04 -7.129904145154387918e-02 6.540772157401807119e-02 7.861142482721697466e-02 2.768371858232643312e-02 -7.325648144351437629e-02 -3.470943594164311273e-03 5.275159960617929050e-02 1.211909579307740709e-01 1.813323058351531125e-01 1.881733495006676915e-01 1.414534952250992295e-01 9.255401586967118566e-02 1.591604614449434740e-01 9.163268424875632701e-02 1.506972889696399087e-01 8.348906307281053762e-02 1.533023112944555122e-01 -3.640181467038752783e-02 5.837651184773180041e-02 9.215280043765278206e-02 1.453413123442299226e-01 1.208335639530109806e-01 -3.411679624268555006e-02 -2.673954602605080333e-02 -4.209699504039210449e-03 2.768976608473075994e-03 7.402169684452078458e-03 -6.541822548554933336e-03 -3.058964564419761056e-02 2.202913648705228863e-02 6.845545372491289304e-02 -2.895812447976151699e-02 3.438876495722876809e-03 4.123126303441668888e-02 5.987763817778077313e-02 1.222074636465808328e-01 8.441347747933583556e-02 2.029028423449366347e-01 2.284115097308775100e-01 1.673290413299513280e-01 1.913291978478219857e-01 1.748306914544320578e-01 9.541980552824341766e-02 1.296290183791699580e-01 6.107579041611721493e-02 1.699348021841431272e-02 7.307441774867984297e-02 1.472630073983549094e-02 1.100323638049885422e-01 8.679715055555763115e-02 -1.134078289008330458e-02 8.131233754309965048e-03 2.339390493585629185e-03 7.020400455636198467e-03 9.239811103223131983e-03 -2.884809840526188565e-02 1.674052901915330099e-02 2.331390247325096365e-02 2.959509923873617290e-02 -5.372952893549466646e-02 3.353272313098126789e-02 8.555794657006646209e-02 3.825303418431229979e-02 1.606746298075099541e-02 1.944131931142867031e-01 1.353440805797618274e-01 1.837942869509316679e-01 1.602337012211925427e-01 1.300220517697033840e-01 5.631543892068933965e-02 1.751491693575203401e-01 5.072889353092968623e-02 -2.891432759480628070e-02 -6.983122272629306571e-02 2.851485163842520237e-03 7.302213553583955519e-02 1.053578614270200137e-01 3.163605919964651569e-02 -2.804216728231036584e-02 1.750325832022710248e-02 2.848310705246460354e-03 1.540895474086439890e-04 5.080206907502788933e-04 2.515967285780285317e-03 -2.649056475970844662e-02 4.781972074675419626e-02 9.260118741136688647e-02 7.336412757699158071e-02 -2.592954974455921255e-02 2.733677003025474297e-02 -3.009498264059771999e-02 -3.105469636481764453e-02 -1.137961374047022217e-01 -8.476434996175004344e-02 5.690967750644146395e-02 -2.598758072983345727e-02 6.764532124974281801e-02 8.294653815507567474e-02 -1.680960620994083853e-03 -1.930771542303951968e-02 -1.416139064317106441e-02 4.059259425197204313e-02 1.038898055702893071e-02 2.064703021431368163e-02 -4.426189077128153682e-02 -3.956502509995126621e-02 -1.335486295995658157e-02 1.305088034717491723e-03 1.356309852816613105e-03 8.950364269133134765e-03 3.598225875844419594e-03 2.327653029208203231e-02 -5.495263798779126407e-03 3.817387280407302796e-02 4.785049052524039531e-02 9.844215841857030524e-02 3.917096715933158363e-02 -5.883003693824904318e-02 -2.544392082979289940e-02 -5.859410706044825001e-02 -1.057118316610387576e-01 -1.871800692936982646e-01 -1.101876672564154197e-01 -1.855941292939749798e-01 -1.841949053254668747e-02 4.333654403182537335e-02 -1.772432535428102376e-02 9.927520551631954793e-02 7.565235374721826500e-02 1.230685632844024102e-01 7.269487041577987751e-02 8.830766526911881797e-02 2.229698191309641489e-02 -5.976510099924992048e-02 -1.382712578357465395e-02 4.128980177495228561e-03 2.330964857227360749e-03 8.258490199730610798e-03 7.527210970824232961e-04 1.936363434313172205e-02 2.972900022891231467e-02 1.317108343281733762e-02 -9.367562804442429447e-02 -9.160974685135898909e-02 -7.249995689401193821e-02 -6.499800304078366675e-02 -1.021281784731546682e-01 2.156415903473003423e-02 6.587789033759908208e-02 3.021912316579600591e-02 8.517609537187963153e-02 8.456632513099919535e-02 -3.498016764264466009e-03 7.882068225568802933e-02 3.139867329564541287e-02 7.961737449284979340e-02 9.221021188428267512e-02 -6.216028368725354247e-02 -1.471674039621350127e-01 -6.270573702864856713e-02 -2.985233377133515720e-02 6.229119193430394941e-03 2.695573408318524891e-02 4.956721184305728535e-03 4.113946205598175906e-03 5.954389763846231962e-03 3.145027920360352926e-03 2.374786257045307172e-03 2.357499145990407663e-02 4.778843149094769843e-02 -8.517744765092706560e-02 -2.769635618372452701e-02 -3.797051179462027776e-03 -7.766572564665846778e-02 -5.419066171213558075e-02 -7.365563478407624598e-02 -1.061379837868683257e-01 -1.845082073031752423e-01 -1.742904412026996530e-01 -1.993533974356481164e-01 -1.129427753087109410e-01 -3.293986550434096494e-01 -3.289711111792328890e-01 -4.118063090703765750e-01 -3.810501719679287858e-01 -3.908498733402611669e-01 -3.076637668675980541e-01 -1.377730120505341604e-01 -5.009380473937913303e-02 -1.345855962295789375e-02 3.102407809926022251e-03 7.304519705084808884e-03 2.945241608547725584e-03 2.511165933767742046e-03 7.610104248839725215e-03 7.806115846979884421e-05 5.135892257558535238e-04 -2.781178614979859173e-02 -2.562139738611099449e-02 -7.844791689768930432e-02 -7.370273290054372983e-02 -1.474776677260589142e-01 -1.687315619915711051e-01 -1.679605476214806603e-01 -1.376384187830178019e-01 -2.023628402948828009e-01 -1.674455383958874111e-01 -3.238888921067508697e-01 -2.480557495563649739e-01 -2.439995882382493542e-01 -2.060607780176542947e-01 -2.961400211681426975e-01 -3.286550275615872652e-01 -2.069376871091334336e-01 -6.043132570811438065e-02 -2.963026922716025316e-02 1.671482976756371924e-03 8.783841291384307873e-03 8.520005638888753299e-03 8.945367168427354604e-03 1.755080969041368857e-03 1.085537082874338602e-03 8.527146959604482018e-03 3.586706434624766134e-03 3.303608555111690534e-03 1.182524726728015514e-02 2.259288165246851193e-02 1.408979341056450403e-02 -4.962422797796241583e-03 -7.200003425403023530e-03 8.869195390739407700e-03 1.121553714464434276e-02 -6.745962931590162963e-03 -3.282057413320538242e-02 -3.720788847606275318e-02 -9.064280963648004008e-02 -1.489910714338558897e-03 -1.482204324233807845e-02 -1.782712880333298805e-02 -3.253227976202170690e-02 -4.691343364627446888e-02 -2.624513281211423091e-02 -6.282207914899584633e-03 2.996783123270066723e-03 2.878408001668877978e-03 2.772124888811201664e-03 1.785227417405390107e-03 6.317027759730337033e-04 1.935586574584742189e-03 7.554495608779049354e-02
5.719278554871134665e-03 5.497821644995109364e-03 2.424412546643959186e-03 8.702278609303396723e-03 1.951312714901560011e-03 2.584565542076864772e-03 1.642484388372264514e-03 9.722992264592691253e-03 7.284531130037682350e-03 6.198682822729367770e-04 7.389444996235941185e-03 6.117459991353391309e-03 1.185068720182644655e-02 2.487665483595944207e-02 -2.563198189897360028e-03 2.344660065628193565e-03 9.019207236891996909e-03 4.784986691621815127e-03 8.915291561525739636e-03 4.734938695054049206e-03 5.847119947618880514e-03 3.765493396472793797e-04 7.014080529208644582e-04 2.159288773763428856e-03 8.695514980869224059e-03 5.912730519811322180e-03 1.901948787152355977e-03 1.624298217065157229e-04 3.849389439059722542e-03 8.485977336344752847e-03 6.201300948486511422e-03 6.065063886401121651e-03 5.318385674463527906e-04 9.430810868664462818e-03 -4.280331946930444279e-04 -1.939588530166941500e-03 2.865702206802660246e-02 9.644858613082006246e-03 -1.972386895363742801e-02 -2.821678673045674521e-03 -1.318251467501132222e-02 2.071783959784526119e-02 -2.300035883589867519e-02 -2.428306414866323454e-02 -7.849414506100909532e-04 2.940190836269630445e-02 2.973155684752373795e-02 8.794191038246182727e-04 -1.945457748715157670e-02 8.198325618951899513e-03 1.509182344971677714e-03 4.324362229776632614e-03 5.847593321882876144e-03 2.136827280552240291e-03 6.328923642344677636e-03 2.669276311864752713e-03 8.714518983238148109e-03 8.357941117985417251e-03 8.360312099391307636e-03 3.808170418293628078e-03 1.960877920273602307e-03 7.409715650745839904e-03 2.072086598280882541e-02 5.737289154044641643e-04 6.699241560828006481e-02 -1.440589059494807797e-02 -2.185011307827522311e-03 -2.250273579049990105e-02 2.074481614894228831e-02 7.122342536423577342e-02 -5.838931886819701683e-02 3.340239152275457923e-02 2.962907066832992306e-02 3.185210522277268086e-02 3.951991962415902365e-02 2.366825323074323723e-02 -3.490344925454792052e-02 -1.448121923664941364e-02 6.917653244232028868e-03 1.109534013107270865e-02 -7.352436894171858472e-03 -2.625002788015684367e-03 8.232246950590084433e-03 2.335446740505369399e-03 8.225903052878598756e-03 9.215054802406797557e-03 -6.354276894782274815e-04 8.001711942340032288e-03 4.428508343544562860e-03 -1.245609916305615884e-02 1.297069690651000235e-03 -6.761473245728489255e-03 3.033501580649892657e-02 -8.333130297220253668e-02 -1.540588387006163462e-01 -1.455240131581234386e-01 -7.083739131155350477e-02 -1.324898978855008624e-01 -2.187120546056824794e-02 1.083664683951481196e-02 8.807306281118794378e-02 1.043959422990689001e-01 3.730940589269055724e-02 1.422374081751998365e-01 3.375989176926568608e-02 -1.674810624030202699e-02 -3.484779707144169958e-02 -2.168477521903692737e-02 2.652043571174073078e-02 7.616489791434082925e-03 8.785032867447221602e-03 4.622439488010791388e-03 7.029479584006423885e-03 3.560377513872854194e-04 -3.611855264045579425e-03 5.174830975768787006e-03 -3.022778705542110075e-02 -5.225326554262840067e-02 -5.376245686103887228e-02 -1.438611824162032982e-01 -3.535739913741399454e-02 -1.981295663446258973e-02 -1.467253184633053875e-01 -7.390719723418801013e-02 -1.356003136430916911e-01 -7.453960388875380261e-02 -1.526207429052935660e-01 -1.794266828063814101e-01 -7.899230034757186159e-02 4.158698703237873051e-03 -6.187913326708059658e-02 2.107252861964395776e-02 5.564772910751802915e-02 3.948680378800661223e-02 -6.006458838130352557e-02 -8.163067553814778304e-03 -1.761000230532435151e-01 -9.362531862291872953e-02 -1.582276890604844902e-02 9.931206987584852153e-03 9.555649023324378280e-03 8.213023778063568286e-03 -2.296524931998502120e-03 -1.070148162770381134e-02 -1.045402902897461378e-01 -1.953843036912444597e-01 -1.132954079920879542e-01 -4.967996516372564370e-02 2.649304637975977844e-02 6.520656617601731583e-03 -1.736326139714041913e-02 -1.964302616155031989e-01 -1.607551302587048869e-01 -1.537953543444757487e-01 -1.109908880514153123e-01 -5.773245743209584786e-03 1.616231337020249473e-02 7.705652551349857771e-02 4.278884590488132161e-02 8.881512495376504834e-02 1.535233007011964877e-02 3.970178350730182992e-02 -1.611441610098588535e-03 -1.291183254499174947e-02 -1.912624660492830975e-01 -1.282889382122045785e-01 -3.318262765409828868e-02 9.604941937293024964e-03 5.083044908977060392e-03 9.346573093710638588e-03 9.500888784792830416e-03 -1.961508893678230031e-02 -9.269719371303151989e-02 -5.306644518051428089e-02 1.235400363239471527e-02 1.091953305090819226e-01 6.633907594802228823e-03 -2.874254168370340371e-03 -2.892269375990562039e-02 -1.509825807100017570e-01 -9.285739067852012696e-02 -2.078758295821903357e-01 -1.761980774724037357e-01 -1.434220885860639783e-01 -2.026570378368861003e-01 -1.189342447707618794e-01 -1.730530833151590342e-01 -4.959619154676399300e-02 -1.530050935488321169e-02 7.216635509164855133e-02 1.287263893713071483e-01 6.843453737209641285e-02 -2.794057339691158881e-01 -2.350600795351568406e-01 -6.375780618202013528e-02 -5.451001273658121794e-03 8.708959892444464307e-03 -7.358807482858919710e-03 4.016142593753209422e-02 -2.932977940655932814e-02 -4.852681917489536090e-02 4.584763484896724195e-02 1.195663745638694264e-01 1.218628339243228165e-01 -1.361674982642638830e-02 3.119286300146146065e-02 -2.638865980574413989e-02 -2.022161449235183091e-03 -9.912244518633160639e-02 -1.129644582771878597e-01 -1.603651017362903164e-01 -2.441311884729199799e-01 -1.689462442795042207e-01 -6.148937829238023539e-02 1.715670248004064549e-02 -1.892765729563410104e-02 -9.083121427731206954e-02 -1.080606435784087493e-01 1.736814099306937254e-01 3.829048240392379093e-02 -2.878113611527017834e-01 -2.430168664850443638e-01 -5.789453130573620626e-02 -8.478149093128791933e-03 4.626756604175703488e-03 1.481886202663684413e-02 8.711608592178764210e-02 8.495144069538898557e-03 -3.566101484859555970e-02 8.214704233279443435e-02 -5.738647297350649157e-02 4.426060261773201443e-02 -3.738283009513753558e-02 1.243237172112320564e-02 4.475004237971049598e-02 8.500139478016260908e-02 -8.741158085418929136e-02 -8.858543371885614637e-02 -9.135110862719179881e-02 -1.200819785001884799e-01 -1.502686392809507721e-01 5.205278513890423259e-02 -1.464849041848226563e-01 -1.633773735479248645e-01 -2.860966189188587916e-02 -1.700578014590713449e-01 -1.227197073912339315e-01 1.271499019933639840e-01 -3.286253638045180669e-01 -3.222122535099785634e-01 -1.437243561255813207e-01 -3.039437369369092992e-02 7.025497916124622249e-04 1.198554454137344683e-02 7.721343945410868992e-02 -2.369239658361147263e-02 -1.350808799308773466e-03 2.708779021077930768e-03 -9.071797062228335873e-02 -2.142873975415407473e-02 5.617907021587823652e-02 -5.519689305718090272e-02 -1.027106535315350233e-02 -4.030522276885116430e-05 1.029293674787490759e-01 7.895853070416218589e-02 -5.022695672996287108e-02 -1.141803309218320517e-01 -2.463350706515038749e-03 -1.107046058378421127e-01 -4.965474814267767378e-02 -4.496653634106932002e-02 -1.401816109987998327e-01 -1.248282350009756736e-01 -1.971794812142246001e-01 -3.215260158682147623e-02 -3.880589234351534134e-01 -2.613040950180553490e-01 -1.348344894429593099e-01 -1.436396384059739594e-02 5.308827824405116776e-04 1.622826453296317278e-02 7.308281303732224073e-03 -1.643612769208212809e-01 -6.685415503244263036e-02 1.243946772024379956e-02 -2.830980527146407990e-03 1.659302513908697541e-02 -9.414785149716083448e-03 3.633209901314369411e-02 -2.351064940503036060e-03 -4.415593678935510191e-02 -1.533195902931819635e-02 -2.430269573785440260e-03 2.256051508910110470e-02 8.594775951269981173e-02 -6.566049478073350543e-02 -1.829847034398186670e-03 -6.931869648444782817e-02 -3.446507599870531069e-02 -5.908384759580524032e-02 -1.222678974779722039e-01 -7.455343607026734820e-02 -1.249952572351345492e-01 -2.985719457867183624e-01 -2.297412796019241144e-01 -1.532374860136710426e-01 -2.234127552091750776e-02 1.108999372279662662e-03 -1.098273101287235848e-02 -3.714591074634473328e-02 -1.048479322724640561e-01 -2.891735974039224763e-02 7.937895452501017926e-03 -2.681571943958509924e-02 -1.560359095642734895e-01 -1.081001649541324522e-01 -6.185836882854329338e-02 -3.449907388521192275e-02 -1.369316966227082377e-01 -1.505594963205895143e-01 -1.717203001781371918e-01 -1.380524683127307140e-01 -1.628098120612667399e-01 3.962547768579150614e-02 -5.949400522356251830e-02 -9.360811896796886189e-02 6.911062850607900890e-03 -6.763599812037181247e-02 1.639683425784996540e-01 8.790341176099397691e-02 1.334703199839306076e-01 -2.211350162758676796e-01 -2.333297287709458767e-01 -1.287304048608387541e-01 -4.796251219802562075e-03 5.569874857696558573e-03 -9.534018604284027337e-03 -2.017715199978986976e-02 -5.118456470943510972e-02 -1.464288751488576901e-01 -1.498089770371788532e-01 -3.411963366082640392e-02 -4.807455882368539407e-02 5.986555577848284154e-02 -1.010291422492955171e-01 -8.183779566314811418e-03 7.370866785869248372e-02 1.681536742655567046e-02 -1.064731072764672631e-01 -2.802031109088522487e-01 -1.098975200181462886e-01 -7.295177919160189539e-02 -1.029699248874155620e-01 -4.084537911651140579e-02 -1.242063438623922274e-02 9.353950065655246629e-03 1.031287825257864860e-01 3.131159876069083414e-01 3.797235999488368652e-01 2.091378907111878793e-01 -1.016933618022625996e-01 -1.007356595429326623e-01 -4.599335009642888453e-03 4.153398449804615415e-03 5.421337291280710520e-03 1.227089887352453279e-02 -4.525216761084729922e-02 -9.546156012286807768e-02 -1.214272618798450804e-01 9.622736260337560327e-03 3.016497278391173757e-03 1.540887475077904953e-02 -2.892068235779723245e-02 1.762418060977544720e-01 8.668677193899670952e-02 -6.408742565657711554e-02 -1.993472733603191271e-01 -1.831580458458735849e-01 4.958957515575861813e-02 -8.979282939435478950e-02 3.999628372088932793e-02 -2.894338861472198904e-02 -4.970821952638678626e-02 -1.382881194502791067e-01 1.756484358888462521e-02 2.562899853683971441e-01 4.159003632659412086e-01 2.427038995428535129e-01 -7.346157910577884309e-02 -9.618491173342549883e-02 -1.083248616182819896e-02 5.356385201913648093e-03 -1.721037095132505303e-03 1.393330465185432104e-02 -9.121569637168978548e-03 -4.334078140567669372e-03 5.814621423080360701e-02 1.392996302863524216e-01 1.370357746740551441e-01 7.791635865193881350e-02 1.317457000088876895e-01 5.726917376469724263e-02 9.731468080489467931e-02 -7.257410338883542311e-02 -2.790451433211020849e-01 -8.635147288832756285e-02 -7.941468065295646805e-02 -2.500120204204542979e-02 1.643012356184417669e-02 2.977457115554987127e-02 1.692066417307868387e-01 1.801327062287796377e-01 8.006693924930184669e-02 1.999255214309997308e-01 2.914419246447611522e-01 2.011473432484084389e-01 -7.947940800538838557e-02 -5.400870261073650175e-02 8.566356021929859635e-03 5.189520522591067192e-03 -6.535262667334241701e-03 1.568413970652553571e-02 1.042171872508051468e-02 -1.760152646872816667e-02 6.485142050982302397e-02 1.200608387920285153e-01 9.361964978708843532e-02 1.031938951806000426e-01 1.573674644501656394e-01 -3.436099281033402897e-03 -5.496408063862848539e-03 5.502759830946884340e-02 -3.229042992105733423e-01 7.019143405797402535e-02 -4.255080038229123313e-02 1.369891978065826237e-02 1.373307614646341601e-01 -1.955670378351172592e-02 7.018474703341651133e-02 4.445910854398395229e-02 2.033900915873307624e-01 9.406885422975838629e-02 1.476838810099493360e-01 5.449379352052739767e-02 -1.025873258425838430e-01 -6.975813794276521096e-02 1.644866219437124064e-02 1.059621724786323493e-02 -1.165924132270715341e-02 -4.328742248611949089e-02 -1.196162409595857429e-01 -3.080059578240389520e-02 -9.764080850400995784e-03 2.106298745581590137e-01 2.117229362638471946e-01 7.927113063081779598e-02 2.137233509714945093e-02 4.169596417484234218e-06 -5.902968678181750445e-02 -1.774021881224812358e-01 -5.288326073835973584e-02 1.050352908505457622e-01 1.204935067922339731e-01 6.460902403248293402e-02 1.494135894380941784e-02 1.990678605641144766e-02 1.081888618151890559e-02 1.313901569680421821e-01 9.770951158002511017e-02 6.544043347527983556e-02 1.768862234571708450e-02 6.332845455755724273e-02 -9.277042350575565033e-02 -1.111342507117720618e-01 4.354822712028347254e-03 3.181148268007875403e-03 -5.884960029516477648e-03 -6.190316301606569455e-02 -2.593871965085721709e-01 -5.647717927464719623e-02 3.119815203909516443e-02 1.260932694585448488e-01 4.249809994892695536e-02 2.880571152067808449e-01 2.655011606048648942e-01 2.150134781280109431e-01 1.608672029777832024e-01 -2.044028948017581893e-01 9.876643933061522718e-02 1.388905593195369770e-01 5.364476762583200720e-02 3.297656948691549822e-02 4.047954121719712223e-02 1.316254389527379554e-01 6.539996464649561192e-02 1.370504115303321224e-01 -2.441543351509858212e-02 -4.552631036134893033e-02 -1.954887361344041438e-02 4.029423380656770026e-02 1.077791677167507477e-02 -7.284305849553934786e-02 2.459224278328943965e-03 -4.688781137320790528e-03 3.356724564584772329e-03 -7.497545809790998050e-02 -3.179639950935669868e-01 -7.079303144541901349e-02 4.056201014009602757e-02 -4.137739264510629372e-02 4.140069567954469953e-02 3.043269317138068072e-02 2.672117585339366386e-01 2.209997228789540857e-01 7.568055452895677826e-02 2.705598336707900620e-01 2.245058346104213398e-01 1.180798980977378621e-01 -4.117067705220270324e-02 5.126710949702567924e-03 -8.213053802673714321e-02 -2.915041535588814431e-02 -4.010065896045406086e-02 -6.877774599474348327e-02 -2.043469618719232980e-02 -3.177117274734334723e-02 1.569278444509511136e-02 7.034457005466308865e-02 8.858167156577138532e-03 -2.458760239590605107e-02 -3.823740252022391622e-03 3.845311403492824350e-03 -1.805873196564283887e-03 -6.338148955568727316e-02 -3.154548070221757650e-01 -2.606047488930606296e-02 -8.194074048124083687e-02 -6.406031522606638051e-02 -5.933433244208086155e-02 -1.261340345988705147e-01 -1.579113437267759545e-01 -7.367959662431361467e-02 6.211071584545738156e-02 1.416577432750838195e-01 1.708399462348986209e-01 8.927620468127403508e-02 6.321325259743941494e-02 2.665138899185924559e-03 4.291263831380985605e-02 3.020604792731367699e-02 7.498863355560039801e-02 -1.216597427200896836e-01 1.561851492894529396e-03 -1.640739483359627271e-01 -1.155217177901203124e-01 1.112939228992465834e-01 8.281272717077212825e-03 -4.855536811923154283e-02 -6.820858998558541365e-03 4.065332340333761667e-03 3.230453599210710014e-03 -4.067738632763993889e-02 -2.460798348257128565e-01 -5.019522230533362411e-02 -6.628992746395862001e-02 -9.113278597730359309e-02 -8.038309564668311147e-02 -1.167557655768645813e-01 -7.271420131636675832e-02 -1.037150111770594220e-02 2.204112746745807289e-02 1.357975983138243747e-01 1.602425124255394406e-01 1.681158955557391088e-01 1.850808698950146269e-01 1.276925442314914005e-01 3.272514112810137599e-02 5.129552134684111850e-03 -1.698275996038211763e-02 -9.078938003032568926e-03 4.237256672836066385e-02 -8.748327284141568794e-02 5.608460273073030689e-02 1.539400280955594280e-01 1.904671396616326381e-02 1.390932184362204081e-02 2.739302230715941894e-03 2.393073808512553250e-03 3.539487298916386884e-03 -5.115446042030813434e-02 -1.546169620951117762e-01 -6.905698526791674563e-02 -1.030009219239972906e-01 -2.544436182393356449e-01 -2.081977807296110927e-01 8.328261372604735258e-03 5.405109088653313465e-02 3.220759935067216834e-02 2.243716932591290070e-01 9.629529557215765756e-02 1.211269888461774802e-01 1.531912252267418617e-01 7.988115013740905435e-02 1.191375747084762052e-03 1.143605685709648961e-01 4.384554665122015332e-02 6.705836962584757303e-03 -1.188849065945265515e-01 -1.721475791674218978e-02 6.587978743323842645e-02 1.580197502615918459e-01 8.495282670824298721e-02 1.628421553229272845e-02 1.820601000785079457e-02 8.569903685098646459e-03 6.098712492219157850e-03 9.173691690413278074e-03 -4.288502433615741516e-02 -1.407589264561547593e-01 -1.597324229424355591e-01 2.798799768763155990e-02 -1.025647652479155375e-01 -4.410761841361695614e-03 9.529555492154752339e-02 2.297330375283943710e-02 -1.049063981672899021e-01 -1.942699996361086368e-01 -1.051891547475728439e-01 3.943881009103293589e-02 -1.477202796285916921e-02 7.467594079199310619e-02 1.014662421096066969e-01 -6.171335802836327815e-03 -4.159105610017266308e-02 2.494946928467504585e-02 7.248519747417281334e-02 5.492039669762761173e-02 6.611819025916770842e-02 -1.004347576842722252e-02 5.354083786528960470e-02 7.665598793193830959e-03 8.882191595599314010e-03 1.614096397875135159e-03 8.318188494515155185e-03 7.891802912280771604e-03 -2.149774352033090308e-02 -1.133992364688987120e-01 -1.921036702299813714e-01 -8.616698479112239184e-02 1.334144696226101101e-01 8.116453245827763563e-02 -4.356664351553028031e-02 -1.039342073042450604e-01 -1.364577519714556819e-01 -1.323493623365712690e-01 -2.895157647180583993e-01 -3.168586718067014085e-01 -2.098879173819525878e-01 -9.571159273866894357e-02 -7.464751811858259811e-02 -1.659312600105818450e-02 6.827793835862830396e-02 8.764270991920337928e-02 6.704865524891075179e-02 1.656076720155892912e-01 1.217145840788461664e-01 2.134075124818495678e-02 -2.236950459619029344e-02 3.883800589925779853e-03 2.301012654602844001e-03 6.492853612581126269e-03 4.607394895006923508e-03 5.225817933159960550e-03 -1.597079208810951723e-02 -6.375162153519298158e-02 -8.780173417460214458e-02 -9.062041482132654480e-02 -9.009673696641681828e-02 -2.068938434724975073e-01 -1.864199244513786713e-01 -1.281660564975379279e-01 -1.303766100422670826e-01 -4.216615122998476628e-02 -1.284903121823704857e-02 -9.158237740315058883e-03 -4.506924957787136429e-04 -7.298762913110233563e-02 -1.057014418954004831e-01 -6.174128354308618116e-02 -8.435171374981197123e-02 -7.775108778960604372e-02 -1.966622014854342571e-01 -2.521194937035866057e-01 -1.712671426180066570e-01 -1.324270510329247363e-01 -2.194607921960966754e-02 2.272693237713612618e-02 5.215081076254887704e-03 5.185951599400011672e-03 6.180688381645703909e-03 1.384882817331394012e-04 -8.516555223499741372e-04 1.878475269139926818e-03 6.848374888996263711e-03 -4.112498377617203327e-02 -9.909969681657984641e-02 -1.357432886885595602e-01 -1.420012908859651368e-01 -1.830681330631228620e-01 -2.482178268299303492e-01 -2.272675415690176282e-01 -3.464272149739907602e-01 -2.735161567983189768e-01 -3.041879903629805537e-01 -2.525676649758057946e-01 -3.980632753529179668e-01 -4.756891741104127824e-01 -6.093588747988183396e-01 -5.515831152279236926e-01 -5.676684179614726045e-01 -5.119624558190932762e-01 -2.551835774463591666e-01 -1.123700992559957951e-01 -1.947607663689500390e-02 8.843205320980422612e-03 7.771522486704130449e-03 2.713515020858501235e-03 4.785788748916993546e-04 1.222379950774968305e-04 5.737721986039081429e-03 1.841347797025159102e-03 -1.486345883265178256e-03 -1.068650440644671601e-02 -4.605540064008308010e-02 -6.334832870700241036e-02 -1.546843614038073411e-01 -1.839748785172899970e-01 -1.728620885660550610e-01 -2.063605056144254823e-01 -2.431394173234940614e-01 -2.513160707828691609e-01 -3.975605895574074733e-01 -2.818270519652381068e-01 -2.736707633644608340e-01 -2.437242265226652049e-01 -3.652213011486331595e-01 -3.900677032844613867e-01 -3.475866561575707836e-01 -1.960240001300439239e-01 -8.049617847029963413e-02 -2.774127116012869640e-02 4.983445934362260715e-03 7.496997663754117677e-03 8.409319753571859596e-03 9.845615823441190503e-03 1.310761220218453413e-03 1.926785934128491876e-03 4.120611286522495552e-03 1.620377861021789559e-03 1.068845804801307926e-02 7.221074820170979812e-03 -9.417923694450641009e-03 -3.758071661829780197e-02 -4.613980180805905135e-02 -2.531622335600333673e-02 -6.319997564006515044e-03 -4.231300386247165667e-03 -1.926852739743312518e-02 3.060298262730010849e-02 -3.351929628108236275e-02 -7.154117178910219740e-03 5.187008817398450905e-02 5.702728463183966839e-02 1.011135430595651828e-02 -1.291064737089909001e-02 -8.372445646985610113e-03 -1.302182611647619958e-03 1.232038867473030227e-03 -5.729203567028683976e-04 7.166523957920798403e-03 9.171571751098745590e-04 7.672593826776170217e-03 2.002016506739822538e-04 6.166117810809869093e-01
4.946780447700662581e-04 9.285278608156566013e-03 4.032733829090272282e-03 8.462072728384251522e-03 1.834380340524100275e-03 5.246764497159467355e-04 3.617115323626045841e-03 4.553767226515827160e-03 3.920973152853520112e-03 4.566465848628614016e-03 8.640235111616358099e-03 2.724487767624480736e-03 7.604094396864595484e-03 4.172402901900155656e-03 9.112656910302307720e-03 5.471312546116683870e-03 3.977741407386630422e-03 2.526674570135452325e-03 6.772741889575744322e-03 3.081868843078994398e-03 9.891142926929373871e-03 1.692104356645520238e-03 8.000425883301600510e-03 5.393632284026957970e-03 8.665982485271936375e-03 5.658973146121919554e-03 2.704035465909849362e-04 3.131228424326832141e-03 5.757108538574989658e-03 9.126077071649307815e-03 6.538692460487474135e-03 1.187122760091124246e-03 9.887002717516871209e-03 3.920323180569324981e-03 9.047951108472077064e-03 2.172481995768280050e-02 2.358278631865396574e-02 2.116013365790805900e-02 1.798134183648497642e-02 1.040206185718848403e-03 3.575594117120581283e-02 2.209548578598198587e-02 9.318420825673206023e-03 4.597520574598224809e-03 4.041418949595191462e-02 2.685124652294628919e-02 1.334252896679847741e-02 2.161015111900781160e-02 9.905475489932851624e-03 5.788915971235398909e-03 8.685442931931863092e-03 7.446071318573092672e-03 4.413502814487359205e-04 7.777099352629131615e-03 7.695078889004064102e-03 7.803204718796471345e-03 7.461946707179391118e-03 9.594962626301630632e-04 5.100902893464968717e-03 8.471710753764081017e-03 6.477761763009413747e-03 7.509406947889448077e-03 2.207454498558590605e-02 4.990755137259322849e-02 6.112827904053490941e-02 7.313508744799387951e-02 1.047999506104136114e-01 1.374692135062831888e-01 1.549581175893435248e-01 1.449648831756295553e-01 1.473720683036058299e-01 1.690712984450007672e-01 2.485113727461073230e-01 2.517399593318321860e-01 1.682728405245406678e-01 1.327933583069575707e-01 1.042909163829569552e-01 9.232967012384417360e-02 5.301512220378763046e-02 3.795112300661671739e-02 2.432797267379156747e-02 1.696667466825948350e-02 4.734983092313654884e-03 5.684052144593223881e-03 6.826620840139257032e-03 4.646755553444920778e-04 7.632084563663430084e-03 9.498484887563414872e-03 3.819294614914476530e-03 2.255420239188859338e-02 3.845032216365302374e-02 9.703156592571700323e-02 1.254413336323769168e-01 1.591598352718943399e-01 1.825170783811039532e-01 1.232096458856617588e-01 1.731507571087094743e-01 2.105571682286801194e-01 2.086520183246043936e-01 3.197573941865597402e-01 2.968050090253088191e-01 2.491953968530870867e-01 3.471869725771499771e-01 2.917023234877239024e-01 2.882403556099016328e-01 1.711671674830460010e-01 8.433634876298784500e-02 3.593022403318506253e-02 3.417479636343984106e-02 2.194312770007584082e-02 5.451462490733772863e-03 6.645522671244471526e-03 1.254443221098609090e-03 4.630545445828727034e-03 -2.977857171334584094e-03 8.732677330386875297e-03 2.134932807865532259e-03 2.466283874008615585e-03 1.791081613010033283e-02 6.497154657616589432e-03 7.980928952197807735e-02 1.959834847634898680e-01 3.538494405835604373e-02 -6.231996268457186232e-04 7.445085076066478014e-02 7.113157312247541351e-03 7.317084035394412836e-03 -2.232388078878984154e-03 -2.714779597016693524e-02 4.571022141938056726e-02 4.776395051194762958e-02 1.621133142764524348e-04 8.861941836962239361e-02 -7.762810594781224816e-02 -8.782017456921370133e-03 -8.508460257369222096e-03 -6.944063315953634408e-02 -1.935130780362071326e-02 -5.737979434107001037e-03 1.068449781203647218e-02 7.505681036608142891e-03 3.068838269047424912e-03 3.578565381632402894e-03 7.694904123702973019e-03 2.257891338640640594e-02 -1.869074977514162406e-02 1.218630405692774227e-02 7.697644988530340238e-02 1.173513406949155402e-01 4.792316668434407068e-02 9.395755019587363754e-02 -1.586917072685288532e-02 -6.389439024354744145e-02 9.914789780250181372e-02 -6.747355732215305768e-03 1.427087413579829489e-01 1.154469671244754830e-01 1.102770221737680856e-01 7.057169838765540992e-02 5.866884309503746925e-02 1.973591349429464070e-02 4.420757369148851229e-03 -2.559922341072719612e-02 -8.540990203466242159e-02 -1.309845720129621249e-01 -8.946639252250154078e-03 6.636256116487524587e-03 1.262042363628981465e-02 7.530116731167018317e-03 4.676165899247711373e-03 -5.227274262449767284e-03 3.742679440773753752e-02 -5.395483082904850916e-03 -2.617445121646441719e-02 6.755185469906888063e-02 1.680662478138058302e-01 8.358211852381822182e-03 9.617501939292665003e-02 1.316621197868031272e-02 -7.216011358195542624e-02 -1.608667001479132178e-03 -1.013063005869628969e-01 -7.730323100168243200e-02 -5.262198057944019597e-02 -2.879139930454702526e-02 -6.040716038937926635e-02 -1.097381034939800826e-01 -1.036568868180276146e-02 -4.807866520988264558e-02 3.004590149188247211e-02 5.863107090442281483e-02 -4.921041014755695060e-03 -1.836417285098551899e-01 -8.752311766624237821e-02 -4.813214704109267800e-02 -1.829064323307610235e-02 2.400250547719049842e-03 -1.306484097893188812e-02 2.448276495064528532e-02 4.282482029518566713e-02 4.886392405550032264e-02 1.654611802516077479e-02 1.462473945830822797e-01 6.281244907549264102e-03 7.488832716555147637e-03 2.534966715469382653e-02 1.418215832784224147e-02 -2.804435914219750858e-02 -1.245347793657545533e-02 -9.314298043042522346e-02 -8.170023051084725207e-02 -6.162695195752726507e-02 -1.331394684026629693e-01 -8.695489426457428395e-02 6.674623409938557246e-03 -4.295909226985535762e-02 -7.192753485265716840e-02 -5.594447583952472797e-02 2.198621409814618434e-03 -3.576167856016863184e-02 -1.669231301416458924e-01 -1.163380984009848851e-01 -4.807244634618514784e-02 -1.784636431347164445e-02 9.205196714332836497e-03 1.833895001286355367e-02 5.904876394452163862e-02 9.619514198826417672e-02 7.254118593054331710e-02 9.780993803920405572e-02 9.414032360888063486e-03 1.654549475647451931e-02 -3.082683275670013157e-02 8.620308118429445554e-02 -5.501370885780861725e-02 7.608443567571464283e-02 -1.959486622686392940e-02 -2.385005713761751897e-02 -1.180156189325755681e-02 -8.694873849577622327e-02 -7.053542338502147291e-02 3.617444098309813283e-02 -8.086923554387655255e-02 -8.110901470064277308e-02 -1.525013203432455146e-02 -1.159825169189671878e-01 -1.139983328467673862e-03 2.441763600156672889e-02 -2.384070919842723457e-01 -2.145325248757171954e-01 -7.513102347185840468e-02 2.610279767330595836e-03 8.212743693102493581e-03 6.919225782689302461e-03 4.921865201264914030e-02 1.005462381030069741e-01 1.075689488443797165e-01 8.332635185158726587e-02 -4.223394683139872208e-02 1.476384454766182207e-02 2.172043712185315820e-02 -2.141837598509504365e-02 3.679205992104272321e-02 -1.363801552907851437e-03 8.498271415461025602e-02 1.031299658229869881e-01 7.971814393622070338e-02 -1.801557572215580329e-03 3.949706245027193030e-02 -4.999114797290143269e-02 -5.314275836834172345e-02 2.890611456721977474e-02 -4.892817844545741673e-02 -1.272381600448573569e-01 -6.448406425401519149e-02 3.288526257832471988e-02 -4.295558089171317429e-01 -4.143049629295605940e-01 -8.754424540154207013e-02 1.611054587365043974e-03 9.951363450568156965e-03 8.551232132481949647e-03 5.273903981581797018e-02 7.512967425823455225e-02 5.348287780235325833e-02 2.323163295001160616e-02 4.761823871912933964e-02 -6.577403167115481071e-03 -9.026234879839187264e-02 -1.023464632878383351e-02 -5.290983063632319870e-03 -1.109977481844870301e-01 -2.509575095166460823e-02 -1.210271232734168589e-01 2.197167159587577051e-02 1.331831828381012661e-01 -2.941137090649558264e-02 6.507629951295193504e-02 1.527360125517350682e-02 -8.676813834302509257e-03 3.706547925847977071e-02 2.515747504840967416e-02 -5.901842778737891732e-02 -8.229928283908428954e-03 -8.074238932547302128e-02 -2.425504578768382102e-01 -6.275084783207236783e-02 -7.397541055329828925e-03 -5.050131706170497831e-05 2.730228902112802683e-02 9.114790580753863447e-02 1.165991869989319862e-01 1.832885877147280573e-02 -6.238002312625234858e-02 -1.242214893019668032e-01 -4.343902213885594832e-02 -4.204000949710051671e-02 -7.166785962455371473e-02 -4.034764663287442737e-02 -1.027379756189935878e-01 -9.532197044147451559e-02 -1.148335566820359449e-01 -7.936261401305219620e-02 -3.795729560871251990e-02 2.749577549461360015e-02 -3.995885708675849662e-02 3.780541889935241234e-02 -2.082376544141436268e-03 6.679237629716226754e-02 3.481123490867722436e-01 3.827514455527662451e-01 4.559660755305242064e-01 4.534732653370516786e-01 4.439803391841454228e-02 -3.627854034769523173e-02 -1.469269338119477556e-03 1.750841106988848062e-03 2.227307099836378299e-02 8.596488283869137270e-02 8.192535144525596447e-02 1.205902727101083871e-02 -1.220564994510888457e-01 -1.072993807071355304e-01 -9.964116770681757940e-02 -1.058158206788404297e-02 -6.388954239726581108e-02 -5.613095466795026828e-02 -3.747600517983366158e-02 -1.026464681160911135e-01 -1.645590096603275487e-01 -1.691117131825223552e-01 -1.214568855086894245e-02 -4.447861673741502347e-02 -3.683256114674735016e-02 -3.503735459532331814e-02 7.223826740085489972e-02 2.751250881422502917e-02 1.413426300514159517e-01 3.397348460611114285e-01 5.601120289773693361e-01 4.688159721005094038e-01 1.304432362011324342e-01 1.758413478235775970e-02 -4.129527868475179816e-03 5.802459359474112198e-03 1.875778605667912172e-02 5.701398603475345966e-02 5.258257380491229704e-02 -6.654248480808837816e-03 -1.860276133543126154e-01 -5.977552146447648318e-02 -5.405791171589872934e-02 -3.942135468493777190e-02 -9.926371060486548215e-02 2.579616436768947946e-02 -4.180886947162594514e-02 -1.314576472814318886e-01 -2.636677439127158712e-02 -5.719465351341126297e-02 4.946835094611549272e-02 -5.374700968810466190e-02 4.849388663163646529e-02 -1.704740183601640216e-02 8.300313998806516796e-03 -8.791436686922950508e-03 -3.395164288374526076e-03 2.960940829235311211e-01 5.971626049653029344e-01 3.484071604234775243e-01 1.417015646721538347e-01 3.178738743707688191e-02 6.160589201510188045e-03 -2.313416416196425410e-03 5.202551187475627607e-03 2.227419899921192006e-02 2.996700464249481971e-02 1.705921930206286564e-03 -1.769070014962371984e-02 2.594232882552538130e-02 9.539761601305285499e-02 2.469776712182912212e-02 6.002360645499062869e-02 -3.334923090630812631e-02 4.940033696373690580e-02 -2.471387959825272762e-01 -2.522046185625853587e-02 -4.490772383152039082e-02 -7.873651197657886847e-02 -3.394005279114641060e-02 4.039834957277568805e-03 5.647569118804061927e-02 1.381751187807917225e-01 7.079947681523394987e-02 2.155471003149299347e-02 1.649603562651884292e-01 3.249656087994185483e-01 2.128443588635718364e-01 1.264366946261268609e-01 7.346608784536171055e-02 2.989390725398275491e-03 2.969158790800056034e-03 -1.021573113840793835e-02 -6.320808241313306819e-03 -1.778819160362578658e-02 4.523455439493589275e-02 1.366434780937680060e-01 1.421076510370482271e-01 8.060529367570952453e-02 5.699003852123772640e-02 -6.136893405423208062e-03 -3.580887384636520510e-02 -6.076724385972629566e-02 -1.070101462358338529e-01 -3.762252015921589698e-02 7.082601725960298300e-02 -4.470852758460776809e-03 6.325794323635336447e-02 1.142917236398523356e-01 -2.917285378621221198e-02 3.100195231444593559e-03 3.368361127705122443e-02 1.362690814803190764e-01 -4.104069609042274719e-02 1.168672626011979382e-01 2.442819525603849018e-01 1.972641544084348109e-01 8.273371784414469687e-02 1.469736875220333666e-02 8.865988777352826200e-03 -6.727315123832024700e-03 -3.191299847568472570e-02 -8.080997321768602915e-02 3.885990767409450153e-02 9.437096525746796472e-02 2.446283289247832560e-01 1.318933383656253344e-01 3.958081409404275164e-02 7.488663796987368726e-02 -7.492608236390109477e-02 -9.540818953296120730e-02 -1.516801523248277883e-01 -5.893449942012764058e-03 8.359622896003357506e-02 6.840066907770110671e-02 8.806153176550181316e-02 -4.383966001091053194e-02 -2.115838906352073695e-02 8.282714204201915842e-03 7.660591278061745953e-03 2.891601950934240273e-02 4.071697061191572459e-02 3.492502994067972488e-02 2.586709740002932079e-01 2.865563324638895071e-01 1.079120103720401652e-01 1.820230963136235808e-02 8.952305867186774457e-04 -7.648436864515728746e-03 -3.014867686494055593e-02 -1.281229028175678575e-01 -8.357465777692676956e-02 6.766497203484606038e-02 1.192534415634821515e-01 1.416038129842240589e-01 3.328175209457553962e-01 4.440776094171554611e-01 2.350980701240153181e-01 2.047273229847505205e-01 -6.274797321988972998e-02 1.321115773252853620e-01 2.209375080169531103e-01 1.288317602888089386e-01 -2.388664509299112410e-03 -1.552610279613807730e-02 3.106707145764243776e-03 2.942305378675921443e-02 2.755545739502257563e-02 -9.405532350668736885e-02 -7.605612230711697452e-02 8.334803702080437193e-02 3.704546189692810576e-01 3.047667325844055086e-01 8.437256608271907765e-02 1.933686169484800585e-02 8.399522917468840028e-03 6.247572378340388380e-03 -3.679357191777159544e-03 -1.110067725529641780e-01 -2.220538233811807788e-02 8.787672648603901682e-02 -4.347186909198570703e-02 -1.843328618366962129e-02 1.736905674440979847e-02 2.815223341308957239e-01 5.545420544610919489e-01 5.180041612776848936e-01 4.073141214642168051e-01 2.742808881754049688e-01 1.489407677447773803e-01 -3.303886106866445183e-02 -6.007335858473040850e-03 -8.309192351819131087e-03 3.435553842761854965e-02 -2.181398890663990495e-02 -3.255425163393801946e-02 2.193754254363738249e-02 4.355208849802705978e-02 1.753851158148391765e-01 3.967250507705500362e-01 2.778068068410805558e-01 3.081268689719731876e-02 1.353417430454357563e-02 9.891726038511506475e-03 3.324786384776866333e-03 9.572070479075621419e-03 -6.457748894854010990e-02 6.509226934345996307e-02 1.090434873246437786e-01 4.869136304467949587e-03 3.739514303482745911e-02 -1.212626134756529354e-02 -6.935088997454377790e-02 -1.021917257083094915e-01 2.681598036865912027e-02 5.505687044867790814e-02 1.619578088927779713e-01 1.427385789465875077e-01 3.682593821604571160e-02 7.861121520328885615e-02 6.674596507223955200e-02 5.699576458650947725e-02 1.534529987873386181e-01 -5.866551068174798964e-05 5.675777521111716878e-02 5.517550208789469973e-02 9.094446081759553768e-02 3.723650407294913367e-01 2.276289512760279743e-01 2.365481805318575201e-02 6.301317860502178049e-03 6.157578142306757880e-03 8.381257719478894461e-03 2.444573238312616054e-02 1.130528121728761534e-02 1.270999342901202311e-01 1.578045260179338216e-01 4.278292623038687514e-02 5.391874331316270225e-02 7.760655822379908253e-02 6.294095838671238952e-02 8.653643559272147789e-02 3.596923205037416693e-02 9.294958778060220805e-02 9.516282245677880336e-02 1.823139202875075637e-01 1.356303128410570047e-01 9.493532073948510175e-02 3.893996484833153748e-02 6.236522720814766801e-02 5.074034189581601295e-02 4.931546055084957275e-02 9.911677873645358128e-02 5.358249595427110046e-02 2.218541853912424644e-01 3.914236343831362652e-01 1.388033663940421714e-01 2.775125877109992090e-02 1.441936046531537736e-03 2.242242175220044396e-03 8.971057259622611550e-04 -2.262476322229500791e-02 3.639983404113362325e-02 7.995517786599115606e-02 9.533845473225908973e-02 -2.944563598117827530e-02 -4.358335531900837945e-02 -7.582155395297156264e-02 2.911644066036985987e-02 2.254613753881965638e-02 1.062089002010570687e-01 4.467361923617971936e-02 3.514544592261295564e-02 5.022391871579250100e-02 1.067902949609689511e-01 6.098805742371175148e-02 6.857723918765974702e-02 5.252642186182891054e-02 3.083013724659787805e-02 6.351265891782077039e-03 -3.211831086759518901e-03 9.034667347538351267e-02 2.028857640877393120e-01 2.502901636189869272e-01 7.488158289834416503e-02 2.222392396173388657e-02 2.420719139416297946e-03 2.891447796899375812e-04 7.488859857849603473e-03 -1.385242382203631488e-02 4.973629651952220752e-03 4.739359857324929731e-02 7.977677122969646650e-02 5.673430817711783841e-02 3.122954033024985879e-02 1.489376857372371188e-01 -6.793826244557574917e-03 -5.700231698714359335e-02 -8.680354231825750111e-02 -2.728956481764267458e-02 -1.579554466390772557e-02 1.234875379334408885e-02 -2.771664157874373716e-02 2.531403714948454731e-02 3.382745052366817329e-02 -5.014009374033588651e-02 -2.258888184748410535e-02 8.443510991013086775e-02 1.861323913789188558e-02 4.816698112429827067e-02 3.651153839508223392e-02 8.611272553291651755e-02 3.253277925123185255e-02 1.199010231728795794e-03 8.415426238901245947e-04 6.042769250302568521e-03 9.679894833272679674e-03 5.690752733544830223e-03 -7.348730251063916551e-03 -2.049939776630796753e-02 -8.648114618688046429e-02 3.745568762216466060e-03 5.519596123712293412e-02 -9.011322442486900675e-02 -2.332791802315391239e-02 -5.599638748790173454e-02 -5.725173552660379334e-02 -8.451532288830437833e-02 -8.792143934485549539e-02 -7.635105902941116685e-02 1.573976567461857559e-02 -2.907045818206883611e-02 -8.326493406779333917e-02 3.720334412903140292e-02 2.787708608805403859e-02 -2.902893409821772491e-02 2.883672303996116446e-02 6.107706052818367981e-02 4.240187326530001771e-02 2.119613243396357635e-02 3.937913982430659744e-03 1.184932548067599420e-03 9.791204792825082895e-03 8.807872536656449758e-03 9.186833856867606535e-03 7.906849886959017165e-03 1.616044578684704396e-03 1.353272496272218614e-02 -1.608836461976823756e-02 -5.249839983987183989e-02 -1.019979400117417417e-01 -2.113411780523266614e-02 -1.017763637099465407e-01 -2.432322513415338672e-02 2.719204435693363051e-02 7.696319418471613341e-03 -2.643381650531192919e-03 1.499516982460856636e-02 -3.778179817020783232e-02 1.011632392176243719e-02 -1.426659849586711532e-05 2.292488106392178565e-02 -4.803568532377879008e-03 -8.254019896937014877e-02 -1.434368704001705019e-01 -8.469130077117494049e-02 -4.304218065065159443e-02 1.767230261425457166e-02 2.455262131762682085e-02 1.159021803752729660e-02 7.122320411039376707e-03 9.416705517311770718e-03 8.291836076028335015e-03 6.793349456617575957e-03 -1.701807484919312012e-03 2.459921161432283496e-02 -4.265546751710874718e-02 -2.885805893051843554e-02 -1.381264094555443613e-02 -8.751411052739818328e-03 -1.935713048872532080e-02 -1.590798271472399772e-01 -1.428353404493684364e-01 -1.538039083211982239e-01 -1.228440464241926378e-01 -1.362670451966772611e-01 -8.769717520051151238e-02 -1.180806474054789945e-01 -1.179800447384310308e-01 -1.789086353716032585e-01 -1.728364177484447428e-01 -2.171603882485760584e-01 -1.487939082549567249e-01 -1.210069894403972973e-01 -3.933275615537890763e-02 2.016206159182010009e-03 1.149286467747528614e-02 9.243725633896441793e-03 3.242202992762044031e-03 5.063985408171077680e-03 1.460132946139426624e-03 6.022879247607668823e-03 7.192666639043891925e-03 -1.233746100873750820e-02 7.868924352753969712e-04 -2.148440374210522363e-02 2.101305703160382538e-02 3.354483675058466535e-02 4.062843090065604984e-02 5.772370176207042985e-02 7.557327764628563038e-02 6.721831543743060633e-02 1.694027798010694363e-01 4.941059148919112187e-02 6.153083380127333246e-02 5.474302656489426350e-02 2.595989465706342869e-02 -4.223439799332764921e-02 -1.189052864815879906e-01 -1.028995645882103543e-01 2.818479767675995812e-02 1.537996771463509896e-02 8.465390488965773841e-03 8.318985805346377355e-03 3.705888654488378921e-03 9.792968604425071610e-03 1.009178622573537326e-03 3.599795588298514322e-03 5.553182468751432892e-03 7.132911107029089176e-03 2.138993506976176809e-03 6.281720070618423621e-03 1.801752130020089354e-02 2.396166958993178886e-02 8.206881755893737432e-03 3.021503044860697484e-02 5.014095514382368307e-02 6.193348442951102095e-02 2.513294254107916598e-02 2.547796151398363379e-02 6.145157749007020692e-02 3.265195768903812051e-02 5.182742878033487488e-02 6.059470315025812515e-02 4.539570614971449869e-02 2.869660979433539053e-02 -8.273011316976211157e-03 -1.603292109592431916e-02 2.266903783048362236e-02 2.011523450514947006e-02 8.925006541014418246e-03 2.810823692286847260e-03 3.990771703059062953e-03 3.904018646578800468e-03 2.094645957841242967e-03 -2.725476210197957383e-01
