-5.824392361116917383e-02 -3.677895434648014716e-01 -2.900456618926681995e-02 -2.095275777906251413e-01 -2.556176180030222955e-01 1.164685414165937127e-01 -3.343672413104507579e-01 1.811137817167989689e-02 -6.059335899832982153e-02 -3.607344075602799127e-01 -1.715470463902480369e-01 -1.526788702597330072e-01 -3.081216780078964712e-01 -2.226246310440470888e-01 -2.887907383400525885e-01 1.726512285812883268e-02 -3.997215956668109249e-01 4.752526844304264669e-02 1.963889147895948040e-01 -6.786054362224368253e-02 -2.626425334139819712e-01 -7.908437864168074705e-02 1.159279943659313923e-02 -1.788222833804740119e-01 -1.592782536996135145e-01 5.041152696299339847e-02 4.015114789154721198e-01 -2.237886563840993381e-01 2.375039929135246142e-01 -2.463397673683672684e-01 1.035532528783141282e-01 -9.063136587072675998e-02 -2.540673416843812205e-01 -2.415593747896319921e-01 -5.446160695882643066e-02 -6.802180269830862547e-02 -8.485593056021965841e-02 -1.740812540170530442e-01 -2.650160354746031732e-01 3.577870091683337667e-02 -1.759540271553470536e-01 -3.092129180547333739e-02 -4.326767602554842940e-01 6.719550362183100700e-02 -1.734005681437562618e-01 -2.452788377892769697e-02 2.924524307490397046e-01 1.209370603713833025e-03 -2.894412251666564906e-01 -4.833832627278761840e-01 -2.772871112638121693e-01 -4.785923477941656512e-01 -1.908923784141594859e-01 -2.415528226929882782e-01 -1.160645967238089216e-01 3.496894382833089926e-02 -3.468164592306012262e-01 2.595989279137771860e-03 -3.052016595441897073e-01 2.102965459580955973e-02 -1.505416998064507406e-01 -3.252744257460690180e-01 -5.455064508833369352e-01 -2.406751207281127569e-01 2.128286372536808413e-01 -2.213864103989987009e-01 -3.641212424119996682e-01 1.281846032577889649e-01 -2.129723082429733627e-01 -2.281349605747991782e-01 1.124370293615833613e-02 9.986186772666233447e-02 1.352352681517569044e-01 -2.232921213889862977e-01 -3.229698042380663853e-02 -4.668258710555042712e-01 -3.726881539352202687e-03 -4.579811897177649693e-01 -5.316942973740580725e-02 -2.490690008864177574e-01 -2.287822208155253501e-01 -4.603938355012502925e-01 -2.937734019494275817e-02 2.233749135300024113e-01 -1.672714340642625364e-01 -5.426912797882965656e-01 -3.493641099381986082e-01 1.363510412719984820e-02 -1.284033338239045918e-01 -4.445577098947954275e-01 -5.183364803079655303e-01 -2.548309232109828848e-01 -1.136646511368484408e-01 2.192726465162099236e-01 1.783032182936734322e-01 -6.454416211625792210e-02 -1.565673107744686432e-01 -1.094399201594556809e-01 -3.634754653009587555e-01 -1.379534720612874202e-02 -6.787399990644676050e-03 -1.018808301786529452e-01 -4.088314000458367348e-01 -1.015972389035186829e-01 -2.445629797584210618e-01 2.386797367028997141e-01 -2.233672523881864991e-01 2.955099397902731170e-02 -4.325855385762792382e-01 -2.382211302135465170e-01 -4.059477332604399247e-01 -3.014332102833909288e-01 -2.704981687340372032e-01 3.586242344247452807e-01 -2.525886744562511610e-01 3.415075209736901929e-01 -4.183129813723479584e-01 -2.796723536686130940e-01 -2.571436811716815152e-01 -1.069568306331480229e-01 5.155098790993502961e-02 -4.098871829030823477e-01 -2.738070885209014510e-02 -1.698712907005975326e-01 -6.046629565065670953e-01 1.692424202823983870e-01 2.749625314420895555e-02 -8.243621382081126048e-02 -5.887513615420357782e-01
-1.529429431973149400e-01 -6.977793659993440645e-02 -4.829287363617111584e-02 1.068138843159249646e-01 -3.066912827534936103e-01 -2.673364141164865093e-01 -1.042328044712394208e-01 -5.293161192031885509e-01 -3.299665230408721506e-01 -1.535825721655836029e-01 -1.441702371545257599e-01 -1.412390115458663220e-01 -1.011265089208778362e-01 -1.087942416017732422e-01 -5.922708994042170938e-02 -2.316719036946782717e-01 -2.528621054028956650e-01 -1.332474790211772842e-01 -6.749134415285402977e-02 -2.674517451400634238e-01 7.608163902814214785e-02 -1.866850890863002710e-01 -8.573662881828640614e-02 -1.964692399385117583e-01 1.706849461622123032e-01 -3.610689296669434833e-01 -8.280910679150660370e-01 -4.977048977718934730e-01 -6.912122113060605033e-02 -7.309723983004905168e-02 -5.378239896113771179e-01 -2.418955027936381674e-01 -2.100632600697334776e-02 -5.433125448635972576e-01 -1.009307961224159972e-01 -3.512642889085081377e-01 -4.099327729533787656e-01 -2.312642758180792277e-02 -1.825808052264072945e-01 -2.022744313024811003e-01 -2.794910583401979398e-01 -4.212001085544044010e-02 8.660168360773618651e-03 -1.989226936454223382e-01 -2.062424221780770339e-01 -2.107091142364141134e-01 1.114305485480883845e-01 -4.632866278776249236e-01 -8.450869548286051025e-02 -1.077919627240587486e-01 6.134978849753408570e-02 -2.838162158922483136e-01 -1.942277038777067560e-02 -1.434980674027062919e-01 3.339146815273183466e-01 8.744135166996833131e-03 1.554580525653058952e-02 -2.913162103268450709e-01 -3.777908903095051341e-01 -2.794355221833259018e-01 -1.922881606421393552e-01 -2.104475837740096278e-01 1.372349116687756609e-01 7.416770668198377492e-02 -1.846825440771944493e-02 -2.293560037945872043e-01 -2.440219909069871462e-01 -3.710654557076661364e-01 9.695373426686057505e-02 -2.318604318359506200e-01 -3.737011370489020101e-01 -4.073922323020833236e-01 8.853374035034142220e-02 -3.306283636494150024e-01 -9.943425890378032594e-02 2.636339206087465747e-01 -3.070724715047087328e-01 -3.631957986638728597e-01 -3.353778378928812809e-01 -5.248586833291457587e-01 2.326996712316473370e-01 -2.613476933853606243e-01 -4.088643613692360956e-01 -5.568627525007772139e-01 -8.413636389660727674e-03 6.001238238014296742e-04 3.642678686732263027e-01 -3.178271185460808668e-01 -6.523634429463327500e-01 -2.678473267014267467e-01 -9.218388194555627788e-03 -1.725457268833258673e-01 -1.728655497887721937e-01 9.950989603624435520e-02 -1.105352976450055535e-01 -5.832762298508964438e-01 2.953324308229282602e-02 -5.965437913233703204e-01 -3.317600885695661805e-01 9.542904063275853277e-02 -6.588340373391769755e-02 -2.216570342117619163e-01 3.161086899374380144e-01 1.444336341709814842e-01 -2.390705960592675802e-02 -1.907401282865141545e-01 6.999133783014968579e-02 -7.629667688373852064e-02 -3.772014783915758618e-01 6.728643015087902579e-02 3.848388170785265600e-02 1.931752298710041338e-01 -9.987865705213919143e-02 -2.915324169805220134e-01 -2.621916093032859441e-01 -7.463431568785992010e-01 -5.893028349774813955e-03 -8.367322790960889101e-02 -4.266004792039021498e-01 -3.101512633950676556e-01 3.604042456677020861e-02 2.460048500303234076e-01 -7.394314910408266162e-01 -6.654139852583827730e-02 2.904646872191516960e-01 -6.135787696719852136e-02 -2.347541996574255552e-01 -7.686653262739158443e-02 -1.816524748708175582e-02
-5.490181960251653281e-01 1.414408302815967078e-01 -2.331852376957073425e-02 -7.311146762559307399e-01 3.041388123520809561e-01 -1.757781924555838482e-01 2.574916307967027862e-01 -1.208223586280002607e-02 -2.079827066831141102e-01 1.839168091236888236e-01 -2.026280452236884910e-01 4.771333124615748707e-04 -3.938793017695374488e-01 -9.972225000974960230e-02 -5.011089947362686869e-01 -1.570781742660116997e-01 -4.478427260662550813e-01 3.241567301525314360e-01 -6.615040264969977712e-02 -9.594144082465637380e-02 2.609387490625569295e-01 -1.756315559300766771e-01 -3.206205760950458505e-01 -2.833851322233770231e-01 -2.808155150131480537e-01 -1.848662197600087209e-01 -1.098251891133159436e-01 -1.903805406814353118e-01 -1.768647911001588469e-01 -5.894495346087179621e-01 -1.206273735299582400e-02 -3.200533031955579699e-01 5.423675279523918619e-02 9.466922830758334184e-02 2.143253172872804438e-02 -2.199415276160853194e-01 -6.112346560461628941e-01 4.256190340599088837e-03 2.230268927118187194e-01 -4.443414810407372156e-02 3.380962918883457791e-01 -8.312695445143489237e-02 -8.323127301462174277e-02 3.544231102973918190e-01 8.333528601799952695e-02 6.020652728402611786e-02 -2.863086183418925290e-01 -4.137007679818112682e-01 -6.627006959250429652e-02 -8.915281293292258435e-02 3.622443454865501566e-01 -2.157388374251032748e-01 4.349380947799840746e-01 -1.064786477907385953e-01 8.248017481330523204e-02 5.363320963198994762e-02 -2.664467615147427804e-01 8.553451248284991981e-02 8.847843273289413002e-02 4.638319964489492908e-01 5.575369590292429678e-03 5.135239782948847892e-02 7.013698778276769574e-02 -3.580474423447503884e-01 -2.644115820058948740e-01 -4.486197842956364257e-01 3.919462741303338382e-01 -1.306966427905251749e-01 2.621468362825552650e-02 9.427747516412302020e-02 -4.405658146713946621e-01 -2.180694011853547276e-01 3.460782419075524863e-01 -2.413651339958607644e-01 -4.863230727679186405e-01 -6.089036600858830361e-01 2.350534773559687929e-01 -3.026328268045862524e-01 -4.707529101279835787e-02 -1.851183918959144192e-01 -3.820404232515536846e-01 7.575547815158607812e-02 2.193374306549029096e-01 2.071687584815964100e-01 -3.190821368602597685e-01 -2.094626226843517014e-01 -3.182380779441561502e-01 -3.071252233777628238e-01 -9.830477191132752646e-02 -6.332440261975099682e-01 -8.289837634279792478e-02 -3.738530029278844813e-01 -2.926267565000623683e-01 -1.377686002853059088e-01 -3.362822985933078962e-02 -1.345929548525376940e-01 -1.230476206694452145e-02 -7.391747887857034183e-01 -2.732805926704074406e-01 1.511638540518996099e-01 -1.226851985952579493e-01 3.135635410422551450e-01 7.472741025724899400e-02 -1.382953992932748344e-01 1.267139762496148070e-01 -1.361131970111494061e-01 4.232153229298874497e-01 -2.215093611249546734e-01 -2.012501884587326872e-01 -3.543326787409717959e-01 -4.528506245636227528e-02 -2.124374457938381713e-03 2.078834593755489110e-02 -4.157954445189064874e-01 -3.621422161781289173e-01 5.371726982478187973e-02 -9.451472869449119296e-02 -4.189118862254596620e-01 2.431524756864536785e-01 -2.126491911053862982e-01 4.171280769130961130e-01 1.019838585358079086e-01 -1.128752466227326695e-01 -3.111966856031835871e-01 6.064527418233357781e-02 -3.511429465606981659e-01 -5.921376097553416457e-02 -2.726622917679294988e-01 -5.105754743207393531e-01
-1.174441569174367456e-01 -1.377745508511894756e-01 6.228403517393975991e-02 -3.877156701086898472e-01 -2.652234497977867811e-01 -1.044361900520908160e-01 -2.235715532491131252e-01 -2.251939207565420153e-01 -2.212355362818920965e-02 -4.560314732777538960e-01 -1.667602328706167258e-01 -3.251599227977572393e-01 -8.911116051462855681e-02 2.268456529706621427e-01 -2.092347285960972636e-01 -4.199833620621598040e-01 9.399422979728589214e-03 -1.417456224194848791e-01 -1.791471469481784040e-01 -2.465438849563569290e-01 -3.394306325945617431e-02 2.145153667843141265e-01 -2.275532974954214416e-01 -2.664052155921539655e-01 -1.043866527721203953e-02 -3.098032049989772885e-01 -8.521182194835319468e-02 -1.068865488831182153e-01 -9.473810567226246052e-03 -2.611359992894923820e-01 -3.206788851772541249e-01 1.808641367307445569e-01 1.430072255578527241e-01 -1.363157290380350439e-01 1.206958464378523888e-01 -1.627027055501356068e-01 -3.736856131351320304e-02 -1.511821658199347385e-01 1.449445905516947956e-02 -4.412516055227867495e-01 -3.546642149138471423e-01 -1.723615259212688822e-01 1.645009477353573946e-01 1.847861958130151416e-01 1.470745575836767127e-01 -1.698604390084430815e-01 -4.224534400398836237e-02 -8.609184371412609282e-02 -4.998057658371469342e-02 -1.823654029516598996e-01 -1.717090906993039290e-01 3.381046610696670784e-01 -2.552856278973906212e-01 -2.498086269407177040e-01 -1.822519729415828654e-02 -2.419285251918351087e-01 3.738189655634767683e-01 1.286044937332124771e-01 3.603188268499656899e-01 -1.305832432797563170e-01 1.638573849810628091e-01 3.005122051083456425e-01 -4.901943647935826931e-01 -2.801095378952608503e-02 1.404397851399012409e-01 -3.048625446151522270e-02 4.198633251908993891e-02 1.075832215980523227e-02 -3.133618817584570837e-01 -1.402112810349085692e-01 -3.650773731472266581e-01 -7.022523200878549865e-02 2.522849479267714329e-02 -2.217830272491209398e-01 -1.991301336196646121e-01 -1.203303793010635919e-01 -8.696003441483161067e-01 5.139758948883442757e-01 -3.242197482634213146e-01 -1.357719789126206889e-01 -3.042517206806427676e-01 1.619820851445591403e-01 -9.831515495336778931e-02 -3.096001924660116145e-01 3.506042229740941041e-01 -4.052713098550184689e-01 -2.517140356047211092e-01 -1.870482263912951193e-01 9.622974988754073866e-02 -1.021724050786050747e-01 1.555055416328592621e-01 -3.269214798532624200e-01 -2.159466114161987527e-01 -4.652172749506105487e-01 8.673689925507020726e-02 -1.486014213760949720e-01 -2.073897381901791681e-01 1.787989778277662423e-01 -4.915509345820211484e-01 1.353274091523099798e-01 -1.479911751182820256e-01 -4.234317114564638551e-01 1.587340637925725370e-02 8.990456003348382130e-02 -2.033128280887306627e-01 -4.209342518293558710e-02 3.256477433479204597e-01 -3.460255664023227928e-01 -2.562250541394213155e-01 5.572065496274002383e-01 1.075993925838719112e-01 -5.615962563607398428e-01 2.751325898591702734e-01 -1.998740491138330799e-01 1.211313089241143476e-01 -2.166398626221463231e-01 -1.062821247234429084e-01 4.626119940790606178e-01 2.397101252362308227e-02 -3.994761752638094632e-01 -1.208388500979486052e-01 1.005820194679424295e-01 -3.399079453211560631e-02 -1.807598143045259231e-01 -2.563775360298113926e-01 -1.037053158862297347e-01 -2.626527873524085455e-01 -8.060257083987573679e-02 -8.958516071463562547e-01
2.203093586670791248e-01 -3.681354545903212094e-01 2.506899670375215550e-01 -2.806491347881313048e-01 3.542402422610898549e-01 1.676727032806922535e-02 -3.186125732887148398e-01 -2.899046045976827468e-01 -1.139588163330712139e-01 3.671475242574791242e-02 1.876516630249005502e-01 -3.172139159041464929e-01 1.045679471025378060e-01 -3.701318141129706918e-01 -3.182303426899541487e-01 2.700111975824426302e-01 -1.546385831044679027e-01 -5.326452390400676640e-01 -2.373597377666809005e-01 -3.575988599897674675e-02 -3.068231204277648005e-02 -3.921682742951608340e-03 -2.926837613949359040e-01 2.202651028649151577e-01 2.051081681017952185e-02 -2.869372336290225700e-01 -2.482674673312844082e-01 -3.269508962685074849e-02 -4.780413150823789592e-01 -2.355542653738889047e-01 -3.221933935472513777e-02 -2.188505692223808308e-01 -5.285318737456712324e-01 -3.938616272503763782e-01 -6.410890355936378349e-01 1.323002789667940271e-02 3.344447106481349130e-01 -3.874494417915652078e-01 -1.703301764628552539e-01 -1.061602363450796643e-01 -3.311065367141680094e-02 -7.980876009223460132e-03 -8.195836452472339551e-02 -7.815788546421016392e-01 -9.417213320780296049e-02 2.285841266886083634e-02 -5.957759847758951899e-02 -2.099611368660224964e-01 1.096007386860967450e-02 -6.074482826166002075e-02 -5.610992031770446059e-02 3.165082405346451022e-01 -1.111023978653209038e-01 -4.938925090032695864e-01 -6.384423023724372648e-01 -7.191184609121117899e-02 -2.541584646584775509e-02 1.123874515307450445e-01 -3.924325167151360150e-01 9.857717799260330704e-02 -2.500598418796969868e-01 -4.450867769995736634e-01 3.544064026720589872e-02 -4.443135957957628640e-02 -4.188693302136158869e-01 1.154881699855513089e-01 -3.282898234036232821e-01 -2.858455920226954383e-01 -1.558979640609186312e-01 -3.706309980966124296e-01 -4.873624350305438280e-01 3.319705295788400456e-01 -1.605666994326226671e-01 -1.724315606684175273e-01 -2.054945836453678509e-01 -5.657643698845760127e-02 9.932723352765800151e-02 -1.693024277746335848e-01 -1.440722728470322789e-01 9.441372442665889320e-02 1.939848883317602966e-03 2.804585623632020464e-01 -2.670135186244499415e-01 -1.507314824218161375e-01 -3.926808699394297997e-01 -1.468539717333445238e-01 -3.331297249268511118e-01 -3.388529710227863312e-01 -8.171767498316244091e-03 8.806872855017401636e-02 -2.790680788653757682e-01 7.185227425772258703e-02 -1.632406927916892347e-01 1.719848226645916134e-01 -4.843187257468006823e-01 1.973596739162485625e-01 -2.502644155895045186e-01 2.268769930020617109e-02 -9.277689641705424983e-02 -1.482218874339062964e-01 -2.912866093571932491e-01 8.559860287388297573e-02 1.244717577846708584e-01 3.282297937755430245e-02 1.576592068815137193e-02 -5.334853357776666583e-01 -3.628839582945258546e-01 -1.825733805175304147e-01 -4.578984147347340827e-01 -3.246887319854107057e-01 -2.899282421851517300e-01 1.351797795875978869e-01 -2.103953468522213599e-01 5.725294162350184901e-02 -1.187254945602815304e-01 -7.361861117246219777e-02 -4.541375235723225934e-02 -2.752391780341977845e-01 -1.512634534522380447e-01 9.104669398653854329e-02 -3.675953350259910657e-01 -3.015765183303004693e-01 -1.218783081063841284e-01 -3.381616489666516290e-01 1.274338380968594725e-02 -4.979655817593977019e-01 1.270318434905115708e-02 -3.490744625100480336e-01 -1.993585092230859279e-01
2.318664233309757905e-01 1.958987541259178955e-01 1.669675602690427474e-01 2.749689065229020679e-01 -6.714662824774908501e-01 1.481351981413608077e-01 4.815699615100209330e-02 2.272543301867346877e-01 1.991788678782484279e-01 1.416220325282763204e-01 1.111929257953315174e-02 -8.002354556228358229e-02 2.675227032500696392e-02 -4.115598989563812315e-02 -1.038346018506388635e-01 1.773159653086388565e-01 -1.274116454486338458e-02 3.882500612222254399e-01 -4.611091119998686483e-01 -1.092392943019602353e-02 -3.720594489211189737e-01 -4.300265786408538626e-02 -3.241353379168201432e-01 -3.787917706279533281e-01 -5.396452262468172112e-01 5.184729491829669079e-02 -5.237499381862759096e-01 1.327450298447244159e-01 -1.194278045766482277e-01 1.144789345496441957e-01 -3.712882905343325990e-02 -9.225001495673795446e-03 -6.773323066504716161e-02 -4.661349454733806352e-01 1.069536892709513631e-01 -8.731515364749060926e-02 3.850316994561197026e-01 1.139961947583362049e-02 -2.193399035725157042e-01 -4.403608907693273844e-01 2.892793006755279284e-01 -3.912600915297279047e-01 2.023219235498599500e-01 -3.497032707854230010e-02 -5.612528160513160502e-01 -2.335119474714241472e-01 -3.768126966394212407e-01 -4.553030412277869754e-02 -1.858411655723499478e-01 -1.921395255249254697e-01 -1.811585866549252077e-01 -1.595041558754170252e-01 5.500127518883476396e-01 -6.988127833261400523e-01 -2.705608272105504142e-01 -4.128290828604738172e-01 -2.173354531106379620e-02 -2.014161411719096739e-01 2.293773570210718149e-01 -6.731695111892235794e-02 1.866901216741578551e-01 -1.376340248698043889e-01 -7.568371559178599384e-02 3.676929467149508413e-01 -2.708203070321111294e-01 3.609565917314456196e-01 3.213188477285170985e-01 -1.713988572810766498e-01 1.008784700527835462e-02 -5.658530951028842848e-01 3.021055685777989178e-02 -2.989995796165031972e-01 -5.428372190694493726e-01 3.380059053548457870e-02 -4.476989254429375453e-01 -2.988183698299429758e-01 1.583775811548858714e-01 1.057441307581009349e-01 -9.704463376191151125e-02 -1.794561398037642641e-01 1.308362902947642903e-01 -5.499876933044579586e-01 1.779485185729836605e-01 -6.213574911986475824e-01 -3.750005586692593540e-01 2.884388701127889587e-01 -4.452182133291261446e-01 4.783390985709618654e-02 2.254281227656993736e-01 -4.167810365715939047e-02 -2.745079534128753163e-01 -1.190345495285627941e-01 6.285043286762882486e-01 -3.521593201881595969e-01 -1.180602981094518444e-01 -1.542534815135592208e-01 -2.748090697458668297e-01 2.689254198852114031e-01 -2.707793859376045886e-01 -2.750992650257477190e-01 -4.147980554877812587e-01 3.018888960785591213e-01 -2.812605291471768076e-01 2.614817095187368379e-01 -3.988653482212909385e-01 -2.913117319349407472e-02 -2.757354521011550208e-01 -7.687369739399681212e-02 -1.018639518467289451e-01 5.875582555829707287e-02 -2.215942711912433777e-02 1.025513522228552327e-01 3.213429336090768973e-01 -2.347746155299910986e-02 -1.234198597909753475e-01 -4.212166152318161383e-01 4.998620818719080039e-01 -5.253137685532043299e-01 7.145382788010541664e-02 -6.085016473843211093e-01 -3.505417147619031559e-01 1.236746211466457218e-01 4.961578647432045297e-02 3.374776265283933596e-01 -2.060625285184809474e-01 2.780091346231697291e-01 -3.642827630159360952e-01 -5.445403561248508550e-01 1.435128209234072874e-02
-2.081070314645229180e-01 -1.532312794929776290e-01 -7.581355214344109861e-01 -1.903182706057142959e-01 -6.501431371675155113e-02 -1.248249713231742719e-01 -1.810615138335622265e-01 -1.141722276166647898e-01 -2.006564391091476274e-01 -2.827208780057324233e-01 1.691654740358852493e-01 1.070919109582911255e-01 -3.348342395542129313e-01 3.039650885790793483e-02 1.924177224811799980e-01 9.696070110824675514e-02 -3.614620430541140017e-01 -3.532424721027274117e-01 2.210890246602150722e-01 1.315798770895631742e-01 -1.929065533830091883e-01 3.759456384402351525e-01 -5.872415607271153776e-02 2.968552215538632424e-02 -2.845673244930758128e-01 5.681830112766918239e-02 -3.796354268235815899e-01 2.795012686642517688e-02 6.873752690722312320e-02 -2.044903718562988693e-01 -1.737615564291432324e-01 -2.689292329048021957e-01 -4.097476661224248584e-01 -2.070433098032063712e-02 -2.523980469025305373e-01 -4.414061592963407499e-01 -9.768966873304593679e-02 -2.769879993523152173e-01 -3.090550470878610234e-01 1.072785122878451292e-01 2.493469995899230407e-01 2.262278863221008351e-01 1.746885416702636806e-01 -1.959333079573402359e-01 9.791745658944445152e-02 -2.561609741924129602e-01 -1.592754011219451316e-01 7.669659759950507583e-02 -4.518503379926421260e-01 -3.979072889352593956e-01 -3.602777983322266731e-02 -2.277067230331511483e-01 -5.256781719819872967e-01 2.174706989049946804e-01 1.526974172547027053e-01 -1.397067495670981929e-01 -2.558287583099621010e-01 -1.092924957743874326e-01 -3.786169492529430358e-01 -3.533784434707447630e-01 1.210518086207621469e-01 -1.474855353651557781e-02 -5.588176281329741008e-02 -5.880126129687377468e-01 -2.994845689313703208e-01 -5.000799998004125113e-01 5.650975392277987619e-02 -1.780353423580679495e-01 -1.406678019990546258e-01 2.951527531216517342e-01 -7.321824583441603751e-02 -1.908561028963417713e-02 -1.267555030995194676e-01 2.078925444264395350e-01 -5.937802613879664820e-02 9.126143393877811372e-02 -9.094424521693295072e-02 -2.021838509728292044e-01 1.850068993970462317e-01 -3.641266244285555342e-01 -3.267419525655582135e-01 -1.668999202056670184e-01 -4.973737179542089271e-01 -5.116329641011569951e-01 -2.416277854184930296e-01 1.122005617090252594e-01 -3.184015573387093401e-01 -4.370732466998346610e-01 2.102936283196994993e-01 -1.828503817580645618e-01 -2.997661691722160460e-01 -3.622627360104227479e-01 -3.119383234862830867e-01 -3.451203847333776942e-01 -1.238725153309140070e-01 -6.108431399665126271e-01 -1.525906680824211381e-01 -1.056113881812306178e-02 9.302184664984335105e-02 -1.478916128834055488e-01 -1.096485123559911151e-01 -8.704233528202595660e-02 -3.114864889151835459e-01 -5.588260981271111483e-01 3.899671400652734987e-02 -2.547794579710536689e-01 -2.224409793658960188e-01 3.956389017129769564e-02 6.591213485106518777e-02 -2.237931390824930145e-01 -1.848535662971953764e-01 5.331665092335137468e-02 -4.732589088268663313e-01 -1.334772593915934946e-01 -8.780132702676766987e-03 -1.556487636967810173e-01 -1.366152283674363088e-01 3.724999796872722341e-02 6.872292957893799984e-04 1.709548119648025000e-01 -3.528917408265294098e-01 -1.122835785855818072e-02 -1.581645336959434933e-01 9.242321413344813108e-02 1.733614243816476441e-01 -3.711784172311173857e-01 -8.996361131061948735e-02 7.693513200667935481e-02 -6.373558019978351474e-01
-3.854960252361101514e-01 -3.105374829641822931e-02 4.324213361206000888e-02 -2.168394187267138565e-03 2.655120348210368020e-01 -2.388207908017286607e-01 -8.208997030718277743e-02 -2.395901523511370923e-01 -2.890029437189106654e-01 -2.923558505761337245e-01 -3.560380948254717737e-01 -1.918311727273172562e-01 1.174903658179543842e-01 -1.871833029288214045e-01 -1.911495284043810972e-01 -3.108802071386006505e-01 -1.092494891233271592e-01 1.073462157729485472e-01 2.242400490946004077e-01 -6.015166262764771316e-02 -5.217636490113817249e-01 -4.605376078907301718e-01 2.281352661445418262e-01 -2.104899636409347449e-02 1.548458345031394623e-01 -3.732486774159244902e-01 2.585085563552888890e-02 1.150172805533886400e-01 -3.484456270885011864e-01 7.909152681674974650e-02 -2.203656508453800608e-02 7.228944661248859482e-02 -9.346952266868314985e-02 2.077442425233670120e-01 -4.492221894712487562e-01 3.033837716658198125e-01 5.375885179469238467e-03 -3.244221791806912170e-01 -1.513861949749612246e-01 -5.554893912938372313e-01 -2.874204169013406807e-01 1.074320974675713053e-01 -1.466889873312829107e-01 -1.955117216600881294e-02 -3.214431394780040696e-01 4.285701770084062723e-01 -3.871153743297746086e-01 -1.532764624408845533e-01 2.268772202759064549e-02 1.790779469596726903e-01 -3.148168259044778483e-01 1.160759372839745701e-01 -1.269333117582005788e-01 1.994797123866020871e-01 -2.578695955582081534e-01 -4.267204725280430710e-01 2.921603331601205777e-01 -2.165061506210677333e-01 -2.318560201868234694e-01 9.332381298424577420e-02 -4.974793576681104113e-01 7.308189796937354654e-02 -1.308975757838007348e-01 -1.253087619868636926e-01 7.328334482071680034e-02 2.495909521710100720e-01 -4.240451095567887574e-01 -1.719339920573442482e-01 -1.172700850342159734e-01 -4.412766874738773687e-02 1.107585259466437565e-02 -4.858386577210497825e-01 -1.047991754291918293e-01 -1.301796508269386088e-01 8.948348688308550847e-02 -1.233064432411269395e-01 -1.960053886945508639e-01 7.596720674197661449e-02 -1.335244309316096015e-02 3.949123567843475513e-01 -4.092445147641387421e-02 -1.174537022579430628e-01 -1.145134467373120080e-01 -2.281011222532105254e-01 2.842839607233120860e-02 2.000704723470722590e-02 -5.959826434610433765e-02 -2.928915951496787254e-02 -5.519222611869764039e-01 1.105750067290312971e-01 -1.819852676185841900e-01 -1.603369472692511011e-01 1.037006821099545478e-01 -4.501789961936616263e-02 -1.202577607348108701e-01 2.127199595309171576e-01 1.001345421228213850e-01 -2.723082144372571123e-01 1.847222261088170281e-01 -7.188619431548447514e-01 1.258921582756699353e-01 -3.031700885801300593e-01 -3.890546255818846388e-01 -2.938910756201474905e-01 -2.079744485672165299e-01 -3.676342549451300235e-01 -2.726965764285168570e-01 -3.472242598178313933e-01 2.923629119049505620e-01 -2.052517263080596427e-02 1.079927543854287686e-01 -1.873627359889309674e-01 -2.060692334489932498e-01 -4.434254294796929896e-01 -1.742023533300558202e-01 -3.480870365797567589e-01 -4.196572121891850027e-01 -2.365587919072110190e-01 -3.584459599123618889e-01 -2.998752142235381335e-01 1.248881721877124484e-01 -2.263525918735478648e-01 2.044535233407100694e-02 -5.231818047486327394e-01 -1.165304053600058204e-01 1.242311578930681421e-01 -4.632274667332456630e-01 -2.794702793917701600e-01 -2.491506820901419894e-01
-7.177429833860483888e-02 -5.656879142605142352e-02 -2.076539381335255896e-01 -1.077989853725986116e-02 -3.309864286134255873e-01 -3.244726148074224548e-01 -1.725506832389890888e-01 -6.574869962848547966e-02 1.250456989679007425e-01 2.097759564377232044e-01 -1.676035397496064283e-01 -2.212452016143726108e-01 -9.659546123447433630e-02 -2.443009122099133179e-01 1.273503084227577686e-01 -3.454372621668374554e-01 1.764828887157044723e-01 -3.830690724998827013e-01 -3.024740728238168308e-01 -3.399084011857576582e-01 -1.526400265526339228e-01 -4.359662207543135160e-01 -2.350295961087418006e-01 9.468161676087852308e-02 -1.567061369019922545e-01 2.050014551440695887e-01 2.349970887979145329e-01 -3.646734820355512774e-01 -5.925177840431373327e-02 -7.315121693777647260e-02 -8.487915096032283557e-02 -3.292983803215941974e-01 -1.172164521067857040e-01 4.012874496419104736e-02 -1.620794607263928433e-02 -2.861678762657149377e-01 -4.952711475463774105e-01 1.584219476505190904e-01 -2.324930339251320977e-01 1.170108563459172548e-03 -8.030658347862675017e-02 -3.621137538706756809e-01 -4.101222689155408774e-01 -1.276294302471868147e-01 3.626108313924051446e-02 -3.187874382691929798e-01 -8.985296918845628311e-02 2.894928236020294920e-01 5.184473000973085360e-02 2.252827663892303933e-02 -1.454667855792425857e-01 -1.735458230037129623e-01 2.590066483164970082e-02 7.376593976629161956e-03 -3.590003236771244777e-01 4.308415817071901965e-02 -1.292154726212132732e-01 -1.735836465449174526e-01 4.351880232616341104e-02 -3.500441056837180209e-01 -3.015674911558814397e-01 3.798573511435131972e-02 -1.071785697319104086e-01 1.869878647685751516e-01 -1.466754099541645318e-01 -1.040652346432088399e-01 1.341022479396400124e-01 1.285608618595681374e-01 -1.125240439808517373e-01 4.972186888827329759e-02 5.080098879983997034e-02 -1.987780917792275094e-03 -3.610155171774939165e-01 -1.484081997244083018e-01 -3.364322557225118276e-02 -9.241087119420827653e-03 -7.653979860399365287e-02 -1.804359923172972266e-02 -1.129172895536470662e-02 -3.750586031936072873e-01 -9.207036365462685501e-02 -1.699197004043252468e-01 7.219957091315014341e-02 2.363151914120284469e-02 -1.657830062621050982e-01 -1.283570909184327535e-01 2.355386869650220316e-01 6.387523108009306172e-02 -9.297608794380331221e-02 1.261911330596007796e-01 1.407843943285088384e-01 2.056953234347529691e-01 -4.113905700837054980e-01 -4.841371350743159385e-02 -1.474641755318458203e-01 -7.291858734456878322e-02 -2.183977696423197723e-01 -1.327753752118711050e-01 4.839689436162489949e-02 1.237267189680658075e-01 -2.482463627970966369e-01 -1.480261308924428476e-01 -6.085783072400220792e-04 3.930825893133384208e-02 -1.236364284383203171e-01 -3.337149443928238979e-02 -9.969862274825393167e-02 -2.265853281411143449e-01 1.014310893095740213e-01 -3.449759506111941265e-01 -2.003850523663062988e-01 -1.880094573424433702e-01 -9.012771827359185306e-02 -7.080333236921315665e-02 -9.260715218132480053e-02 3.796386384144383175e-02 6.963352522571573944e-02 1.194065936469575345e-01 -2.930134556915264255e-01 -1.028340935096684339e-01 -2.506416863590460453e-01 -2.892151832134752243e-01 -6.865008134027572595e-02 -5.316310272475875676e-02 -1.503333295556175397e-01 -1.801291419874059482e-02 2.312875669775524556e-01 2.452021195523671204e-01 -1.800794099059294773e+00
-2.460852330667045174e-01 -2.352702208323367294e-01 -3.682546130038369392e-01 1.503034855062007624e-01 3.313375079718504281e-03 -2.103674971104906588e-01 1.709691941332233955e-01 3.016058068835672512e-02 -3.088984384509718129e-01 -1.813850190155367748e-01 -2.673667248701341315e-01 1.854039209383749609e-01 -1.780537964253817163e-02 -9.472354611501587751e-03 -1.015472943932329564e-01 -2.258200888074922696e-01 1.588587644200902260e-01 -2.660740671368542198e-01 -6.186862632829278619e-01 -6.485776299282594581e-02 2.287095057320094882e-01 -3.154476584989502896e-01 -1.192297560505404114e-01 -3.737862800284281750e-01 -1.425288911979395723e-01 -1.553461088172361226e-01 -2.262915313627516523e-01 1.019340308366831760e-01 -3.140474727577315939e-01 1.695310965135460868e-01 -1.881465671270330930e-01 -1.304041902553269572e-01 1.816209907277768210e-01 1.433494485026229337e-01 -2.924915661520452112e-02 7.436219572443216949e-03 -2.868826940393450625e-02 -1.561702398475353359e-01 2.591907636952780480e-01 1.974827550062370485e-01 -6.056641570788809936e-01 -4.004384314574697123e-01 -1.723665322915188258e-01 -4.087313418955520472e-01 -2.272525388694944526e-01 -3.334629953231245114e-01 -3.282382125890434543e-01 -5.401287337531496258e-01 -1.342960502841911707e-01 2.070298154984966943e-01 -1.706729691933824566e-01 -2.538534134805366382e-01 -5.793860702463672352e-01 2.171422153153816995e-02 5.459771971776088834e-02 -1.829009541951168438e-01 -5.470756838000317979e-01 -4.130733124514563981e-01 1.048846598948190503e-02 -3.943604600188551079e-01 -4.275911528055190147e-02 -3.923667049832836318e-01 8.678797098784363229e-02 -2.385125550460877042e-01 -3.420144186510204465e-01 -1.811617416355690013e-01 -4.948943940699632171e-01 -2.890736469732920755e-01 -1.655348133253005949e-01 -2.259236338475551498e-01 3.607629940530106966e-02 -1.900127193503809153e-01 -2.949739533941577174e-01 -4.272508169972497744e-02 1.356260004353956883e-02 6.537606277929315646e-02 -1.602411885529472502e-01 -2.841135267183638180e-01 -4.399687233812288878e-01 3.579713545292482757e-01 -1.241773551800133685e-01 6.277621527854523875e-02 -4.644148576910656773e-02 4.054571107908317429e-01 1.265694012335272511e-01 -4.174380503512622326e-02 1.560073049159497738e-01 1.075796009960693772e-01 -6.315675770714054837e-02 1.402954647381718101e-01 1.613907924355549028e-01 1.540522417408786426e-01 1.653355920430630080e-02 -3.500477645797392956e-01 -3.937221100839267129e-01 1.393586282524476513e-02 -7.015856816857943268e-02 9.689983031140109171e-02 1.568759988087907731e-01 -3.657027970605731815e-01 6.636976387872847716e-02 -3.552890534452046722e-01 -1.563818787108331165e-01 -3.921886664551729740e-01 -1.869897646796591928e-01 -7.543267821841444232e-02 -2.331665200732143395e-01 -1.390667402431766675e-02 -1.974108431948367812e-02 -2.341862796772787025e-01 -1.137445723267424269e-01 -3.141982664990543572e-01 -1.728371226431435204e-01 -3.820041238213630064e-01 -1.429618920778888760e-02 -5.753049865760742621e-02 -2.993174498016827889e-01 -1.234592252862279083e-01 1.305879676774336917e-01 3.055814310178717186e-01 -1.973160072510541374e-01 -2.518525853070537890e-01 -1.331281530265241986e-01 -7.329813307131755051e-03 -1.295432769563407138e-01 -4.267354982530437435e-01 -2.171000390197384555e-01 -8.113589334630370853e-02 -7.597024586147166358e-01
