5.485021336301449008e-03 9.566215413797171316e-03 1.374060070246608742e-03 5.591445348074128123e-03 3.381098612069539933e-03 9.969004246714530809e-03 9.961771279116425626e-03 5.293056166995307316e-03 2.805555303516134476e-03 4.697521824846929116e-03 5.229700466467361586e-04 1.009346555684683538e-03 1.527783370668935655e-03 6.865202356673978483e-04 2.166372302139306805e-03 6.182641210590996902e-03 9.848783306134780563e-03 3.977029263025894448e-03 4.787515531279170830e-03 6.133802709060968625e-03 8.652633940055113465e-03 5.492159512948493506e-03 6.954255334958006976e-03 7.623351546769383674e-03 9.049482496129209949e-03 5.720392463167502974e-03 9.250028270450523504e-03 1.119415662267152917e-03 2.826280117872353830e-03 4.913695003747695772e-04 3.523267657696227406e-03 7.186517444005320263e-03 5.568962542976407110e-03 3.519371379884772815e-03 6.661908518587916772e-03 -5.482363411080395064e-03 1.026270547795757890e-03 2.319532340689642747e-03 8.009870035107828851e-04 7.079251258033512255e-04 -4.028505954523861794e-03 -7.311063514170940494e-05 1.398802656186871017e-02 1.185984858526743790e-02 -3.057389209336742152e-03 9.586046277143754971e-03 9.792979780089701436e-03 -2.934894295689708787e-03 7.761995217749930766e-03 1.120767704978283853e-02 4.902506296352905808e-03 -8.393124901120146291e-05 7.098997745697979180e-03 4.588823962228778981e-03 8.360379402662446169e-04 4.776784394477504546e-03 1.802737039847904926e-04 9.474579307024416641e-03 2.817275404427147315e-03 1.499033660414322931e-03 6.346786530588988638e-03 8.093936351004896515e-03 -1.645330049501959359e-03 -9.826126934580976108e-03 -1.040141623512426047e-02 -1.048442505080902226e-02 -5.412644387938136785e-03 -1.245259391576064058e-02 -9.743638230060580607e-03 -4.393354466461674331e-03 2.515959558558647155e-02 1.727770148491411181e-02 -3.062126919820893581e-03 2.962582562464523978e-02 3.862330470572575281e-02 2.178360857597098216e-02 9.501835596568881243e-03 -2.195375612490240227e-03 4.851738494745748247e-03 9.889138018883575701e-03 5.750059761404207118e-03 3.641667780379624544e-03 3.808158336964474408e-03 4.544179583250429477e-05 7.945850557841008591e-03 3.227335781785979282e-03 9.583904078051187769e-03 8.153831897699926820e-03 5.965252065600045242e-03 -9.398156230671422595e-06 -5.119773811342057980e-03 -2.301907553515652669e-02 -3.312501227090582784e-02 -4.266873850206406166e-02 -2.971715734275635901e-02 -3.166691962502386076e-02 -3.700228154761503463e-02 -6.724900422710912429e-02 -2.731071081695156041e-02 -4.373671191019547384e-03 -1.491811137324823393e-02 1.005886275175477780e-03 1.475398581130859220e-02 2.151840901948266077e-02 1.294002341028620273e-02 2.475019027983377251e-02 1.926549870968635725e-02 9.690164646926518240e-04 -6.268099968047855051e-04 3.267041455828429732e-03 2.905615924877987845e-03 8.475306091681591297e-03 7.401248762322988617e-03 1.222049545559385653e-03 7.231689175597454458e-03 3.981243711068354132e-03 9.447428411292351641e-03 3.423786823985296938e-03 -4.601925023457310512e-03 -4.144851881317908153e-03 -3.212474721698223984e-02 -3.635812374463274349e-02 -3.783328021127674995e-02 -6.298776323736473247e-03 -1.900037683456551330e-02 -1.747593287413307453e-02 1.518423369481887789e-02 4.667175178116833578e-02 2.292491403012265894e-02 2.193551542567071660e-02 1.021113181112532839e-02 2.441817335456712354e-02 1.410762148354020515e-02 5.822783001256071067e-02 6.496979761885893212e-02 4.935978502494168391e-02 3.556430920248184607e-02 1.873686406157653098e-02 1.932729186478993923e-03 5.202085209171794858e-03 6.458386317654886757e-03 5.450049771790076505e-03 4.994333653683734851e-03 2.653798939336626892e-03 6.739285777523676760e-03 1.620195641128090516e-02 3.617931797075462936e-03 -1.126291326137475067e-03 -9.320087200766276336e-03 3.902173900132705625e-02 4.123673240324463030e-03 3.762577578102420384e-02 3.651097786363107639e-02 1.621023657355205941e-03 5.513694689083019351e-02 6.339058686065057735e-02 6.626027757521159300e-02 8.944133210955804159e-02 7.119284112163751232e-02 6.929211165012190421e-02 5.892106101402778268e-02 5.180219482663436792e-02 6.783586676591951692e-02 9.477791278227445937e-02 6.020761005726265463e-02 1.610874689548865216e-02 1.274436248405487471e-02 5.024100220628897190e-03 9.971727852806059819e-03 5.612524066376219437e-04 -1.122883510764367950e-03 -1.029214709283024325e-03 -4.848304335507005319e-03 1.449044566487633738e-02 3.466828019022927254e-03 4.449118836271628158e-02 1.152903853883509820e-02 5.926745423302245226e-04 4.813817296555260132e-03 -3.214014613278524946e-02 -4.383215507247723020e-02 -5.256187292669095568e-02 -4.384410401755638870e-02 -6.882348823489076173e-02 -7.229420352870831457e-02 -1.871532765441317678e-02 -4.101142695444338730e-03 4.073235324473878372e-02 2.564025333645431060e-02 2.728607018767233855e-02 1.129749409473914251e-01 1.437791483874421850e-01 7.773914314508278967e-02 3.861973129744415006e-02 2.503891069183081936e-02 3.748677837880755835e-03 3.900877799165503382e-03 6.550702505450210593e-03 -2.467372505727636646e-03 -1.241116520750320737e-02 -5.692493751285524319e-04 1.492460165017880751e-02 1.252602436031832397e-02 1.708817136635145881e-02 -1.162922181048615250e-02 -1.584039911355297758e-02 -2.192924345563261254e-02 -4.359579430285054347e-02 -4.533758125178428272e-02 -5.299891114875389386e-02 -5.998981692205293537e-02 -4.248697809367776856e-02 -4.583179012978270961e-02 -3.211786857975645199e-02 -2.219369160086057807e-02 3.965902871935962984e-03 4.789951720910555488e-02 2.937668081808932422e-02 2.952981647112944141e-02 1.115217982234170818e-01 1.011042892246145491e-01 6.524348075633298882e-02 1.511437920757808043e-02 1.137700753622593666e-02 9.604812853465378997e-03 1.556331101055239904e-03 -4.941612311926254966e-04 -4.523626759481117962e-03 -3.266485793877203087e-02 -2.295826020680744733e-02 3.770583157405061475e-02 -1.934505388024842371e-02 -4.648745168347925838e-02 -2.746730345528733408e-03 -3.892219555508924511e-02 -1.990772481002631156e-02 -3.733669560363345880e-02 -4.394168838846770203e-02 -5.043171038679586382e-02 -4.521743898362429182e-02 -1.759234153330111947e-02 3.564634893015380512e-03 4.213887998739873630e-02 3.217785606137472249e-02 2.890150075812503161e-02 3.488179023390079042e-02 1.391115664653679029e-02 8.589241101831296410e-02 1.451334363218431955e-01 9.648675665574182880e-02 2.130622145843688586e-02 5.082023406002496996e-03 9.687808645500650337e-03 3.456865185885274125e-03 -2.745821096405049160e-03 -1.444036970551920013e-02 -1.502412812695822115e-02 -2.626982117995958418e-02 -1.056324069223378960e-03 -3.808803914872255225e-02 -2.254052016074550510e-02 -3.170053403109167334e-02 -2.420446489038495866e-02 -1.234343776561072636e-02 -4.339196555404377376e-02 -1.304152120094189543e-02 -9.813817656996134953e-02 -5.741280385635326444e-02 1.890396365966437800e-02 4.963739442021656255e-03 1.674342113753451988e-02 2.145683991283322753e-02 2.511432341590192491e-02 4.521145637224679992e-02 5.931156313250395690e-02 9.838822122851383079e-02 1.666467955488824260e-01 1.096010378276128516e-01 1.983233926773473460e-02 4.143516095520573088e-03 7.509829447642093299e-04 7.460088242882690658e-03 -1.376875054081927972e-02 -2.095894504721344462e-02 1.327625420670825070e-02 -4.038941324020794976e-02 -7.419338492343462155e-02 -1.621814330570264459e-02 -2.528862668874076042e-02 -2.609406784847796874e-03 -2.470151102184555900e-02 5.680190390696825478e-03 4.095172743255282022e-02 -3.146192906108667697e-02 -9.309066564989969261e-02 2.094681695750394076e-02 -2.643647239992274328e-02 -4.532597180799139563e-02 -5.362504385685405023e-02 -3.137341439868157611e-02 -5.177430789817608070e-02 -8.594617289554420947e-03 1.376939119223527346e-02 3.277810257881475647e-02 9.130038849810087620e-02 7.557267685746109354e-02 2.988270144550398896e-02 1.221728517812079376e-02 4.028024193534384539e-03 3.813250169936277956e-03 -1.568963447604366374e-02 -1.430671583537035212e-02 1.158127700805644880e-02 -6.371349051837835349e-03 2.170319800494682760e-02 4.246974139017124089e-02 5.113800937684964687e-02 4.092960795233720889e-02 7.809371650990130920e-02 8.126204922858921986e-02 9.636333279747789915e-02 2.307986374569305152e-02 9.240175223335863469e-03 3.769914182815601450e-02 6.341972706155187683e-03 7.373931676466670242e-03 -4.555828238282749049e-02 -7.621025158027334989e-02 -1.199849693234428666e-01 -1.178650711879763585e-01 -9.692364782558629543e-02 -6.788723161115481353e-02 -3.638011870553530674e-02 2.843521760125740719e-02 2.146988229499330325e-02 7.636928013564891690e-03 4.153680714987105851e-03 -5.861183719514026329e-03 -1.030042334838391499e-02 6.031490234666655494e-03 1.502796184368422952e-02 7.483730612122546644e-02 1.414435493227490237e-01 1.534115953065165461e-01 1.575822469605352161e-01 1.520815710178942959e-01 1.833082926599031715e-01 1.427196434340295972e-01 1.666014004707509211e-01 9.528717235207720404e-02 6.561415063504702494e-02 4.808500682208459442e-02 3.465745927302986418e-02 -2.057094222372595621e-02 2.284322348382221597e-03 -1.318329683443978349e-02 -1.949293414096508678e-02 -7.525840613609151297e-02 -7.795534967373463076e-02 -7.720541549560359929e-02 -7.257290204689688384e-02 -2.355908680760984784e-03 6.657427831162450113e-03 3.387805344539023857e-03 2.857772826385935119e-03 8.303467004125725942e-04 -6.438897016501904727e-03 1.202592674016001589e-02 4.375533987957404974e-02 1.366763311848327445e-01 1.507299171333213450e-01 1.478193125231108962e-01 1.458886027874239100e-01 7.387538208345201252e-02 2.470393529183743941e-02 6.311952599731776581e-02 6.644897631889476464e-02 3.747001714271464001e-02 1.011414113213026343e-02 4.597703390741630231e-02 6.946771190326545995e-04 2.416873861171800822e-02 8.059844525480698921e-03 5.268646666777979104e-02 6.495502092209633205e-02 1.893783874698474340e-02 2.240060872069721265e-02 -4.703269215685788179e-02 -5.252643093924775491e-02 -1.825209275452804522e-02 2.211202577627238361e-03 3.327732105128569391e-03 7.956544134517930938e-03 1.965590671557883654e-03 -5.776988309099500597e-03 1.292103103639382147e-02 6.404591786547049470e-02 1.141788385045690857e-01 9.924167658578683660e-02 4.423157639640901140e-02 1.733765410874257493e-02 -2.403414668276291494e-03 2.142977996280780520e-02 3.140089927401974040e-02 5.786417314804978562e-02 -1.463383118384625845e-03 2.613189397534405271e-03 1.250389233783206523e-02 3.341440098314594630e-04 6.250180626688076058e-02 3.265240682002258903e-03 -9.316010371542353743e-03 2.233677216038213592e-02 6.112753261783158282e-02 3.102303523696302995e-02 -3.091066573359629258e-03 1.442505345222741021e-02 -3.019101583059251998e-02 -1.351723475651044407e-02 1.981030674114972988e-03 2.060404023377378213e-03 1.282782727205163814e-02 6.984463144598111045e-03 3.258101186049050958e-03 2.306499336230389413e-02 2.052375955720012191e-02 1.595063015474891197e-02 2.491828106168077987e-03 6.125929310601165717e-02 1.380127741519768941e-02 1.999690208906620970e-02 1.782133156193663193e-02 4.137005257727247726e-02 -1.902000356113464283e-02 -2.460064100346259167e-03 2.525021207138307498e-03 1.594004806367742624e-02 -3.558133958836782757e-03 7.113961298978985909e-03 7.516983456862734794e-03 -8.554696626182183017e-03 -2.520372727740646454e-02 4.473410515649948321e-02 6.025194152192085012e-02 -1.163046731182089746e-03 -2.807950446789729201e-02 -1.935903074611506139e-02 -5.182444330498267452e-04 4.093177478977203312e-03 4.867790991734483041e-03 9.797058261310715235e-03 -3.120986634047930551e-03 -1.215098554206388466e-02 7.249998727211255309e-03 -4.215000260835579521e-02 -3.557669098802385133e-02 2.076022811094763252e-03 1.850946154423511666e-02 1.467481559531957393e-02 -1.112679614384630249e-02 9.152863575990977801e-03 -1.700221458593525678e-02 4.546057353782768234e-02 -6.494869910729115722e-03 -1.230964893238689802e-02 -2.171882789643808653e-02 2.368565593304687578e-02 -3.198571110939103269e-03 1.578949097018027964e-02 -1.708793095144562919e-03 1.315053942270556948e-02 2.106642770217095548e-02 -9.955045949739671496e-03 -4.508374209955610945e-02 -2.196452291124187037e-02 -7.431978478514847863e-04 8.584046795485340484e-03 9.955311245660196720e-03 1.423617230166959562e-02 -1.697666017130005506e-02 -5.222147997377791584e-04 -1.673798952078031990e-02 1.905294787797018677e-02 -2.604270891017512052e-03 -1.448377824918134840e-02 -1.649818289408247485e-02 8.585763546697216739e-03 -3.702298787275286329e-02 -5.637954796390685225e-02 -1.225162261904358743e-02 1.695910365887699431e-02 6.229673867401043161e-03 3.914459854745560435e-02 2.203830447176041360e-02 1.170469908411572724e-02 -1.759889514476409766e-03 -1.816827506508365061e-04 3.953862976351704694e-02 -6.750007820841451810e-03 -1.507204245423172939e-02 -2.690158216063778807e-02 -5.357004793855819902e-02 -1.928813562919361180e-02 1.350045357956775353e-03 3.219694145282933628e-03 5.881476917510127835e-03 1.709874530999267589e-02 5.319218242848231665e-03 3.534629761002554271e-02 3.373634878375466467e-02 6.348260342778147547e-02 -5.546565894876229370e-03 9.050615148001322921e-05 -3.723480853372344163e-02 -6.172581670300804346e-02 -6.351910773148052025e-02 -5.420436664382233954e-02 -2.491587328480304557e-03 -2.268786589067815079e-02 -8.330234537008941384e-03 3.657929225335846638e-03 -5.331009400162482759e-02 -3.335383135139170785e-02 -1.443153200810445846e-02 5.305488076821037076e-03 -8.837698808329469066e-03 9.974712498043472944e-03 -1.235220353938199823e-02 -3.652847783719093827e-02 -4.707425120639149863e-02 4.046303364663532236e-03 -5.951643935272120335e-04 1.557119176605019058e-03 4.597507159253485208e-03 7.603789362921745294e-03 1.385517429803390793e-02 3.793848565950046908e-02 6.647976899828769715e-02 7.691981305384479328e-02 2.176880651930535385e-02 2.186576826100523549e-02 -9.121474015825893622e-03 -4.843089193938127091e-02 -4.216516047998381672e-02 -7.770882403710992203e-02 -3.192498650004112204e-02 6.875143050694359527e-03 -2.145920862497078044e-03 -3.073345415213772549e-03 -2.638954662143606564e-02 2.137796332617060771e-02 2.618766047432418906e-02 -1.332418135510157926e-02 1.565856994826346493e-02 1.622905744362901012e-02 1.523440640958366107e-02 -2.979330359954706145e-02 -4.135055271394276477e-02 -7.837650587075497416e-03 7.738752151364063428e-03 4.869702768529673986e-04 5.784778820634708593e-03 2.766575070213083028e-03 6.664013812435966473e-03 9.793754072001836786e-03 3.024883320874572484e-02 1.044172778099791525e-03 -1.899896579764148372e-02 1.467556044350652907e-02 -3.643514574110690452e-03 8.388162604550620724e-03 -1.118829970356967308e-04 -3.172380802386776805e-02 -3.852907079001752222e-02 -4.306603115286099237e-02 5.747686176745206259e-03 2.430356042178510520e-02 5.932345378124017493e-02 4.906032726908647612e-02 -9.094987240056478725e-03 3.025413443417095810e-02 3.505003398200553372e-02 4.032690564957030349e-02 -2.577629207809095310e-02 -4.173289072983836501e-02 -1.981584277097582503e-02 -1.342297306140486117e-03 5.467507160120197406e-03 5.648819545230060121e-03 6.399635949588617680e-03 6.243085778349457583e-04 7.115157329094686824e-03 3.860525949892453651e-02 2.904026456217369961e-02 4.363019907482127563e-02 6.037535450254424840e-02 5.472017389533756493e-02 -2.984535679516203254e-03 2.568156049645673247e-02 1.893469938529742519e-02 7.992146003202269281e-04 -2.515979945175638235e-02 3.598739312425657672e-02 4.002737003627455242e-02 2.234241729618639469e-02 4.985464097424428115e-02 4.233628965516526149e-02 4.760526216225276913e-02 5.123630983208600498e-02 5.276656518700343496e-02 1.863493558584108922e-02 -9.913084469615649277e-03 -2.950450429165414959e-02 -2.234504186442977727e-02 -9.237131132730488697e-04 7.183078242554568303e-03 9.891751724587751621e-03 8.559778413595429264e-03 1.352826285606001724e-02 -1.491486715700292417e-03 4.183677487294219961e-03 1.577204321861622877e-02 1.824465047928733319e-02 -1.691338198961659170e-02 -9.737467702766284053e-03 -2.991058093920406433e-02 -3.571019028562015096e-03 2.298276810273943295e-04 4.007691027851038174e-03 2.417705109985728018e-03 5.176444599620969728e-03 2.522427228224034118e-02 4.620124136570266660e-02 4.921715405554986239e-02 1.298161925535797588e-02 4.541957114222966441e-02 6.099405557905365066e-02 4.465566799109579182e-02 2.063290532875516458e-03 1.414491471026166889e-04 -1.569730686022870886e-02 -5.357693889967517394e-03 4.086291142155550928e-03 5.922011120812414355e-03 2.428399801305446831e-03 6.398293989254653230e-03 1.364057948283817039e-02 8.837985332384473702e-03 1.030527242836811602e-02 1.115457307712188276e-02 -1.000239623884032446e-02 -4.912338356151455150e-03 2.575961245088944154e-02 3.103264202621384277e-02 1.420844812197985876e-02 3.827001328293824778e-02 4.028987535777359824e-02 3.771309896700608677e-02 6.040903801972956171e-03 9.986772249692060094e-03 5.839118718583570511e-02 6.544817380775808102e-02 2.036754584737933763e-02 1.405941352381184306e-03 3.236321223680087289e-02 -1.376085116856210454e-02 -1.962962130023004209e-02 -1.300736073735075764e-02 -1.048749690490756621e-02 -1.664188068516131609e-03 8.551493518777422351e-03 7.572993703762676693e-03 4.665741676796167012e-03 3.299904762667980190e-03 3.798509016877655350e-03 2.290256499196667225e-02 2.007103998501981804e-02 1.177016890612461557e-02 2.175729524426452122e-02 3.449207837664205328e-02 1.602838200105012254e-02 3.295983709408382978e-02 3.498728660159650811e-02 1.947313212379397224e-02 3.050422146718383826e-02 2.484039538125783902e-02 1.727433252037760547e-02 1.596479765141654156e-02 3.203190764667104840e-02 1.871474051641178887e-02 3.815134884144812111e-02 6.082064659917935275e-03 -3.278832545779808427e-02 -4.515603300075198001e-02 -2.535970196758339373e-02 -4.701514130113558336e-03 -6.316832415751313890e-04 5.595581900586620548e-03 5.997806347326268064e-03 7.111387481933393630e-03 4.822245143272438361e-04 4.580480018544053934e-03 2.331554056725995434e-03 5.669645247737841592e-03 1.052517921528844415e-02 3.756007769317304314e-03 2.631701372359400784e-02 4.432668677153117631e-02 3.857906485230288424e-02 5.987236012484528636e-02 5.475150470281685972e-02 3.754908424254650018e-02 2.827502628826202707e-02 4.703646454296316060e-02 3.224318796507600476e-02 4.483167590938023916e-02 -1.461100152243212510e-03 -1.146638705805641534e-02 -1.743764725630560491e-03 -3.788829347589359187e-02 -4.620522112138184673e-02 -2.338622440932563648e-02 9.855909625851454366e-04 5.919155890769091030e-03 6.584292781774238497e-03 9.107716094330683965e-03 5.893504516650696981e-03 2.736756569993692781e-03 3.362019972592627040e-03 3.996147897828063872e-03 8.271149950995110994e-03 7.084437618737790023e-03 -7.191494879498699444e-04 -3.092051380284079574e-03 -2.903877256275165389e-04 -6.452624329882395392e-03 -2.207373223199618484e-02 -3.194706357245177819e-02 -4.018389807047344220e-02 -3.597746550619514150e-02 -2.399050019594765534e-02 -2.963447508115631818e-02 -5.711011685232183360e-02 -4.408105964453890024e-02 -3.486021619429428842e-02 -3.444961859540414395e-02 -4.903344461709589763e-02 -4.072529940655100766e-02 -2.923819492521045546e-02 -8.370941303364362943e-03 -5.151941775733871395e-03 2.459969834791079796e-03 2.941112055672694819e-03 4.966740996652077578e-03 1.353694575550911522e-03 5.666103250477247041e-03 2.372711030656989538e-03 8.301941877968566086e-03 9.735889154607591661e-03 6.683508999410919804e-04 9.441753902338792873e-03 7.701779163971597328e-03 1.055442221388064317e-02 1.041771930004934538e-02 6.016902369825900994e-03 -1.060867534260105996e-04 -4.072070231058340546e-03 3.761654193109663369e-03 5.905850020038876406e-04 -6.353792531573150548e-03 -1.358474910677657209e-02 -2.444667375967771433e-03 -6.494561751170270340e-03 -1.533106920605659639e-03 -6.372522513414533366e-03 -1.551446890469106513e-02 -6.293395607322806867e-03 -2.304566907708098435e-03 8.513930357460333317e-03 1.318783053180504726e-03 5.702645466803136186e-03 8.788406182918576462e-03 7.463772244521235319e-03 8.234522811735209627e-03 2.809449763266422817e-01
2.620680343090648137e-03 4.535397649651553946e-03 3.592248773713225575e-03 1.291810953846849602e-03 5.002666740550484013e-03 3.071935473175892162e-03 8.198831039288059092e-03 4.043920512685681562e-03 4.150452939041563913e-03 9.714755967041712598e-03 5.593696851549727865e-03 9.429652845440145148e-03 9.077027965125572875e-03 3.698729908669431358e-03 4.439436045015723625e-04 1.101524338012134984e-03 7.683218981003688344e-03 6.071058355223246487e-03 6.976770898987688305e-03 5.743936885017199984e-03 3.825951006975394399e-03 9.192731904035250298e-03 1.023068616229201588e-03 1.419391153322787508e-03 5.906930993428430136e-03 2.976813497690788783e-03 6.371830695903997824e-03 6.661006685695572069e-03 9.707790603372736318e-03 5.047356234099825700e-04 8.883420974358860467e-03 3.118524706606927606e-03 7.122177514697606952e-03 7.307505032343950165e-03 8.393150485008436454e-03 1.326463497260076986e-02 1.204197167984280038e-02 8.754509307762494905e-03 1.246735611967309497e-02 4.379098691778293174e-03 1.059543547085583896e-02 8.653128400577378074e-03 4.523552176663936213e-03 8.642890438196153269e-03 1.812906158226647649e-02 5.910036047815178271e-04 5.077158256344099611e-03 4.834384430120280268e-03 2.722991688511368705e-03 8.212568791190363177e-03 1.375527700738839350e-02 3.727357331624506220e-03 3.492281675765290805e-04 8.312646130949464737e-03 9.854583692407895001e-03 3.979239123529623029e-03 3.475997286358230298e-03 7.009810135989735964e-03 2.739619015092272479e-03 3.330276912836505239e-03 9.975498648532778873e-03 1.704263187577850737e-03 6.340265506045690037e-03 1.914186934101225895e-02 2.190479547478288783e-02 2.395835886985008337e-02 2.114965862213634418e-02 2.558852423780099555e-02 2.623186369337388024e-02 2.046799964358846785e-02 1.690227259779078159e-02 2.584959957468618494e-02 3.078658121832336669e-02 1.905246442571527712e-02 1.505014283033760669e-02 1.193720393300194346e-02 4.637431085227624455e-03 -6.270079323660493389e-04 6.600803766897720380e-03 6.547647389787363166e-03 8.374576181660198931e-03 8.875274401277841521e-03 6.886714908800546479e-03 5.001441749174066233e-03 5.896219599989294645e-03 7.164477298899286223e-03 9.934906986383888056e-03 1.224082047251969516e-03 4.355698503253977415e-03 1.258902651598141874e-02 2.081653611037818929e-02 2.398532401393895994e-02 2.811395553325819058e-02 4.706806875417202107e-02 5.685547594345949363e-02 5.086065023874176277e-02 5.285827466010185882e-02 7.615579779638459446e-02 5.104115685776306616e-02 4.224759776220669144e-02 3.346037616635139794e-02 3.302194922155442247e-02 2.123777037081004890e-02 1.400940161320405990e-02 1.733156649239354224e-02 2.205522775389389886e-02 3.761742662699926070e-04 -1.779420238498776591e-02 3.416963027359432720e-03 7.896962686467487447e-03 7.061593081690947099e-03 7.230056686850282709e-03 5.372329615159323994e-03 3.336093887019492624e-03 4.253272616315661482e-03 -4.721992210632133585e-05 1.076025526659061832e-03 -4.072580585353202665e-03 7.274941186932448733e-03 1.815982844477103883e-02 1.162153847199585630e-02 2.224961581540196853e-02 2.935217922819368525e-02 3.259442069131808506e-02 5.232645204715397069e-02 2.985628113826960250e-02 2.648401020476178272e-02 3.408692357133583095e-02 5.810455154089681079e-02 2.200151538805483059e-02 2.267573682294233076e-02 1.484866288537520923e-02 6.762984288455574193e-03 1.517723028622986782e-02 7.176660484407797365e-03 6.192433009826800623e-03 1.531821358163545921e-02 9.515013682018208518e-03 4.622540994560434512e-03 7.505741396035072593e-03 6.078410800794319113e-03 8.876467204627239496e-03 6.810994816525617855e-03 1.427830012965048193e-04 2.863501414302702889e-03 -1.423143633073394379e-02 -1.807690047990729090e-02 1.423352988679935961e-02 1.579620965756457079e-02 2.046808325928797800e-02 1.169098085735933469e-02 3.091407941265305118e-02 2.105840650018859367e-02 4.061163310759146466e-02 3.387223834429030356e-02 2.445872010262324300e-02 2.636356592434690310e-02 1.707289189549983030e-02 1.310040891635295621e-02 -1.558444241814858043e-03 2.065075565617464221e-02 2.592478551296620651e-02 1.539340160058336009e-02 1.072399019569458822e-02 3.424061427024654991e-02 1.816973115849250184e-02 1.799721887247652044e-02 4.852025877805775378e-03 4.996425221677133766e-04 2.719839480279388679e-03 9.144172808888415341e-03 5.085917753052555772e-03 -1.811280535749702596e-03 -5.814012974637975707e-03 1.528012571457360892e-02 7.061489838864663283e-03 1.017565638877047235e-02 3.860907089403124021e-02 2.651416461818174169e-02 2.074528041880286874e-02 8.203221862862134298e-03 -6.796520969007419782e-03 1.632145529709112461e-02 4.060103198141460507e-03 6.179798151738399858e-03 -2.212495190538981207e-02 4.388766877693143532e-03 4.187349966811627217e-03 -3.190129092267908473e-03 -1.591282804699046746e-02 2.093230218947969307e-03 2.601333194047651806e-04 6.042698162624107056e-02 4.265140518060765024e-02 1.933762723916380294e-02 5.747736113632074054e-03 8.536012176547352198e-03 8.181036695241050314e-04 6.417194489503573289e-03 -1.191717434674049916e-03 -1.345014809057358063e-03 -2.671441484763200161e-03 2.001601449224209295e-02 1.555781619842452890e-02 3.762474708679088009e-02 3.653606394735049723e-02 3.507769472442184150e-02 1.282614086244555224e-02 3.056086069385796980e-02 -1.627041640541420850e-02 -3.940730506763561597e-03 -1.548947569738862162e-02 9.349989880145291241e-03 -9.726419129393081356e-03 -2.245361563402257024e-02 -1.412969391999370321e-02 -7.718208743180190838e-03 2.195737229942079302e-02 3.441264710732624271e-02 2.511170975526522131e-02 8.406990907946099156e-02 7.527808719618209188e-02 3.561033362909231392e-02 4.165232599751328077e-03 7.954977765354656616e-03 6.711556890062663795e-03 9.796461130296902839e-03 3.964200713282403817e-03 -4.937733985588228791e-03 -6.866467469060903196e-03 6.862986422946124911e-03 2.527686340829940568e-03 2.320739008639910450e-02 2.853139134131318574e-02 1.831389016586734697e-02 5.684557290685459535e-02 1.748311126228276058e-02 -9.715987667184686552e-03 1.375771853789448974e-02 -1.312361655269771513e-02 -2.724461149123351758e-02 -7.629267464961881837e-03 -1.355109371212568324e-02 7.665828035276143516e-03 3.141831513074200277e-02 1.750152172808748519e-02 2.133757523627675956e-02 5.113793683366111426e-02 9.559072434152825204e-02 9.135087949194424517e-02 3.419808810205045985e-02 2.830243502980830678e-03 5.378427729025228934e-03 4.143696384494808919e-03 4.550497923996882181e-03 9.921283968787358853e-03 1.102615113417740669e-02 2.380107764763460254e-02 1.299868999502296583e-02 1.549981937696256508e-02 4.180715133792575061e-02 3.844412423381487337e-02 1.385609618262179966e-02 9.251788345650666101e-02 4.479479724509739802e-02 1.131748874508462996e-02 2.679222661306663103e-02 -2.833963627412717720e-02 -3.227981374446901863e-02 -1.066015390460460337e-02 -2.196961884932948153e-02 1.248272900601261198e-02 -2.507024124376711072e-02 1.921052481781862845e-02 6.423015355304123597e-02 8.687068459230176676e-02 1.347850988704636377e-01 1.081959228157687303e-01 3.667372271543203194e-02 5.156686284249758015e-03 2.328732406601875891e-03 5.030215626593250583e-03 1.845963538585150554e-02 2.725450863113770134e-02 2.191735171089344292e-02 1.511405389598050736e-02 3.987628958540974378e-02 2.210647046409432853e-02 3.580606358775004217e-02 4.178202531504797423e-02 4.137309203358634918e-02 2.227049396013701041e-02 2.377968606130953164e-02 4.123837027224257212e-02 5.833066329285230972e-02 6.634523688836390515e-03 -3.148657665678488565e-02 -2.670626790071930351e-02 -4.182712983643607080e-02 -7.225001986581267022e-02 -3.298114207202135217e-02 -8.229696573917548788e-03 -2.190831958479947869e-02 2.899866617022103452e-02 7.480664299723777111e-02 7.731799446805275033e-02 3.884241604000983339e-02 9.467109350642053181e-03 7.956301258450364233e-03 5.289596561427431162e-03 2.835544856554423482e-02 2.770266904047270079e-02 3.853061922018650304e-02 3.095241697298667036e-03 -2.509161263719259525e-04 2.253330024992534347e-02 -1.000872586090478973e-02 -3.840884285578613846e-03 -2.499713361960763380e-02 -3.726009027534217533e-02 -3.630570980951332988e-02 3.271874112336276702e-02 7.085437252598617008e-02 -5.225178780839351972e-03 -7.868009348433400649e-03 -2.036197836934261485e-02 3.460907735543559266e-03 -5.599308841062402425e-02 -1.238488540919217007e-01 -8.584485218984805321e-02 -7.187691130644607851e-02 -4.372411598530882848e-02 1.231719073476005358e-02 5.943359329629938764e-02 3.029713854435648474e-02 2.196326775452022654e-03 9.927384945305095520e-03 6.991572445917479742e-03 1.865090017765321309e-02 3.085152704535677401e-02 4.323001703294001435e-02 -9.500453940825635130e-03 -5.964305919271849915e-02 -5.598024848419926730e-02 -6.590793634777403209e-02 -7.499922268840455986e-02 -8.553927401545849407e-02 -7.263833605678578220e-02 -1.434921340282786228e-01 -2.439001818315285341e-02 -8.363181929128229997e-03 -2.070819356637395442e-02 4.351239669036778795e-04 -4.955641213887995722e-02 -2.749937724820368523e-02 -1.043617961460285674e-02 -1.382745507095357526e-02 -6.960620308650430910e-02 -9.727751113106268555e-02 -7.364784515331115888e-02 -3.466573543436737154e-02 3.943264948539187270e-02 2.192512074372343980e-02 3.691128174894711678e-03 7.141318563246970346e-04 1.109195242534105098e-02 1.393496820861368779e-02 2.202451516394663897e-02 3.504209906303503916e-03 -5.487643236165403587e-02 -9.964710027343896825e-02 -8.426402852470937788e-02 -8.813666062731904949e-02 -6.047234109613748576e-02 -6.460146344869466262e-02 -1.588865345345579286e-02 -5.328627507198527291e-02 1.385395575123845625e-02 -5.382376889198341174e-03 -1.382987466186565324e-02 -9.415702160865241019e-03 -3.150675633904145151e-02 -3.271474125567703367e-02 1.348892939297126857e-02 1.532813340353249808e-02 -2.598140657489314900e-02 -6.198923529174015651e-02 -5.620224665160681449e-02 1.275394238228872942e-04 4.395150886320862982e-02 3.382847115367298291e-02 1.315082245217209268e-02 6.610463011671008360e-03 7.760222882030776322e-03 1.425248537746580738e-02 1.376892601798473774e-02 -3.984431976876220971e-02 -7.400936751711240102e-02 -4.949967412448544324e-02 -7.052947876110424175e-02 -5.643057714782875184e-02 -3.443338697970091400e-02 -6.608676283607422229e-03 -2.691593356100159887e-02 -7.264987977307432732e-02 2.198826752759680189e-02 4.283472804492888253e-02 3.615579411627203518e-03 -1.912599907227438209e-02 -4.953736413336004563e-02 -9.609461676149221162e-04 -2.138870764405950350e-02 -8.302833042362683588e-03 -1.531931213076374691e-02 -1.791727325993829750e-02 -1.888223658343014463e-02 3.403770643289674974e-04 3.314308789732049731e-02 2.433859894171443855e-02 4.810644229802141930e-03 1.025620198524310580e-03 2.824519783182464355e-03 5.652973079507474762e-03 1.181069251269198893e-02 -1.820974278500703605e-02 -4.443326748644350899e-02 -1.057306284428027356e-02 -2.784833237956393925e-02 -3.645202584777769428e-02 -2.983214862153388963e-02 -4.571407230126813687e-02 -3.356995090870769360e-02 -3.551190737224547977e-02 4.313294183728813569e-02 3.610182735665983661e-02 6.971472405531493194e-03 -9.472867803972800926e-03 -2.046488323698109416e-02 -4.456421757302453726e-03 -1.838424186630978688e-02 -3.902865830358968197e-02 3.264913165971135203e-03 1.092986742997861154e-03 -1.255009495341551790e-02 1.559138790363573737e-02 4.013283016260683206e-02 2.230424896841316784e-02 6.048095529049423054e-03 2.875317102009657729e-03 8.505130593402703346e-03 4.587151013309418920e-03 2.294092446540367189e-02 2.801461685293117621e-02 -1.681041557663852729e-02 -1.086289384994779290e-02 -3.783438202343795270e-02 -6.385105561131754204e-02 -3.944065523130171891e-02 -2.752991990896586777e-02 -4.793190949757547559e-02 -8.746511170997860185e-03 5.761494716726399401e-02 1.567473451252707206e-02 1.023077538094841745e-03 -2.626826463483923277e-02 -3.568183516599517015e-03 -4.195250566257147790e-02 1.166934321686322398e-02 -1.183026496364747784e-02 -3.078468943091147714e-02 5.327790035894008035e-03 2.119361712571255982e-02 2.958086810375826908e-02 7.309080088220043514e-02 3.829745626135504927e-02 8.069182742752329524e-03 8.270903815111189938e-03 3.720633947156575926e-03 3.008189921210871563e-03 2.573431074778014319e-02 1.996558120485157281e-02 -9.820874954397389514e-03 -6.362000937814006607e-03 -1.606366209611238480e-02 -2.788434723636567039e-02 -1.515527098934381887e-02 -2.246391339130467124e-02 3.962443459891111519e-02 7.524328019154609415e-02 4.876366023947550227e-02 3.156713491066230615e-02 9.670345881171871910e-03 -2.457433541398552565e-02 -1.247333010477224245e-02 -1.203256213947873483e-04 -1.905291166778850034e-02 2.430481347396088853e-03 -1.340116202732358555e-02 3.509331627417336050e-03 3.322137786016049477e-02 6.310276703750417049e-02 5.976398579693745217e-02 2.512718982743384483e-02 5.893343188569151285e-03 7.341395605102891096e-03 4.470546484495439149e-03 -1.705190318219596598e-03 1.257348364026579859e-02 3.688498295605629335e-02 1.764275193948659781e-02 1.793887240323922133e-02 1.463436519669165589e-02 -2.901165784752680540e-02 -2.309101374112467603e-02 -6.265041700459720447e-03 1.950298164291125458e-02 6.670905982454573835e-02 6.850274775354911472e-02 1.940339041080339777e-03 -9.519669528159229593e-03 -1.802715398590461551e-02 3.230974267796251492e-02 2.420734064473812827e-02 4.863025300215647467e-03 2.455354066616106945e-02 8.593559142970406961e-03 2.708255473789410867e-02 5.689079936288985589e-02 7.835650152162307314e-02 4.661466374746685293e-02 1.300988895929797683e-02 4.917880874598589205e-03 1.173655271507267200e-03 4.665623479357066880e-03 6.584669457907474984e-04 1.421396638228043232e-03 1.747652233330788951e-02 1.294386256628485797e-02 1.202987589826784963e-02 3.401062219879956439e-02 3.943149496106514162e-02 4.314215273560308844e-02 4.353331908843149391e-03 2.113782272900984263e-02 5.562244386662269779e-02 8.761972678654657287e-02 5.848096725954997355e-02 4.291081663983891542e-02 6.428597798882968763e-03 5.455231924849130928e-03 -4.619344281574956114e-03 1.086255996313488514e-02 -2.132572176866232710e-03 -2.325807698790244033e-03 4.172797908894145674e-02 5.734843707911770755e-02 7.109062649002305390e-02 4.741550883006419304e-02 1.820913568200132823e-02 8.020284097521744940e-03 3.598839507921613133e-03 7.339957768283718147e-03 -1.752221572959351717e-04 -2.314109266177234725e-03 2.052373393364842827e-02 9.190763769844723791e-03 2.603642005118905756e-02 6.708754776783860951e-02 5.199438852830621377e-02 6.893027801086727691e-02 5.104746372620745654e-02 2.401500270697577710e-02 4.798534570871617472e-02 7.024335451780661099e-02 5.025234733928644892e-02 1.298542137299816233e-03 2.010774221406334480e-02 -1.654995539541633670e-02 1.611477050223338037e-02 3.153617194497319864e-02 2.581044737487300789e-02 -4.787136155439165874e-03 4.200812648752208500e-02 7.285128950470673437e-02 6.232544634465241734e-02 2.401022060591384219e-02 4.064490212006450186e-03 1.883361607573827250e-03 1.701707857607807255e-03 8.556535587758535080e-03 6.797386440311723593e-03 1.108329372858882743e-02 1.726057077729253875e-02 9.769411898047352175e-03 2.280778720929464015e-02 4.557754502651166495e-02 1.999876047249970340e-02 3.252450453272886371e-02 5.618421755873218362e-03 -9.112507538388651962e-03 -8.156555130932006134e-04 -1.205396407108302436e-03 6.249353239904060836e-04 7.653641949225822166e-03 4.857422598039790561e-03 1.035125322463361676e-02 3.395499140767318982e-03 1.203271217634240345e-02 -2.283341973703225183e-03 1.586305822793385861e-02 2.635490392159858114e-02 5.807674405970404685e-02 3.481784984965984736e-02 1.781389892394756591e-02 2.516350869086433992e-03 6.405926958990344105e-04 4.289770859661138323e-03 8.847221119814884308e-03 6.450877059142472864e-03 8.948469265159563271e-03 3.005004473008451166e-02 -3.751694829993421944e-03 1.854639471579330387e-02 3.098586789359894164e-02 1.966396061095408362e-02 9.291644116444163718e-04 -8.831306751347207246e-03 1.558980632932249408e-02 1.635484959989129405e-02 -5.375931678749964679e-03 4.620557209229447099e-02 1.766599928447749532e-02 6.191178981833700586e-03 -2.430160454076340116e-03 5.237066051658047054e-03 -7.575941765120782802e-03 8.429855788568071939e-03 4.299912068367909776e-03 1.060978500028280161e-02 3.732953778705334208e-02 2.693083901383461209e-02 8.667294799498270405e-03 5.144124667363062300e-03 9.690070732758897243e-03 4.386163163650619312e-03 5.905299329725791080e-03 8.638885646659770013e-04 3.593190203985411908e-03 1.119202217870990737e-02 1.276338696088423486e-02 1.979206711995881805e-03 5.279508317123765213e-03 5.907349979220795702e-03 -1.798701801697248507e-03 -2.058441323218724792e-02 1.696577072520816720e-03 -2.007686054513404500e-05 1.536407686587004748e-03 -7.167024138921819498e-03 2.950504245147707663e-02 2.307263296646830039e-02 -1.910643293184370595e-02 -4.779575929263936082e-03 7.429674587785452949e-03 3.151462471680095689e-02 2.751421330192383233e-02 8.950734195522591294e-03 -1.497531122813458701e-03 9.361171194358324302e-03 5.077236259952756965e-03 2.683474795148162086e-03 6.153670272788818417e-03 4.232501770949691731e-03 3.293802099420425206e-03 4.816039473720120680e-03 4.543173657704610569e-03 -2.962587007213054405e-03 -1.221722601327198017e-02 -2.522844537178537197e-02 -6.962156906087663827e-03 -1.736848445528151041e-02 -1.361365172392187475e-02 -1.446978962501451263e-02 -1.097415565236221566e-02 4.828103775374514850e-03 9.159869412348593809e-03 1.623389341486821194e-02 3.283028845899909481e-02 1.559702042138206429e-02 2.263978200136649438e-02 5.350025569773019657e-02 2.835160322608664893e-02 2.154845000268814162e-02 6.115668138240794999e-03 -3.135366461467168622e-04 -1.452372131358252265e-02 5.851800313309803332e-03 4.157996021844602257e-03 5.005780950805513788e-03 2.985894130538777058e-04 5.908132174412814887e-03 6.397229013738309905e-03 2.211737802573674697e-03 8.273117569899495621e-03 1.085848047772074512e-02 3.220496338812947959e-03 1.003260611089389596e-02 2.849638357353945564e-02 3.143355698179264857e-02 4.330029144460789681e-02 4.663725874228930729e-02 4.110937456634770892e-02 5.927537369932766448e-02 4.403944811740077847e-02 5.171927153238421726e-02 5.956594818397029784e-02 5.498145060924757715e-02 3.497507021820321638e-02 2.692374142923767422e-02 2.257871078744239091e-02 1.046541494375598756e-02 1.006235845501875182e-03 6.043971648719181217e-03 2.621252540226330489e-04 5.041391902752226373e-03 6.981074703519345517e-03 3.421539813459146748e-03 7.049908884123896186e-04 4.513861242121417622e-03 2.227726675784287222e-03 9.530653801401419226e-03 6.139471159810154337e-03 -1.360634376125428868e-03 2.330402725364482536e-03 7.353844938125814884e-03 5.837117143502924127e-03 1.059093681471107336e-02 1.185060737118644354e-02 1.734508137942957634e-02 4.287229055949447892e-02 2.116609184704596608e-02 3.951512994631418974e-02 3.169558852344699779e-02 4.787836935722981219e-02 4.151470352557154464e-02 3.555011837391561236e-02 4.397302254047765965e-03 2.267207392406141685e-03 2.179264574481367626e-03 8.342637172026663717e-03 7.989836438300342361e-03 5.803293862025423432e-03 8.222513910913003751e-03 5.789604368488288771e-03 4.519582938797370858e-03 4.367990789617100418e-03 9.184136695715841570e-03 5.994511378391896919e-03 4.082032827384696541e-03 8.675148350740152781e-03 6.868573122756959325e-03 1.719137368281343278e-03 5.754921279583975410e-03 7.446500416673951413e-03 9.257250425634390434e-03 6.857563164942141222e-03 7.291493323891406336e-03 2.938203850808262727e-03 -1.572929202978342071e-04 1.019117607853968835e-02 1.314009347422323906e-02 1.560777564196225674e-02 1.107422957775704500e-02 1.032185578300133695e-02 1.384546389088311610e-02 5.723141200989260123e-03 7.678819028476888305e-03 6.342970746721945420e-03 7.432767742096875983e-03 4.215346732512504670e-03 4.050215069399466447e-03 6.981079562684766246e-03 3.466305505001920743e-03 6.787653351086882052e-03 3.176604638427430460e-01
4.439017082043508235e-03 1.899630544703488286e-03 1.947477754583719703e-03 8.143924270656761194e-03 8.672569039643279742e-03 5.526595522049104932e-03 5.135503642706386838e-03 9.627813215665297075e-03 6.648886123378390522e-04 4.635162833092051037e-03 1.509604245174748019e-03 8.343619719324141953e-03 3.062456801162312565e-03 -1.182524059272362527e-03 1.347847500758251596e-03 1.588380263875337510e-03 5.113880604058937754e-03 8.549287709108423922e-03 7.702593600362909326e-03 9.176464833219247566e-03 6.299350144500200435e-03 5.554239379069307939e-03 1.169935680457406119e-03 6.890568637240820568e-03 3.741024083155629863e-03 2.717465974205723542e-03 1.484595569121992600e-03 1.584711821953179930e-03 1.581487552954761316e-03 2.743639237141985709e-04 3.795601025297040514e-03 4.690294084365590269e-03 7.438917699652307196e-03 8.959057062208237998e-03 -4.872988783970150055e-04 2.033834917239945173e-04 -1.047213274351430946e-02 -4.154905446625774962e-03 -6.559318928245952939e-03 -5.247963987181489785e-03 -1.461573757101343116e-02 -1.956975093446081809e-02 -6.321657920174167389e-03 -7.863935643950138721e-03 5.380139936029614857e-03 -1.442279871341035869e-03 -7.283030011197836294e-03 -6.910977612406040381e-03 -8.980245800038428932e-04 7.363930885069647214e-03 2.386637917353203863e-03 6.030482467533380270e-03 3.374242258145381326e-03 2.487066492505269656e-03 6.483650611357921409e-03 6.322055978081362465e-03 4.072513660750225195e-03 7.062107977263172923e-03 4.607640272194603315e-03 1.269853177674353786e-03 2.765955644506708916e-03 4.774497998164929993e-03 -6.878598980282393111e-03 -2.389203767273908804e-02 -4.371862825180495432e-02 -3.802696325380148373e-02 -5.557775057465505486e-02 -4.744162812480563068e-02 -6.828395760879776843e-02 -5.927319336060458965e-02 -3.446879545550786406e-02 -4.454344382323524587e-02 -5.495211651230396538e-02 -2.974761393624746411e-02 -3.560157113864053507e-02 -3.916287840275185089e-02 -4.115763631400197464e-02 -5.077648138654116544e-02 -2.757296279200284125e-02 -9.584654811800303806e-03 8.815411052785280047e-03 1.196129105523800577e-02 2.687261964544554287e-03 5.395477033609978601e-03 4.511651005661622416e-03 5.905966407188897524e-03 5.401274238645712746e-03 2.663091258100987223e-05 8.152199945637900180e-03 1.274372488269597675e-02 -5.720081713241347184e-03 -3.071323071712760491e-02 -4.801630899605318498e-02 -2.435158818906570447e-02 -2.327183190796188947e-02 -9.573798597377409375e-03 -1.785318173526985464e-02 -3.561755878201532804e-02 -2.698151280360275989e-02 -3.926796589109150803e-02 -3.230426305987858793e-02 -3.857279998411711208e-02 -4.507482997281665044e-02 -6.827477701525327958e-02 -6.314918173662344147e-02 -3.860214358918452604e-02 -3.890432001343501617e-02 -4.928200869207121498e-02 -1.223854585957268905e-02 7.524838485375153971e-03 4.434124434929242152e-03 8.238210795893357447e-03 4.901849104312400521e-03 3.234072428418807103e-03 6.998045483345221099e-03 2.831234683114444966e-03 1.090759504718432846e-02 1.735455355251945900e-02 1.500728913292537561e-02 1.018093243035624734e-02 -2.889951026165689819e-03 1.219009428300299805e-02 -2.308235711183245081e-02 -2.085822058373540139e-03 5.092766346060987465e-03 3.912237500941388030e-03 1.368738495289604021e-02 4.326683245520826504e-02 4.557090246863615413e-02 -2.616978083596085969e-02 1.418263041011218542e-02 5.001683792196967571e-03 -3.226134812390761553e-02 -6.879052812156103737e-03 -4.293784554448286037e-03 8.574202038648741711e-03 3.093639740961990139e-02 1.264521386186978104e-02 4.143077511239309785e-03 8.901881431007183229e-04 3.650298965094393028e-03 2.766149651737111193e-03 1.032362313802978951e-02 5.856158570050136632e-03 1.109504032763143286e-02 4.038215135111169335e-02 4.307286837846972805e-02 5.020678571227227271e-02 1.946366363033380509e-02 4.712498271923577786e-02 -8.885821637750351137e-03 7.865299149159894754e-02 3.149156675044750830e-02 4.457106242983613353e-02 1.103826064822356484e-01 1.171765144232729677e-01 1.301060139080764955e-01 6.320281628311764932e-02 4.122614524903463196e-02 9.446335084350747022e-03 1.016805792098840651e-02 2.392549747910190441e-02 4.944394284425532998e-02 5.919792418751497476e-02 6.219312853942609437e-02 3.021101773048575148e-02 3.490905838748926092e-03 4.440841269564187004e-03 1.156334906425873776e-03 7.205736248502907183e-04 1.530219216452622733e-03 1.870271192584433209e-02 3.563674977449075160e-02 6.900976252417775902e-02 8.447795712903295728e-02 8.308119660519629190e-02 5.805486991191075724e-02 3.275499265383124969e-02 3.786487111061218047e-02 6.989134055976969732e-03 -3.252724909847003187e-02 -3.401129990270775061e-02 -2.994802824356366036e-02 -6.764508756166344450e-02 -2.646084417678449749e-02 -2.014770733283094070e-02 -7.230158109301434858e-04 -1.373450826793445011e-02 5.800453973994730908e-04 6.377757603027374433e-02 1.266818876422395046e-01 1.234808814436190727e-01 6.865544741935629414e-02 3.698763926680538605e-02 2.601962840656006637e-02 7.996329304704787380e-03 3.262629697721291296e-03 8.425750781278103924e-03 4.069684370925881652e-03 3.315609042725301686e-02 5.426678386746335014e-02 1.086431712552367868e-01 1.196101695348011223e-01 6.573187966785949687e-02 1.715699870615076603e-02 1.604650515881677827e-02 2.317898716162323375e-02 -5.408121248558617590e-04 -3.211179824257625465e-03 -1.854844565594352887e-02 -6.920523915020974914e-02 -1.098519516717929023e-01 -2.372848997489479181e-02 -2.237642005729119019e-02 3.781697720168532544e-03 1.092861393977891532e-01 1.152053210076577766e-01 1.049834885901139575e-01 1.243965986964468418e-01 9.052620556784510275e-02 5.378588705641891565e-02 5.112397705610911836e-02 1.771125793800792242e-02 8.581296403434959461e-03 3.760340164397446647e-03 9.860812732345057910e-03 9.554083344375774098e-03 3.037305967604505413e-02 4.478829958630953928e-02 8.756926937864394078e-02 6.750239800372742627e-02 3.462548602785824048e-02 1.140290894820537165e-02 -5.875424309242014559e-03 3.280935627194699056e-02 1.898951963014555017e-02 1.721876718415620358e-02 -1.810595606840181143e-02 -1.669464722613816371e-02 -9.097547753072927901e-03 1.407549420579402855e-02 6.012208422142994307e-02 1.379934262884325580e-01 2.015349674951179004e-01 1.740267792944562020e-01 1.202490407849966664e-01 1.313518718144671416e-01 1.213990896136994818e-01 9.938656778758307719e-02 6.498700762056780489e-02 9.387893225789646981e-03 6.753061504907956897e-03 4.847752484211098611e-03 9.278020254278903159e-03 2.112181667929705423e-02 3.931357221477844999e-02 6.909556931035210070e-02 8.955646357364699384e-02 3.333828734860549287e-02 3.989911087032899616e-03 -2.022192825868830354e-02 -3.141055816725305243e-03 -4.641526452219797184e-03 -4.972324678373328186e-03 -1.683578898822759781e-02 3.799876616256506884e-02 -1.277580373072642259e-02 3.200126202675689091e-02 8.682396784288956559e-02 1.339617874454470947e-01 1.468138999803522138e-01 1.278542825841061381e-01 5.279429869252698360e-02 9.025013990347058312e-02 1.374710435122220298e-01 1.267044289542516022e-01 1.387895989437415711e-01 9.621681149166592950e-02 1.630492745011901876e-02 1.073954795483103401e-02 1.303279758102998415e-03 4.576550770854221142e-03 1.847159600178211944e-02 3.723973738358174468e-02 7.400689720755269929e-02 5.797838594299477982e-02 -1.267804265574077639e-02 -2.511642539683365833e-03 -5.738295970174862176e-02 6.017856419652629733e-03 -2.635893426614879798e-02 -3.561602504844666589e-02 1.892740978165342869e-02 1.010984419812777264e-02 -4.900659796200539098e-02 1.464306203509537219e-01 1.004578928803808724e-01 8.424004251569369717e-02 3.231064788607024285e-02 -3.517252847739885026e-03 -2.007409523083996533e-02 2.209582269219723463e-02 1.202787588084864613e-02 3.367201280048282702e-02 1.060258930613122708e-01 7.908491035444521755e-02 3.834440078849139094e-02 1.384124623500530143e-02 3.651790875886557104e-03 6.117414251965908913e-03 8.633235265282037177e-03 3.170681108386397967e-02 6.619677261842919769e-02 1.916051808928276572e-03 -4.260605478272776886e-02 -7.192870735807981031e-02 -7.840703083724089029e-02 -5.407491448498553260e-02 -1.045621338722741225e-02 -2.196375711983013582e-02 -1.995102989542079167e-02 -9.793239587767146870e-02 -6.095567692963358569e-02 1.194213389781074164e-01 6.744530970128924385e-02 2.565222750151009354e-02 9.670208608076097737e-03 -1.414868893591492323e-02 -7.666347739844332765e-02 -7.598305221988183034e-02 -9.906790802414842945e-02 -8.764838550024171837e-02 -2.184722007200073229e-02 4.841554976568635676e-02 3.949558116087047155e-02 6.419872892014199563e-03 4.733704536408394302e-03 7.578500792559765380e-03 1.112583493533636850e-02 3.475665114616190154e-02 4.734621557371484352e-02 1.539560662304140931e-03 -5.795477678181240599e-02 -3.394140823910168914e-02 4.426712628404340898e-03 -3.736672772756687022e-02 3.073657241215820013e-02 2.372557226990902601e-03 4.123881631350256871e-02 -9.871831888381288334e-02 -3.254441961970978847e-02 4.938878415810574185e-02 3.703899695383435636e-02 -7.337075536956567945e-02 -2.814072508208583304e-02 -5.720452684316679193e-02 -4.939548619974515331e-02 -8.607317871755278127e-02 -1.485415294188253688e-01 -1.804339658511147637e-01 -8.919717938886072284e-02 4.994814337900403689e-02 3.424553412551914477e-02 1.094692132905581913e-02 8.798657403241736535e-03 5.864344158654461597e-03 9.313217726687653131e-03 2.271512064740881243e-02 4.750202207804733040e-02 1.701794618407593759e-02 -4.462145914012573267e-02 -2.528866317025311658e-02 1.588874964990629260e-02 -1.899290756007254374e-02 -1.656096867978954640e-02 2.281048290740494283e-02 3.549996695161283800e-02 -9.949554015195186119e-02 1.159200403696048973e-02 -3.260649839024589575e-02 -1.425035440833733076e-02 8.270653822293803567e-03 -2.682239387495118782e-02 -4.416496725778346760e-02 9.866965669513295609e-03 -4.086992592147888764e-02 -4.338004689737354896e-02 -1.206683482793828310e-01 -5.518211774728058738e-02 6.431579505590635792e-02 4.511005222494134798e-02 1.338726007823342300e-02 8.397412618751312272e-03 4.691442754762767571e-03 8.102852454679038141e-03 1.048202079649839143e-02 4.183931384748787452e-02 4.107147992473790532e-02 -1.117512447335393747e-02 -2.493441003570968061e-03 1.508683525676964010e-02 -1.705270676455088522e-02 -3.042017766403928153e-02 -6.604727722567398096e-02 1.298714167073967626e-02 -3.109038584892338114e-02 -9.809239181634170357e-03 -2.382495552508480385e-02 -2.203609263903268806e-02 3.294878099810623351e-02 3.041158053107140616e-02 3.625600894161049026e-02 1.068595714651748331e-02 7.130172210814711767e-03 1.415032479286436849e-02 -2.634407774822646649e-03 3.333533256386257779e-03 3.158924072249023884e-02 4.369933599869331442e-02 1.687350836280944455e-03 7.618400407725271078e-03 9.880262546465226267e-03 1.835135455797192935e-02 1.277650815941447533e-02 3.341577364736857819e-02 3.359643551841263315e-02 2.484504137963469694e-02 -1.640895840826772211e-03 4.035054551434638648e-02 7.831206048763568114e-03 -2.611665189535510717e-02 -4.311738827524121825e-02 -1.717085085130194005e-02 -2.503683958044964838e-02 -3.193024909731170119e-02 -6.997405456215171488e-03 2.077795972157300136e-02 1.398230709495298062e-02 1.599287737883909807e-03 3.285585966365677651e-02 -4.007992630676884827e-02 5.633491041056968608e-03 8.375337917486386230e-02 5.180992213598994284e-02 2.600187942857141304e-02 2.730411072053307020e-02 4.220100196492406613e-02 7.773036486891917070e-03 6.808261051599366620e-03 7.896854977076405921e-03 1.116121262998282307e-02 1.587290515747639963e-02 1.695633451580328202e-02 5.281645682680485149e-02 3.662582056424616705e-02 -2.287143485225450260e-02 1.286635939399536840e-02 -1.314610046662248455e-02 -2.570654494637737708e-02 -1.523062545851791572e-01 -2.098351841869719459e-02 2.163258547574459234e-02 2.050407427252436306e-03 -7.227542022298270863e-03 -1.232417489694532077e-03 4.305799186625624414e-02 3.715207665228417722e-02 3.599757058825075323e-03 2.067288272907107094e-02 7.014561919867484674e-02 4.776708725339233463e-02 3.490872030846474405e-02 9.480409426612948498e-03 4.117641500974828644e-02 3.543329902132953679e-02 1.303025877176715135e-02 3.431514297933171281e-03 7.182087093798490869e-03 1.414404446692779649e-02 1.223199066407629036e-02 4.915018928899254902e-02 7.193046913459930081e-02 5.867284452281741614e-02 -2.816528491154440816e-02 -7.732508876877972927e-03 -4.243200485386681986e-02 -8.593208941073472718e-02 -1.447944083623662337e-01 -7.496005643099232230e-02 -2.390715001183389005e-02 3.510936955165865070e-02 5.267063972315849663e-02 3.384635356176345089e-02 6.735527864208665227e-02 7.802590428192442314e-03 -7.327669110621009944e-03 -6.857353255470215354e-03 3.929022568928484255e-02 -1.090071618626766228e-02 -8.374760872850470911e-03 1.526718107396603762e-02 2.953381732564049414e-02 2.633189824906581947e-02 1.163267758498320870e-02 5.705961813454999386e-03 4.020907713586025119e-03 1.354701998191709146e-02 3.749567230110180394e-02 6.737820093175518610e-02 9.939514198719907878e-02 6.857133819043746692e-02 1.174617014629245580e-02 -6.566023928143175856e-03 -4.418730737406281056e-02 -1.496883953740670570e-01 -1.409624374832550986e-01 -1.062396625559764718e-01 -2.237530969294122818e-02 5.514568426887902705e-03 -5.823218449908400263e-02 -3.052491307179202099e-02 -5.791200930552657666e-02 -5.270220065675294829e-02 -2.775135757663794306e-02 8.313505367180229044e-04 -1.158997897422225053e-02 -5.136640933126586372e-02 3.111291782317722292e-03 5.828271282741308984e-02 3.114019328148546345e-02 2.585173574550819753e-02 1.207941003692896559e-02 1.319070441928787280e-03 3.370244419259290150e-03 1.120287556292211099e-02 4.092720688595283957e-02 4.901958984540577546e-02 5.332297578500759527e-02 5.718099047453953365e-02 9.729543835217416281e-03 -2.531510137416456349e-02 -6.575354483603251809e-02 -8.016685750940001631e-02 -1.173586654432595272e-01 -1.177847553995150232e-01 -2.005769489012007231e-02 8.055527669786295697e-03 -5.405382814776853867e-02 -4.359817875255913439e-02 -5.022128491882429241e-02 -1.870417013657896255e-02 -4.832823954084353169e-03 3.571794731088454630e-03 -1.025838016999148540e-02 -5.363776494846193149e-02 1.391138223113002302e-02 5.462638775679643649e-02 3.842767663696597391e-02 3.729396615381185692e-02 1.063270534011194306e-02 7.741414812103381352e-03 7.959082562830958191e-03 4.387064769388642621e-03 3.724673645438180553e-02 3.880211111244721844e-02 2.911632271602743183e-02 2.535654470914195172e-02 -5.317461583071718401e-03 2.768624119689772067e-02 1.578567736406804103e-02 1.313465289290130511e-02 1.001660762121550120e-02 -3.298306400330355825e-02 -5.196356751194627921e-02 -8.419995783174075155e-02 -4.037474458812292943e-02 -3.744851773636335979e-02 -1.723190082779847004e-02 -1.358353199930350044e-02 -3.788522193257150283e-02 -2.659441678380834728e-02 -1.599396200046441369e-02 1.128282776034003967e-02 1.907146333555890041e-02 2.901543608387601586e-02 1.391282322368576213e-02 1.316686631124277564e-02 6.657446526870733697e-03 1.244736281302213487e-03 4.788183683035128133e-03 1.182186984005314037e-02 1.528687012262032810e-02 5.201570058791180062e-02 4.054040250021801600e-02 4.978010590915265404e-02 2.417015616945290477e-02 3.847582584972746023e-02 1.729823889046684660e-02 1.647184437291252315e-02 -1.099721704046029494e-03 -4.162137810270460925e-02 -9.423527149627584920e-02 -6.970576588125264317e-02 -2.058586014648796161e-02 1.103453252309135289e-02 5.185153715833512762e-03 8.884712955744607926e-03 1.790725208753060280e-02 -3.536513066088695523e-03 3.125015174736678336e-02 4.132489466634765157e-02 4.318858033236995519e-02 1.375719497770210367e-02 8.629329571955356160e-03 9.589269159245536120e-03 5.694729354384015126e-03 6.819789415151728679e-03 2.688040834053939242e-03 3.765368383167183152e-03 1.272221797207510711e-02 3.702922774543334489e-02 5.533391052362807844e-02 5.266863978989459738e-02 4.501792983611745819e-02 5.291103204042481994e-02 -1.811927838393919202e-02 -1.959109799923497430e-02 2.799646414898223148e-02 -4.360036348373153708e-02 2.300452134254334785e-03 -1.121779097296645225e-02 -1.242289312754194658e-02 1.478483592636833585e-02 4.691630757328876106e-02 4.005458701890503292e-02 8.518205667054382091e-02 7.993120112659610199e-02 4.298919782547241941e-02 3.460821723135633354e-02 3.050324662137443230e-02 1.619046308040218707e-02 6.377289112639952448e-03 6.514253933679661594e-03 1.061233698091443127e-03 7.894916726750040442e-03 8.121213779702866897e-03 2.541869691856355612e-03 9.822605484146363503e-03 3.899583812318487691e-02 6.617008949702836429e-02 5.987057396642091883e-02 6.885118573398674169e-02 1.514952320623556316e-02 4.535017286771913375e-02 2.810772747449233680e-02 4.279540422412208417e-02 1.740623540057528382e-02 3.320217487768852005e-02 -1.104663876672097415e-02 1.672150886099142697e-02 7.621209189146029017e-02 7.503103478267789117e-02 7.468396111921266067e-02 3.687016804151777710e-02 2.610369570669280465e-02 5.173481567319661474e-03 -9.273063818790587207e-03 -5.199651794366453271e-03 7.668178601792448659e-03 4.684527144719981620e-03 6.489599473677167343e-03 7.308725264893593462e-03 4.914347935690507180e-03 1.213288247386434121e-03 1.464228702842452568e-03 8.968973755981985221e-03 2.702330796024519574e-02 3.632801195936084110e-02 3.449596782101805453e-02 4.252327704164429040e-02 1.413975928726354109e-02 2.407039272823792778e-02 4.634231939345973689e-02 4.866156400307309476e-02 3.535629946515980032e-02 7.229206016411900138e-02 8.864933233273243618e-02 4.618517243528452720e-02 5.025295664921927696e-02 9.469710747352056215e-03 -4.802937538381355301e-03 -3.897397719178705144e-02 -6.025777684122524125e-02 -6.916117723095487058e-02 -3.465978556832009783e-02 -2.153169807620725421e-02 -4.864049650711778361e-03 7.743846128176536635e-03 2.401847528104435539e-03 7.123009783663541636e-03 3.155220247490757302e-03 4.487478314536639395e-04 3.956102263765229679e-03 1.075529751593490291e-02 2.156718690111849440e-02 8.932341973648416991e-03 1.556041660336228080e-02 3.030030872296275019e-02 3.593355206398496371e-02 4.046770917777404303e-02 1.655302460490171157e-02 3.892187689704412756e-02 1.121686553831410197e-03 1.857496278746329638e-02 7.039713325714380340e-03 7.769238284027941283e-03 -4.262724118371291615e-02 -6.407801286433785493e-02 -5.749233143030176019e-02 -9.083714217435914784e-02 -1.090785606228262122e-01 -7.992411655069012189e-02 -3.381866413437467633e-02 -1.583373818402205799e-02 3.744708624496699383e-03 5.452888417943126641e-03 4.062542098566478480e-03 5.350217084220454389e-03 5.168205568532845302e-03 1.882613122605476114e-04 6.424686679947291812e-04 7.668301599435425539e-03 -6.274102174536914586e-03 -1.043558279119244890e-02 -1.449262220679925842e-02 -1.759449489971954064e-02 -3.328940991497540691e-02 -4.176897262050114495e-02 -4.793810223477340537e-02 -4.221705653156871546e-02 -6.493890366176464923e-02 -4.832688018393732632e-02 -8.500931925298355063e-02 -4.380774026177841618e-02 -5.269894121278474730e-02 -3.772434940109752055e-02 -5.537545218987722367e-02 -4.968610293496439345e-02 -5.050120496905238787e-02 -2.253574652767936781e-02 -2.351667250059028165e-03 2.389381810897550813e-03 3.771944292037013226e-03 2.978311883598621767e-03 4.953624582248305347e-04 4.433525256287768578e-03 9.963016872220712208e-03 1.834974781156212265e-04 9.017321883919930323e-03 5.131475798258295327e-03 6.643285224350352174e-03 1.827710733833311793e-03 9.575406145486803008e-03 -2.253374659679944491e-05 1.184517371626505776e-04 -2.509302654179348209e-04 1.436525520091301101e-03 4.950840215992578612e-03 -7.061483875023147165e-03 1.236767733775490270e-02 -7.809057224593504709e-03 3.520830048904821565e-03 5.920587017727020965e-03 1.083720073777269186e-02 7.173696732443381359e-03 -3.489466808667358649e-04 -1.168922556030843954e-03 1.605320078163490144e-03 9.537359261964771517e-03 1.656100067124142809e-03 4.624292282395477995e-03 4.241921862911513137e-03 4.071198103698023089e-03 5.297909630784917306e-03 4.835541088453874092e-01
3.230877220465206041e-03 8.964036757424780760e-04 1.632397850222632590e-04 7.739992590203139192e-03 9.216043330031967185e-03 4.811636085009935067e-03 1.412798031388757744e-03 4.609089934453611953e-03 3.843295005762170299e-03 2.155043544521484042e-03 9.336675460456949488e-03 7.830455908371834403e-03 1.378803367217744337e-04 4.253349038896014900e-03 4.293903556489565322e-03 8.575389795865782233e-03 4.029830752896381395e-03 4.997852348218679262e-03 6.943925296143610600e-03 7.630633496135876687e-04 1.356118471142191140e-03 2.056234543456237143e-03 6.885342545481388382e-04 3.131144844563007838e-03 2.728509356844550926e-04 1.159232763464086713e-03 4.545494854963673392e-04 9.572537997861072304e-03 8.129245064242543797e-03 4.550623605167975795e-03 7.188833617670168860e-03 3.044076596328163659e-03 4.174733217734099763e-03 8.301324149650162604e-03 7.828439086846147865e-03 1.658508054249694871e-02 8.721066560963707318e-03 8.127026526762306385e-03 1.033906767394315342e-02 3.833988501250529778e-03 1.768120399289927619e-02 4.824602024795455503e-03 2.759267573293475509e-02 3.347937060168693774e-02 2.321130751329985881e-03 1.337138704890924318e-02 9.172759593593671559e-03 6.032943164351158363e-03 1.247915053180659491e-02 6.007060537376630004e-03 4.971473520112685250e-03 9.957728856836300588e-03 6.893002361083192496e-03 1.684736165106219541e-03 7.677315397856973589e-03 2.664912259179681372e-03 7.865543458731310764e-03 3.500108710330907848e-03 4.735342835282399694e-03 4.701819938055828204e-04 7.250745109654068224e-03 9.549819573842977666e-03 7.658467742206079114e-03 1.014361062043496117e-02 1.240036400395845562e-02 7.757236280927564884e-03 2.657004388975343565e-02 3.156123596251206309e-02 3.957344234052070919e-02 3.594384232221366909e-02 7.114702072794455712e-02 7.411773170492924612e-02 5.060394696522952512e-02 6.825147871055053939e-02 6.859535138161425294e-02 4.356975535480898942e-02 2.048506479278103601e-02 3.903225938888233403e-03 8.763065002206513188e-03 3.928669050046201643e-03 1.057395816896673259e-02 2.475585314508001004e-03 1.088871623753831508e-03 3.809313567488266383e-03 2.945129822575351906e-03 9.821673746119013310e-04 2.347337717280333774e-03 7.103060160352515570e-03 2.266436463832634772e-03 5.654709077365361464e-03 9.351186596735481388e-03 9.171374545702621478e-03 -5.289350237913536049e-03 -1.864360252131240861e-02 -2.726306686564388630e-03 -2.427387285548527132e-02 -1.967370636107915530e-02 -3.338857789212724969e-02 -2.106205498944978965e-02 2.773795602080549386e-02 8.056740433169026425e-03 8.535040938640109029e-03 2.004509996420496612e-02 3.743400567389832539e-02 3.777223355407343525e-02 4.290645579708549096e-02 2.620496328070088046e-02 -1.232761100618851599e-04 -2.430632589358708382e-03 1.147910691164694998e-02 9.010320018259526317e-03 4.221564006989269105e-03 6.404932133172038834e-03 4.390282726823707682e-03 8.893093873127838611e-03 8.130282919612201020e-04 1.310980705273807943e-04 -1.345792675412606394e-02 -6.716468008797125966e-03 -1.435496298060650634e-02 -4.901994792765455855e-02 -5.396847619223747033e-02 -3.449511959978035502e-02 -1.553457572437443208e-02 -2.253599483189758224e-02 -5.152090250426517859e-02 -1.964345351365428399e-02 7.131628339637990574e-03 -2.184897772764319776e-02 -3.110202721069562845e-03 -9.975405325507153906e-03 1.280911032324793045e-02 2.622581765612142651e-02 9.021288458739534777e-02 9.513389830223582810e-02 7.777223098309977989e-02 4.497312886673374838e-02 1.967301507783396006e-02 1.020663906875148193e-02 4.904361332698945093e-03 7.527669554765331617e-04 9.921104339740085057e-03 6.897880761234215750e-03 -1.302956807834289125e-03 -1.816592000099490414e-02 -3.686645857513853181e-02 -4.820579504412803029e-02 -5.351590116044526585e-02 -7.176493173981357554e-02 -2.725923291825464376e-02 -7.809254151982175651e-02 -6.139976173593354736e-02 -6.565843509177020365e-02 -4.385998261882037563e-02 -7.008045167623207228e-02 -6.593015407365830638e-02 -1.103765064804382856e-01 -4.798547138793785721e-02 -3.137286168613947351e-02 -1.806095009391591247e-02 -9.727931451696805384e-03 1.930916777719813085e-02 5.369087669345483371e-02 8.123137567357470445e-02 6.205740670440429430e-02 2.348019883290580062e-02 1.643043929714417192e-02 1.127497566508132293e-02 1.603249067280829512e-03 3.597380201983020435e-03 6.028908879740730274e-03 -4.126053429861881519e-03 -3.524506072717927679e-02 -5.455564915240902063e-02 -6.374692313572054292e-02 -5.024603103458792630e-02 -7.423654512588034882e-02 -6.624207628436609707e-02 -1.724357065124677499e-02 -1.722655650599999241e-02 5.041348517983333492e-03 -5.431159717559870537e-03 1.354174601513215628e-02 -7.428274264407576898e-03 2.041542147569691632e-03 2.106914434637491632e-02 3.990112543332609285e-02 6.141064262165347315e-02 5.963600254917736376e-02 2.991083027837155607e-03 1.348100566907823109e-02 6.828306392494447319e-02 8.758804072084573622e-02 5.512401596446521446e-02 2.033265045222372447e-02 7.223188263524654533e-03 2.794844673331629923e-03 1.066840692622544060e-03 -1.035211080800675903e-03 -1.994376525144874596e-02 -4.839085069850209558e-02 -6.305513072554946863e-02 -4.859394398165085838e-02 -6.091751239930966871e-02 -8.304337149001077278e-02 -4.114873824998181023e-02 3.989937212333324358e-03 -1.716397938276750454e-02 6.740287129580782577e-02 -1.629502498304888705e-02 3.684157416024233522e-02 4.958376798095902316e-02 5.694833601064507728e-02 2.030715205736228698e-02 -1.891942953135633109e-03 1.854338616425866421e-02 7.197384492347987106e-02 4.986186121427071960e-02 1.374484348687476237e-02 9.707865186520786560e-02 1.183333616408343281e-01 7.920198936192472672e-02 3.158561415156030394e-02 8.900197790029913333e-03 4.283889148253325341e-03 8.849157576875049322e-03 1.513622138367415500e-02 -3.404017028141598927e-03 -7.574627070793683858e-02 -7.698234880526011459e-02 -5.667879976037835639e-04 -3.476128108848947074e-02 -3.147664979784804695e-02 -1.225971477884255437e-02 -4.024952207092841877e-02 1.341708114169613310e-02 -1.187012738171296621e-02 -6.362060660509680048e-03 3.965075957153899738e-02 5.775439419823061304e-02 2.197599887385761480e-02 1.406032701406581542e-02 3.815400683975531809e-02 4.430699789616049378e-03 1.450172119607816279e-02 4.891955958193856119e-02 2.316444887528536917e-02 1.007070321774239247e-01 1.486075494544220887e-01 1.046114636623578092e-01 3.717509074070896036e-02 9.929759070151828598e-03 1.422996487518733656e-03 7.536568886434683902e-03 1.375460803220693133e-02 -1.056007527413805464e-02 -7.595279345150068862e-02 -5.350487312836775533e-02 -6.049516879204534271e-03 -5.294125545699773089e-02 -2.740510143836124776e-02 -3.364616009845289996e-02 8.318775989322995529e-03 9.346928542327635758e-02 5.660796455010980860e-02 2.096807850912732821e-02 3.723743480117668730e-02 1.228194018604018660e-02 -1.643208457984832171e-02 6.726897950412044115e-03 -5.878967036805065639e-03 9.673329740490623288e-03 -1.703974401568312397e-02 5.505539080614239855e-02 5.536271635925561069e-02 1.199540520365437041e-01 1.912110553937450275e-01 1.261013436992322878e-01 4.439685916024620899e-02 4.222790348987343068e-03 1.001683125416383442e-02 8.554264146511387015e-03 1.345255975550297377e-02 9.138718643582779619e-03 -1.061491743730712083e-02 -3.151875271940592083e-02 -4.419803423000198683e-02 -2.410261748116232158e-02 -4.848083012001648366e-03 2.189801133734240249e-02 4.837308446284088737e-02 8.887419669367238595e-02 5.942303125083091969e-02 4.860705655437166234e-02 8.093676566058628785e-02 4.512086205227242713e-02 -2.352377006737657594e-02 -6.005164338701983462e-02 -9.185759829201814441e-02 -6.917227753234968246e-02 -6.950611186003108344e-02 -3.879381242282105985e-02 2.974180001819429556e-02 4.058137998618158160e-02 6.966961113636283009e-02 9.596665964065115295e-02 3.650505321841705092e-02 2.685667936833831954e-03 2.445958354958866366e-03 7.888362993232051184e-04 1.498990008878266396e-02 1.831916325509612073e-02 2.352529512014672405e-02 2.031539346205047877e-02 6.996751818763018160e-02 1.512458263260709479e-01 1.547190841254362237e-01 1.083105760879204682e-01 1.274576151684898018e-01 1.084381552420242145e-01 8.679006483784978965e-02 1.609629748861458598e-01 1.654320990117912338e-01 7.251748404970732864e-02 8.791374674702357589e-03 -4.351661480932747343e-03 -2.661766159952806687e-02 -9.587154693677107931e-02 -8.071694992358367793e-02 -9.317722911706896594e-02 -3.898989066174048113e-02 -4.613704910668620096e-02 -3.942843803492211696e-02 4.023073726042229736e-02 2.346208603162180592e-02 3.243732920877460697e-03 2.551209497430047702e-03 2.701893769883612940e-03 1.205423999007915192e-02 4.315910645173223065e-02 7.155194165524222938e-02 1.376744418338446962e-01 2.040363753367794020e-01 2.147847224219320561e-01 2.020844580189110340e-01 1.588445759133147173e-01 1.443243062292902945e-01 6.540128298165663601e-02 3.035846034125869869e-02 1.528152814954338856e-01 1.513794446091860924e-01 7.155307731398233284e-02 -3.609801815140045462e-03 3.196132426145214395e-02 3.079066298044842720e-02 5.188128653008419224e-03 2.353075720705590998e-02 -3.395467409622583005e-02 -1.842405350892813154e-02 -4.002223993447746181e-02 -1.048699805897508469e-01 -1.623987670994142540e-02 -4.206597701465160551e-03 4.175359793745321221e-03 2.225258210993211107e-03 7.346497025969713802e-03 7.769848364118102195e-03 4.646024810274371197e-02 9.710058185465746117e-02 1.894334956663095704e-01 1.836144624453938667e-01 1.629429974515857471e-01 1.376456367551455451e-01 3.536787676073637615e-02 -5.288347900632008741e-02 -1.432374748875131151e-02 -9.385612857493313976e-02 4.836300316844504427e-02 4.351415213618276684e-02 3.660514898470272616e-02 -2.146484142407213691e-02 3.214965007263933389e-02 6.279708312019613653e-04 7.365703828047813484e-02 6.554476040344853205e-02 2.217346256188516482e-02 2.293593964489338763e-02 -6.880505295339348071e-02 -7.163090471421609817e-02 -3.783867767609635363e-02 -7.222552884689613373e-03 1.158931883503225291e-02 7.115118182258489687e-03 9.190629206519267472e-03 8.358855449467577844e-03 4.666578183786146417e-02 4.710956067362911254e-02 9.215884384711123256e-02 7.805515534344485695e-02 -4.245601314938421411e-02 -4.840064764317061896e-02 -7.215192130223800626e-02 -3.274001647633091594e-02 -4.692174338133266176e-02 -5.668217206480464371e-02 2.050939016637777848e-02 6.365755964667832445e-02 3.342464059049980729e-02 -2.493295395977304652e-02 2.601741490042570187e-02 -3.761278306592129306e-02 -2.141128580268941012e-02 3.484715114418580201e-02 2.524189194922752538e-02 -4.540818427382726716e-03 -4.572210093864199215e-02 -6.052423092903130852e-03 -3.434737555391015329e-02 -2.352257081267407346e-02 3.782595332707334047e-03 6.269084384826257086e-03 7.849161625174650228e-03 -5.812690783487134974e-05 2.019339268950092608e-02 3.116582434906569124e-02 -3.383642186198195650e-02 -6.011370416621514279e-02 -4.226497815386118934e-02 -3.141934572866979247e-02 -6.076804791104845754e-02 -3.084075510916980956e-02 -1.895564811266764460e-02 -1.641587287084885285e-02 -2.031084084984083674e-02 -1.523445775581768087e-03 -2.369246353097818544e-02 -3.043728988510464775e-03 -1.615480231227479913e-02 1.819059037794037298e-02 -4.913862360838968518e-02 4.949962888180232945e-03 -5.125368392240928217e-02 -4.187819401246352380e-02 -1.553819083369277661e-02 -2.770473426553569582e-02 -3.734046346218356655e-02 -2.823906504956167837e-02 3.272819461842536599e-03 9.134262058601086420e-03 4.906085862551048081e-03 1.314426770915647340e-03 -2.383001941271931101e-03 2.398352666320747312e-02 -4.439772416320880710e-02 -1.368813371567396964e-01 -3.938996257396710360e-02 -4.053546263609232592e-02 -2.065036177956263569e-02 -1.697924875173720261e-02 -2.365916667401182436e-02 -5.491122285657561858e-02 -6.076275610477843009e-02 -5.070619908428794162e-03 -4.590992809723932772e-04 -3.184103731316688390e-02 -6.096387846853943554e-02 -6.359039707068143976e-02 -2.136598150875161292e-02 3.225532266818209159e-03 -9.823061261317131421e-02 -7.980203132288392343e-02 -3.198406040653139354e-02 -3.657818348351976612e-02 -5.393918773625357849e-02 -2.798370341009790915e-02 -2.282760937004116655e-03 1.400770265724845740e-03 1.881535690285258142e-03 3.086272933032349879e-03 -2.295774415254329959e-02 -2.134271346990294568e-02 -7.718578985098040190e-02 -5.941940583119705716e-02 -1.522756227578054428e-02 -8.732381442054476528e-02 -1.376829270139769655e-02 4.890542793979794217e-02 8.279909774893465246e-02 4.818232566417429003e-02 4.970517565574750045e-03 -1.830182693206008210e-02 -1.547948841709979179e-02 -7.805899915096253805e-02 -7.342801578663105122e-02 -1.219002820968243667e-02 -1.249724355236212642e-02 -1.710667071992275079e-02 -7.473589428397982119e-03 -4.973487235597608136e-02 -5.240968297922045382e-02 -3.017955097129531791e-02 -6.199574324504578821e-02 -1.972449232251260315e-02 7.102908053669648811e-04 2.064701326425815581e-03 8.145094243206784865e-03 1.406750412876250564e-02 -2.555610155344872209e-02 -2.017166448298956041e-02 -9.222782080742568389e-02 -5.863792889017240689e-02 -7.289626418968492283e-02 -6.408955611855424173e-02 -4.175683516457567857e-02 2.522580791587796314e-02 8.737898310460424922e-02 2.889803951145794580e-02 8.169978048572579254e-02 -3.242649134236704443e-03 -4.238722344165993250e-02 -9.241922941889688103e-02 -8.434362330808176794e-03 -1.436027447979490272e-02 -1.267085514565399404e-02 -1.779306597643102788e-03 -4.965663572869418591e-02 -2.643946545292914091e-02 -6.801510568509955279e-02 -6.365636743403577102e-02 -5.053106742023093928e-02 -1.264917888696765380e-04 4.020615171958979994e-03 2.546689084144348157e-03 7.483682210803551012e-03 8.003134339921882598e-03 -3.504576588159765554e-02 -8.400965390947073147e-03 -2.288372780591770711e-02 -3.062736698710365885e-02 -3.609226701277324506e-02 2.730572891277166861e-02 -1.100272314985896102e-02 -3.649785152046473163e-02 -1.641375908447808771e-02 -3.636749002371439388e-02 2.194415588882540208e-02 2.057651588697388678e-02 2.892617626930324773e-02 4.549902336021762915e-04 -2.172796622993735868e-02 7.001847450812682602e-03 1.306490071980003984e-02 -3.507112189137694819e-02 -5.526394546194725310e-02 1.175990903539510246e-02 1.207815340263785481e-02 -4.152122907539158858e-02 -4.991998464993635531e-02 -1.230069424082683681e-02 5.337894624753831280e-03 4.896874545258778078e-03 8.024183374905019192e-03 1.091894408713073441e-04 -3.852018753631556575e-02 -4.807885907116041940e-02 -3.224958626344633095e-02 -4.993625717931791941e-02 -5.355137988942186567e-02 -1.665436547240519566e-02 -3.083387488652013925e-02 -3.338533812451258131e-02 -4.193852038663687526e-02 -8.924757927455038292e-03 3.124100960062857826e-02 -2.968317733773228467e-02 5.421114455392614558e-03 2.382869434895684355e-02 4.186289791769517987e-02 -2.935679381311121980e-02 -2.933927540240641521e-02 -7.948127971387611984e-03 -3.528046271965586123e-02 7.870152851224183205e-03 -3.954339698740696324e-02 -5.438480255526251250e-02 -2.056110168931446838e-02 2.513453448706952798e-03 9.483447223167346465e-03 2.046836527515731412e-03 5.576556233119141269e-04 -6.783716993301060726e-03 -2.504825903960813255e-02 -3.452933616044627247e-03 -1.667504276811974939e-02 1.556160928805077129e-02 4.277093102102415972e-02 2.370340946982006647e-02 -3.273439695287210655e-02 4.100791389734436028e-03 -3.378974459244837858e-02 -3.423360756588332554e-02 -6.502550430825057223e-03 1.109564697943018000e-02 3.183618401806301290e-02 -1.518308988753608833e-02 -1.620442502464111006e-02 -2.685506291639601362e-02 -2.402403050790113612e-02 -4.727901002822450238e-03 2.806619418419630321e-03 -4.320044497399752603e-02 -4.403158703797270535e-02 -1.606241936196511205e-02 -1.140973647770204651e-02 5.188823762046363038e-03 4.924638384829218250e-03 7.726463340648558227e-03 8.316436299262604248e-03 -1.145104999489243019e-02 -3.667661899601417502e-02 -3.854973961038615088e-02 -1.688255688196303728e-02 2.001027846358899038e-03 -3.814376389740536943e-02 -2.106213318536366910e-02 -2.822958890598760776e-02 -1.438317958839978490e-02 -3.841997902169426438e-02 -1.931953275646285800e-02 -4.325008795247563265e-02 2.603490875553112274e-02 3.649686003604651809e-03 1.742054477888087954e-02 1.320973681040033681e-02 -3.299913584861818502e-03 -7.016666696435783224e-02 -6.266144819717990588e-02 -4.986890233717201915e-02 -5.448150936377278014e-02 -1.254521468689619688e-02 -9.792602114441452052e-03 -7.355000387653073263e-03 5.824290072510517752e-03 6.483061081052953444e-03 4.047427723928758228e-03 2.369643085893685663e-04 1.893006001363349133e-03 -2.619707763549914206e-02 -2.887740146070105762e-02 -7.538625796261354782e-03 -5.110139886563093425e-03 -2.551177029742152449e-02 4.027256537196907682e-02 -3.345773075808545442e-03 1.495444260568375670e-02 8.100135283065556732e-03 1.707185575300642841e-02 -4.622093245773617465e-03 -1.246739276681205905e-02 4.357236714683914054e-03 3.358626728853663507e-02 1.315562864531652151e-02 -7.622597477859018034e-02 -9.105190168375908166e-02 -3.675546021301220878e-02 -6.835118246756206883e-02 -3.738185027540619904e-02 -1.188655345217896030e-02 4.501660439400106788e-03 5.394551528993222090e-04 6.598906233221978924e-03 4.410704135019913319e-04 3.552258455984781162e-03 7.697515616778295364e-03 6.886357628111174252e-03 1.720001516627751859e-02 9.565412398301650909e-03 3.214707498977998484e-02 3.502939896471363862e-02 5.073930638749387300e-04 -2.538752665896632649e-02 -8.573112456489860589e-03 -1.948378692646292668e-02 -4.482182714640429999e-02 -6.374666865098665633e-03 -1.786759736243358210e-02 -4.192051160422145817e-02 2.548632373215654022e-03 -1.008140005281484182e-02 4.744322475113064291e-02 5.257740615485587132e-02 5.679997401089197789e-02 6.077198549388511395e-02 2.362765849822866249e-02 5.105556207362104727e-04 6.081924882579370535e-03 4.653826032028884549e-03 -3.237328834631498283e-03 4.602003722176200261e-03 1.293454555514111579e-03 8.299796006887745492e-04 4.258620119512214648e-03 4.494640425308327018e-03 1.768175712237069278e-02 7.221977474552621241e-03 3.429541028721582591e-02 4.421659559696800718e-02 6.138412744496421491e-02 7.941905201533097647e-02 1.040101366672524508e-01 9.478464050886424574e-02 8.538125867668713842e-02 1.070877386446883461e-01 8.790184513644024034e-02 7.264099529450941672e-02 1.033364685522259463e-01 1.259042080855792556e-01 1.348833242391572762e-01 1.355059873446819441e-01 1.347649810967281869e-01 1.086387031348658161e-01 9.222587994923477084e-02 5.828761103346981332e-02 2.877986980362298372e-02 8.511416153479648208e-03 4.810782900968452180e-03 2.992429490593439363e-04 3.900673728005972681e-03 5.666235670401773526e-03 5.037110592687873631e-03 6.959393482494427574e-04 9.915761349126587382e-03 1.467790859464277765e-02 2.040244670785601108e-02 1.805169621862041593e-02 2.519899776229108865e-02 4.055179658997498660e-02 5.512042258187439814e-02 5.623521724717017722e-02 6.801443699831219436e-02 7.854569746934476904e-02 8.505622481221906950e-02 1.138651244330174950e-01 9.849127144718426707e-02 9.322568663440485015e-02 7.489038976019722627e-02 5.840988145324335634e-02 4.386442721164909159e-02 4.243599730900408235e-02 3.096224572372363246e-02 1.766740589556316243e-02 7.912136889041129079e-03 5.695840462472688591e-04 9.372504005934867433e-03 2.573698171940986754e-03 3.173369040033034716e-03 5.241742852791973946e-03 6.994061352655045125e-03 2.212682635091711529e-03 4.275292244178525471e-03 6.545448397828571453e-04 3.444090972926077288e-03 2.904209849568916129e-03 9.566650844066071704e-03 4.746561680878050825e-03 1.003005238662743430e-02 7.991179822702547744e-03 9.677440471261357022e-03 1.144072988322998759e-02 7.534936889503028416e-03 1.962482520004017045e-02 1.157105808971779434e-02 6.093834850792891229e-03 2.404006848053568540e-03 1.034434651099971902e-02 1.612276747571216723e-02 5.453447974612677177e-03 1.692714066378178889e-03 1.065994489047694324e-02 4.532678294490509290e-03 2.512065660579213683e-03 8.657107906348750215e-03 3.054318478960364736e-04 2.863122766708130207e-03 3.032323948295400085e-01
7.658987981548877680e-03 7.452969215478473866e-03 2.311623059662212300e-03 1.220933111605166516e-03 9.556393569529093857e-04 9.160335242767589370e-03 1.495952983846401962e-03 8.398459682759342598e-03 4.463667043017419643e-03 6.220576977690735025e-03 5.611812378888448270e-03 8.849259103444334640e-03 4.762244938785700765e-03 8.798346662993169337e-03 3.859531694238623866e-03 1.187753968152923875e-03 1.055476744747773504e-03 1.434667798942470054e-03 9.135458342053860009e-03 4.604772499822205357e-03 5.075551105952980958e-03 1.694471092667966527e-04 9.143338975592671738e-03 2.272431108511283396e-03 2.102422912486226828e-03 2.619120159498370196e-03 3.046827540175321355e-03 4.226614221366571840e-03 2.411676497290959030e-03 8.488917952264828093e-03 8.843238419392905614e-03 4.068326563044771110e-03 6.975245738891791211e-03 1.583560019269272725e-03 3.717365001709355566e-03 -7.235389789852123867e-03 -4.450776893253476432e-03 -4.086530455497114529e-03 -2.201281851620587662e-03 2.890121000373510086e-03 -1.128133434842268530e-02 -6.087114305902610774e-03 -2.972646143173944284e-03 -1.240083696299864452e-02 3.075607384451124748e-03 -1.258685812105476021e-03 -3.692000042335542376e-04 8.963852786527313999e-04 3.238718792466339751e-03 1.752222660471100448e-03 -2.262777095113142727e-03 7.131100557233448645e-04 1.062836846744300706e-03 1.210686400126637433e-03 7.564460014557430195e-03 7.756030137109292365e-03 9.863310323558924578e-03 5.552447815326576504e-03 5.679549199628742238e-03 6.961826785021706446e-03 8.122360749286667778e-03 7.658589380815532255e-03 -1.344305765534838061e-03 -1.741935969641339454e-02 -8.400562672492371125e-03 -4.755434527831998819e-03 -1.763318341193665165e-02 -8.634765839794927150e-03 -2.594159062587982414e-02 -1.407754424628946711e-02 -2.192209562816132065e-02 -1.076053078049201035e-02 -1.007068736658210326e-02 8.670143272081724936e-04 -8.868458144560366352e-03 -1.665247045181317796e-03 2.499404029579637126e-03 7.990114100719269280e-03 -1.246859656889368539e-03 3.268651688659911236e-03 9.543450351618992800e-03 4.748388237293321365e-03 6.463433983345655970e-04 9.427980741735569534e-03 8.332709455412801863e-03 4.253757279101120191e-03 5.077275191581758287e-03 2.864195942013819315e-03 1.067078801388579232e-02 7.496831482952197138e-03 1.397662542329519437e-03 -7.313061823497734454e-03 -2.591202091003906149e-03 2.698262692088910369e-02 3.253959787231301692e-02 3.871792830796730311e-02 5.320111373801538965e-03 -2.469083188478715229e-03 1.892700235575666551e-02 1.765815891404401081e-02 2.463055214971396345e-02 -1.199389225215089123e-02 2.793818287323491037e-02 2.576081431499745514e-02 8.320420048348818251e-03 1.333473292423166708e-02 1.138111047680855081e-02 2.274343488112863174e-02 1.394292421055418063e-02 3.304995822063144795e-03 6.711428029645370545e-03 7.249165877822316695e-04 9.130155732322453588e-03 8.318492341401443821e-03 1.306802964967994536e-03 7.859237305123379508e-03 1.223780716934023613e-02 1.693978064143060458e-02 1.945547397099887249e-02 5.634388374090901208e-03 3.621467190481925807e-02 3.317778203639846352e-02 -5.387717855356936522e-03 -3.251903596628340221e-02 -4.444525085969441153e-02 -2.595994634529935272e-02 -4.885391430403716873e-02 -8.144585338651517958e-02 -9.805795835883267947e-03 -1.859835353139010355e-02 -2.185031862779754017e-02 -1.890228641508870377e-02 1.474893415318688158e-02 -1.677151610020509442e-02 -1.467601343330267837e-02 -4.739436829612253543e-03 -1.454134168421588637e-02 -4.062233454592624991e-03 3.315533792250316848e-03 2.800812277436102917e-03 9.951906565576030400e-03 9.202280489078033462e-03 7.820276401446245307e-03 1.391015533950408674e-02 1.932853254141448165e-02 2.710945316205810515e-02 4.307375023892369426e-02 5.852024320975436622e-02 7.619921995324895059e-02 3.930803936123146436e-02 2.495326034743957158e-02 -1.656531550547619362e-03 -1.052663462427714039e-02 -1.805887180306979187e-02 -2.270977146605754685e-02 2.161910365304696435e-02 -8.569769188331013629e-03 -2.659027466186657598e-02 -3.746312690104876275e-02 -3.743780378432450678e-02 -4.301300316170397764e-02 1.610792438460117992e-02 -1.668703389064083581e-02 -1.214720094555014201e-02 1.082564743372284137e-02 6.333023910489728008e-03 -1.115871567322670142e-02 7.744068698835046907e-03 8.254688007446022574e-03 6.983939046870605693e-04 1.084908753002771474e-02 1.358599868480166693e-02 2.589956710911008736e-02 6.509907116484822676e-02 8.312200060357209652e-02 8.824326278928575074e-02 7.922177816991551880e-02 4.782500567391304025e-02 3.473854446631922943e-02 1.440560331396137372e-02 -1.978188616334469047e-02 -6.182927779293145160e-02 -4.115511450293296569e-02 -5.835200045414067754e-02 -2.367894975264783070e-02 -2.130118867053891127e-02 -4.226115601943677275e-02 -3.436518318670008648e-02 -3.241816767327859033e-02 -1.696008552745340361e-02 -4.656199083972872681e-03 -1.967823276284656753e-02 -5.902982609998833063e-02 -4.514769972101233958e-02 -5.437862256332521953e-03 5.883917213697523012e-03 6.367342767303871276e-03 -2.580045464620163952e-03 2.105612400618361163e-02 3.616990325352613389e-02 6.915032788858226087e-02 8.690678749301754269e-02 7.686731465682705711e-02 5.861829954487766253e-02 3.191780210399786100e-02 4.021197809877623264e-02 7.001892359527559645e-03 3.351149520617825034e-02 2.650380246593269599e-03 1.477011488695354445e-02 -3.929392798075239529e-02 -6.733019674245253883e-02 -1.703048796592696035e-02 4.233010044599554676e-03 1.078218403572468211e-02 1.151197940761447026e-02 -5.065102010449638870e-02 -2.977374374183025876e-02 3.043332692788965760e-02 -1.548966975351847783e-02 -8.595542436636854911e-02 -7.317928649174673672e-02 -3.567764232627759682e-03 -4.326198542171137695e-03 1.622483019299943022e-03 9.388080453160705177e-03 2.498625236305440644e-02 6.153205950738738911e-02 9.256496044035250614e-02 9.637892949254797670e-02 2.569494720479262306e-02 6.009635112535343521e-02 7.598597770626926151e-02 3.974949744960103171e-02 -2.395086766244164302e-03 1.101207863479711875e-03 -5.215911448625456387e-02 -2.165728626109606012e-03 -3.175096330411035506e-02 -3.280381107112418509e-02 -5.473235463784485721e-02 -3.434574844617306610e-02 -2.969664506281942742e-02 -3.418842622787396368e-02 -1.308579929758121223e-03 -4.263030045091015241e-02 2.026436209134930069e-02 -1.426749234286818664e-02 -1.086093342057980610e-01 -1.154931058477326605e-01 -3.635377668082564323e-02 4.557651606702303217e-03 9.024661824593559895e-03 3.182430394831035902e-03 2.775662459273209662e-02 4.610750755541254131e-02 6.855685359317272021e-02 7.921952362126814806e-02 4.491573124777087540e-03 2.047405308890531614e-02 4.590242347971117652e-03 -1.226788314788196735e-02 1.521222087860372822e-02 -2.586726531752664079e-02 3.789904869109406160e-02 5.990227528266238444e-02 4.102202627358859932e-02 4.196615861766608835e-02 -7.740562031878503620e-03 1.642555640898241132e-02 8.837733047467970487e-04 1.455009309978956382e-02 -1.965107038302231490e-02 -8.756722211842976611e-02 -6.192821060976572145e-02 -1.268576722204384222e-01 -2.340595327517863977e-01 -1.595518085918416762e-01 -5.115425211551898055e-02 -3.494572766135767283e-03 3.576608481542184817e-03 3.959973982235020194e-03 2.265342831217248207e-02 2.448206015648913061e-02 3.098452350992654536e-02 5.374978431146766600e-02 2.326186559099809731e-02 -1.075908206471146156e-02 -1.256834188162715173e-02 -1.110329645696254974e-02 -1.245446893264533922e-02 -8.092781833638777733e-02 -5.493199741705924455e-02 -6.251640417772005853e-02 -6.984447331717416607e-02 7.196016072905174477e-02 7.054448840029506340e-02 8.103535191301355911e-02 1.087373060957270432e-01 9.859435511035409549e-02 3.859439208528972487e-02 -3.042630324163875591e-02 -5.877955518181125771e-02 -7.580409402206945979e-02 -7.941039145601906657e-02 -1.029277403859918116e-01 -3.192495843279599677e-02 -4.595066337609815185e-03 6.530539853293937380e-03 7.692796138106902659e-03 1.785212217291894110e-02 3.554391120943783261e-02 4.006135068848169084e-02 -1.607592429031195038e-03 -7.548131744890086703e-02 -8.791730470108168050e-02 -5.471033533395532750e-02 -4.870157693143718769e-02 -6.055135882573930289e-02 -8.165147440501205334e-02 -7.035270252239678168e-02 -2.434694574582374205e-01 -2.161349778951081602e-01 4.641319072056415002e-02 8.691120250434475336e-02 5.034274654374610095e-03 3.874656351561612394e-02 1.410076418025984213e-01 2.329149639668100791e-01 2.694608481223308427e-01 1.710366314233783547e-01 1.257824645492670312e-01 5.693804175459736550e-02 -1.700288937092198430e-02 -1.920878834130916590e-02 3.414296657663424411e-03 2.824586101473912196e-03 9.666401541878240009e-03 1.044360680090644297e-02 1.963778695332621740e-02 -4.452095077137801886e-03 -9.175815948120905063e-02 -1.691032121152698242e-01 -9.566402064622038515e-02 -5.529559206639673291e-02 -1.027220481300605975e-01 -6.804377104187038505e-02 4.438122335939053559e-03 -3.285789340012605642e-02 -1.981890302699798878e-01 -1.669865175250737355e-01 1.232542168536478015e-02 9.371964019798821599e-02 -2.422998971010264027e-02 -2.387676045497396510e-02 -4.865419829292093323e-02 4.196885086818452626e-02 1.854058037479411614e-01 1.792488198116683473e-01 1.115415128744910722e-01 9.127035559252845431e-02 2.370022405279182190e-02 6.365664001467466818e-03 7.711298030787019746e-03 6.266372870197399469e-03 5.716377586901280096e-03 1.254813151702395546e-02 6.507015732769554778e-03 -3.122319352466714805e-03 -6.793875738672114362e-02 -9.767435715150038500e-02 -6.371910160594561334e-02 -2.640602537795564558e-02 -6.441514387110322537e-02 7.747235873276284157e-02 3.212203440385345832e-02 -1.201531995404922330e-02 -1.816979131638450373e-01 -4.694456412464847322e-02 2.436633300507625582e-02 2.453826597156307660e-02 4.705014132914643599e-02 1.934204271401135378e-02 -1.917749405830228293e-02 -5.148610350290009491e-02 1.039815273394439910e-02 1.154761332832136278e-01 1.565929811891557666e-01 9.785845979096020886e-02 4.019846188745966609e-02 1.091434080566542481e-02 4.118993623270692482e-03 -3.713639677117151110e-04 4.453204268096066717e-03 1.365617752225653167e-02 4.772077132124241672e-03 9.528300587320190709e-03 3.679273175126369401e-03 2.590697507011677572e-02 5.793101745313855577e-02 5.562800982905695413e-02 8.434839635240494460e-02 6.540192602147945622e-02 2.844830636394183113e-02 -2.573768556132000757e-02 -8.424362619884595560e-02 -2.558206099269737244e-02 3.877356208426584183e-02 2.309523099524146000e-02 4.398833470583557448e-02 9.595554832988764660e-02 1.337530745312372482e-01 2.736905954013023334e-02 -4.272878072830845614e-02 6.624795396369786982e-02 1.202983293209064081e-01 5.135602230810996233e-02 3.093288623365212167e-02 2.376770965283502013e-02 8.019116352412558948e-03 7.667627370072460299e-03 4.945882602240511986e-04 -1.345685845499223696e-03 1.811770408022563353e-02 9.247253210563324138e-03 7.454479546285350255e-02 1.622881680811336103e-01 9.475561437286314503e-02 6.221139572030474907e-02 3.525304135950612511e-02 6.840196274452316335e-04 1.993787528318665889e-02 -6.551887012771810681e-02 -1.493098228186984754e-02 7.429145693229916893e-03 5.494917895424566989e-02 4.710470658804914029e-02 1.398210269522473792e-01 4.582360634707408065e-02 8.660487630476193521e-02 1.632948626846424459e-02 5.434492411841956860e-02 4.218663468090231433e-02 4.500787896003415056e-02 4.843690694864049434e-02 3.441172994018348863e-02 2.538466132737239936e-02 1.011907125636996897e-02 7.666337116276969454e-03 2.296462526034201857e-03 -9.313353161904963304e-03 -1.114519096235421641e-02 -1.209462585633511340e-02 7.598545437897824550e-02 2.141683871856967514e-01 1.339992222220598717e-01 1.023011768866581434e-01 1.879987645690776865e-02 -2.294113804780082214e-02 -6.446540746693160684e-02 -2.895090074638300218e-02 2.826639533444678595e-02 7.001680135456653242e-02 8.128797180792877997e-02 4.946906396104026882e-02 1.249449303115563181e-01 9.101077318960608398e-02 5.715021281783040641e-02 2.230055780537101417e-03 1.051740762392059103e-01 3.518357513924268848e-02 1.437524841491219290e-03 4.701563015574063142e-02 6.019297410924168840e-02 3.456143104872039934e-02 1.241628911298617646e-02 1.340854437585147635e-03 2.830610816723220960e-04 -3.821869993050599958e-04 -2.887724893829734032e-02 -1.498135676300682215e-02 1.032908602477425469e-01 6.189555486762437359e-02 2.611818404094855620e-02 8.623533111299352960e-02 8.259021602341477808e-02 4.774742238467671179e-02 2.447694468332188913e-02 5.116643706337620223e-02 9.949930543925811222e-02 1.131436780903576356e-01 1.062663826927930655e-01 6.319748080524986711e-02 1.017451940112324149e-01 6.710113798786838946e-02 3.784489270660996475e-04 -4.658322829872455807e-03 3.259725358575904508e-02 -4.800852838479823664e-02 1.704878190507314517e-03 4.567461419567916958e-02 8.107048906397842924e-02 2.615453756847037348e-02 4.354307090352709658e-03 7.060841982540602474e-04 1.454161039398278732e-03 -9.335371025689483604e-04 -1.533276118252890896e-02 -1.632478405197159907e-02 7.177973729953877891e-02 1.002348563785695687e-02 -1.025423608004946328e-04 3.234490041185086873e-02 5.187878684933786011e-02 1.107945492213555224e-03 6.201261650171804862e-02 1.495866824315122690e-01 1.619146945093814793e-01 1.365383331738888595e-01 3.094971794368091972e-02 4.617561774376142958e-02 -3.688191110762385067e-02 -2.112600487224368037e-02 -4.265862771467186787e-02 1.713269179271946149e-03 -4.044344517554853205e-03 -1.050777203615780586e-01 1.281485149787464119e-02 8.371656241198657811e-02 8.167836733660571724e-02 1.684024451877957212e-02 1.123577206104773608e-02 9.559965704370190775e-03 8.554520791845451541e-03 -2.946039747963161148e-03 1.201613503437734022e-02 -2.721265071927820786e-02 -7.973733463580540484e-03 -3.170830048903828385e-02 -4.266021621794634233e-02 -1.019816320992122521e-01 -9.730886792005877250e-02 -1.165228261703644824e-01 -9.250978750396884887e-02 -4.030451291806702585e-02 6.723587692656440851e-02 7.671489989943520993e-02 -1.116217066605800987e-02 -3.368499734476562008e-02 -7.835367676182407141e-05 -2.816291474117364746e-02 7.924819859388754217e-03 1.632285558665779249e-02 -1.974889354627865426e-02 -1.015059466829551366e-01 -3.874521502290166619e-02 6.615666124372569790e-02 7.347250102757886536e-02 2.675134844806165146e-02 1.871396470308443879e-03 4.399393065291135052e-03 8.198819492104153853e-03 1.250076345313116781e-02 1.870976010663858227e-02 1.098439427299011638e-02 -4.068727213658503150e-02 -3.960352946916179118e-02 -6.053169469446505191e-02 -9.587584012730430982e-02 -6.590385768229978236e-02 -8.820456828734919708e-02 -6.317272574569235410e-02 -7.625173412210213553e-02 -3.788446735724819436e-02 3.678918354809884717e-02 2.030077021316998784e-02 -2.798516607743230938e-02 -3.396212001485649640e-02 -8.297281764228274514e-02 -4.001646416285868646e-02 -3.996778772478736669e-02 -4.180847735134399917e-02 -4.025962890188099913e-02 5.256744179731327737e-02 9.147610171468063822e-02 4.283231185940101354e-02 6.004450444734306391e-03 7.988596634779134356e-03 6.024721697191816674e-03 6.229135790442103492e-03 6.146208699321302482e-03 9.909906746189809171e-03 9.323888345568976874e-03 -6.010675495375328303e-02 -1.025915942439104833e-01 -9.048255430681940992e-02 -3.178541959145224360e-02 2.621303356900779938e-02 -3.508704036957788902e-02 -1.618596077939124175e-02 3.625162102094463008e-03 -2.910529539491575265e-02 1.040497230568948606e-02 3.116342105604866242e-03 5.663482106800030690e-03 2.900648457717088652e-02 -1.299957172254525076e-02 9.004710986713132179e-03 -4.161461271860501798e-02 -1.872078597131539637e-02 9.417430508005881357e-03 7.403909841849372342e-02 7.196196997190638933e-02 2.294904174442597561e-02 2.000511384096203583e-03 4.552991960855605307e-03 8.659355907629305571e-03 3.275987692889936135e-03 -8.251872952913141997e-04 7.093973311615866736e-03 2.110518519160448081e-02 -3.751611326115247141e-02 -4.402320745657432172e-02 6.850121869324831553e-03 2.542666220229835086e-02 6.871806674487425598e-04 -2.588395445663884201e-02 -2.113911005558358203e-02 -4.022703795323375603e-02 -4.203102804882931365e-02 -7.400899666894954210e-02 -1.419429255638247596e-03 1.949460857798040146e-03 2.808573977380531689e-02 -1.589115949665114878e-03 3.349956330184643283e-02 3.569927094397316869e-02 3.183838676707599624e-02 5.098782985597157674e-02 5.263358690714537574e-02 5.584605410639872924e-02 2.093878170777422471e-02 1.325251103252276467e-03 7.073088080516562112e-03 5.863327665174742319e-03 6.077836838193074499e-03 1.178401558535801088e-03 8.569198310092552423e-03 3.245723892555154450e-02 5.236723272438761206e-03 -1.963737219485799448e-02 4.322327433342002673e-02 -3.531978254310230714e-02 -5.559454914227832112e-02 -6.120112656217892994e-02 -6.804328199257578258e-02 -9.202157080918058063e-02 -8.390589934429915075e-02 -3.701959724317743783e-02 -6.865908245965529622e-02 -2.866115323532304401e-02 -3.080550801863542534e-02 5.952576635294697799e-02 9.361267989921184807e-02 3.868534565552904370e-02 4.987030891035239971e-02 4.888113929294737869e-02 3.643640975976444180e-02 3.083960991326257020e-02 1.416782505465715922e-02 8.542750840115296770e-03 5.197104653907932276e-03 9.305507694900676252e-04 2.546046121032525741e-03 1.386429307037189080e-03 -2.172967982767621989e-04 2.183641826289167351e-02 4.723528654036054930e-02 -5.930441204367040489e-03 -9.991803630397035410e-03 2.260188367897393753e-03 -4.107239633216509117e-02 2.678410956801386203e-02 2.440335272523679391e-02 -1.587333751031153734e-02 1.702959850464916269e-02 1.515184896384394984e-02 -1.730038367525253695e-02 -8.966824717261316288e-03 -2.586000175459489056e-02 -6.898975530328439743e-02 -5.414731541056889974e-02 -5.027869890494045604e-03 5.921524124070328722e-03 1.914829412803174466e-02 1.986676822433472087e-02 1.947741028941824687e-02 1.408096759384064485e-02 8.710197595484869132e-03 9.180300242327668961e-03 8.999823572859236287e-03 6.431029909538324429e-04 7.193269229958641937e-03 3.184685442262877395e-03 1.102106960998081205e-02 1.963893256959597933e-02 9.436887775146052953e-03 2.005849752760340693e-03 2.803879676646051436e-02 2.895608089648673070e-02 2.730036902346072436e-02 1.089291069649716420e-02 -1.044537854289088151e-02 -5.713281352412050672e-03 1.290661869979331175e-02 -2.476251197830523984e-02 -3.365631222078088736e-02 -3.453013246539206327e-02 -4.064183542520734271e-02 -6.438774194982589683e-02 -4.538622449632435246e-02 -2.266599964894452576e-02 -2.008549018763474553e-02 -2.253069073683012721e-03 1.976204076730614552e-03 3.025037535978582215e-03 5.629090124661987118e-03 9.155280080221836134e-03 2.981113237455990279e-03 9.178941489936625481e-03 2.620544303932936803e-03 8.193470342294671346e-03 7.445275771089339412e-03 5.846692728183339703e-03 1.418846099116931846e-02 1.739229033936858307e-02 2.771191459526697529e-02 3.691488077791262729e-02 5.460579552204535697e-02 3.517442160519392708e-02 1.764629661452623427e-02 3.470253213086332833e-02 3.741281722031712664e-02 3.568627678537344278e-02 3.627498442799156116e-03 -3.263071676821784148e-03 3.603863535826088912e-03 -8.666165153164505364e-03 -1.546092136308208249e-02 -2.330298699324439681e-03 3.972752837494969609e-03 -2.545297661278431611e-04 8.451109435636244144e-03 4.503514830136976649e-03 4.328430947376579394e-03 7.486867765624074036e-03 2.083116103475312827e-03 1.859783648195806327e-04 4.834486926313450242e-03 6.581688446195421358e-03 3.024117967308347348e-03 2.485232254285821545e-03 5.348083957512482500e-03 1.978040254932131748e-03 -4.587801765487523921e-03 6.533460782460440673e-03 8.344269104429648601e-03 3.812761366723806285e-03 6.460630321271031672e-03 1.145128752636017516e-02 9.842641803269004327e-03 1.161350049642158669e-02 1.013224039512361507e-02 1.235033420655251568e-02 1.578793673627407537e-02 1.232495638443043516e-02 1.279630717676129119e-02 6.009021307346671358e-03 9.141075965043829812e-03 5.942959057396153197e-03 7.798136466792996400e-03 4.064069473155778461e-03 8.872228779416365882e-03 3.790643282431277808e-03 4.232816723601818265e-01
